~o
<STREAMINFO> 1 39
<VECSIZE> 39<NULLD><MFCC_D_A_0><DIAGC>
~h "dua"
<BEGINHMM>
<NUMSTATES> 6
<STATE> 2
<MEAN> 39
 1.191145e+00 -2.085534e-01 7.266416e+00 6.489175e-01 1.507260e+00 1.310469e+00 1.892771e-01 -6.229800e+00 -2.717929e-01 -8.614008e+00 -1.079820e+01 -2.522008e+00 7.248567e+01 3.942538e-01 -1.274328e-01 8.324503e-01 -7.600624e-01 -6.481047e-01 -5.141780e-01 2.143053e-01 -9.955372e-01 5.475320e-01 -7.872254e-02 -3.264969e-01 -6.926008e-01 1.092964e+00 -6.182551e-02 -7.388171e-02 5.692701e-03 -1.391513e-02 -3.681937e-01 -1.609632e-01 -6.292740e-02 5.076961e-03 7.279357e-02 1.923040e-01 1.415364e-01 5.266248e-02 -7.686180e-02
<VARIANCE> 39
 1.823328e+01 1.689529e+01 2.135052e+01 8.979414e+01 5.843976e+01 1.556798e+02 1.385007e+02 4.650928e+01 3.014286e+01 2.819274e+01 4.948668e+01 3.956454e+01 4.720229e+01 6.557496e-01 2.104549e+00 2.155665e+00 6.641641e+00 1.159035e+01 8.348161e+00 7.543939e+00 2.508862e+00 8.630118e-01 3.174231e+00 6.964068e+00 3.507953e+00 2.221880e+00 9.848844e-02 3.755384e-01 3.410098e-01 1.134165e+00 1.194709e+00 9.346601e-01 9.998043e-01 3.747167e-01 2.669708e-01 5.620402e-01 1.427371e+00 6.565104e-01 4.877687e-01
<GCONST> 1.287315e+02
<STATE> 3
<MEAN> 39
 4.263516e+00 -1.744224e+00 1.567224e+01 -3.150552e+00 -1.547745e+01 -1.356773e+01 -7.263592e+00 -1.324481e+01 1.765793e+00 -4.869359e-01 -1.090515e+01 -8.103360e+00 7.853517e+01 1.096226e-01 -1.758767e-01 -5.414836e-01 -3.921493e-01 9.501848e-02 -8.161784e-01 -3.134623e-01 5.414448e-01 -2.241992e-01 1.138034e-01 4.265305e-01 2.431092e-01 1.822081e-01 -3.908414e-03 -1.102223e-01 -1.948404e-01 -1.764410e-01 2.171328e-01 6.980522e-02 1.190642e-01 1.455728e-02 4.936789e-02 -1.979985e-01 -7.673958e-02 5.684826e-02 8.943734e-02
<VARIANCE> 39
 3.011287e+01 7.408062e+00 1.790099e+01 1.405048e+01 4.143199e+01 2.005927e+02 3.876286e+02 2.756271e+01 7.359491e+01 2.072046e+01 1.093064e+01 1.382103e+01 3.874401e+00 7.926562e-02 5.953755e-01 1.106229e+00 1.731624e+00 1.083210e+00 1.459407e+00 9.978016e-01 1.501219e+00 9.624626e-01 2.097340e+00 6.627302e-01 2.121502e+00 4.871431e-01 1.555039e-02 2.201181e-02 1.194244e-01 8.022901e-02 1.530795e-01 2.277060e-01 1.620086e-01 2.154149e-01 1.554029e-01 1.451958e-01 9.654809e-02 3.954396e-01 1.518524e-02
<GCONST> 8.281454e+01
<STATE> 4
<MEAN> 39
 2.434086e+00 -1.417410e+01 -1.904544e+00 -1.622280e+01 -1.055505e+01 -1.638103e+01 1.254132e+01 -1.479232e+01 5.648560e+00 -6.593708e+00 -7.981622e+00 8.658934e-01 8.610511e+01 -1.055052e-01 -6.326513e-01 -6.834130e-01 -2.133415e-01 -7.207455e-02 8.424510e-01 1.022613e+00 -5.724959e-01 4.642030e-01 -9.988590e-02 2.460685e-01 7.501497e-01 1.283138e-01 -2.678601e-02 1.077166e-01 1.290666e-01 8.904129e-02 -2.191760e-02 8.816155e-02 -1.478208e-01 8.662823e-02 -3.313571e-02 5.726220e-02 6.476513e-02 -5.072554e-02 -1.016201e-01
<VARIANCE> 39
 2.955007e+01 1.304111e+01 1.698429e+01 3.091357e+00 5.100901e+01 3.874464e+01 3.997463e+02 1.098805e+02 1.792078e+01 7.109070e+01 4.520941e+00 4.740117e+01 1.842747e+00 4.992177e-02 3.543978e-01 5.567006e-01 3.399054e-01 8.716843e-01 9.387870e-01 1.820118e+00 9.204976e-01 9.795167e-01 1.923808e+00 5.096576e-01 8.282190e-01 1.380565e-01 1.128255e-02 4.719820e-02 5.531030e-02 5.571100e-02 1.298604e-01 2.410382e-01 2.086306e-01 2.729476e-01 1.565677e-01 3.223966e-01 9.613110e-02 2.008227e-01 2.632331e-02
<GCONST> 7.518625e+01
<STATE> 5
<MEAN> 39
 -1.323017e+00 -1.409013e+01 -9.345381e+00 -1.039719e+01 -1.174152e+01 1.091967e+00 4.166413e+00 -1.709688e+00 4.965900e+00 -4.283976e+00 -2.921289e+00 7.872090e+00 7.086824e+01 -5.535154e-01 6.448172e-01 -1.700239e-02 6.373181e-01 1.503302e-01 3.361092e-01 -5.385898e-01 8.756528e-01 -5.212556e-01 3.647476e-01 -4.031987e-03 -1.443961e-01 -1.312590e+00 1.870711e-02 3.761507e-02 -3.729662e-02 4.902672e-02 5.175270e-02 -1.505563e-01 -7.978091e-02 6.075922e-03 -4.677079e-02 4.671345e-02 -9.213289e-02 -1.205971e-01 -1.017931e-02
<VARIANCE> 39
 2.324293e+01 1.240050e+01 3.674031e+01 2.981544e+01 1.467732e+01 2.304149e+01 1.627782e+02 8.686978e+01 2.278991e+01 2.116366e+01 1.007603e+01 1.873648e+01 6.773878e+01 6.333957e-01 7.349521e-01 2.702424e+00 2.988616e+00 1.692000e+00 1.253733e+00 4.840468e+00 3.233188e+00 1.637387e+00 1.650878e+00 8.519798e-01 2.811514e+00 9.379359e-01 1.539654e-01 1.234155e-01 6.167791e-01 7.114272e-01 2.887472e-01 1.648539e-01 5.894213e-01 2.222134e-01 3.406762e-01 2.303845e-01 1.642293e-01 3.968379e-01 1.155054e-01
<GCONST> 1.046873e+02
<TRANSP> 6
 0.000000e+00 1.000000e+00 0.000000e+00 0.000000e+00 0.000000e+00 0.000000e+00
 0.000000e+00 9.285714e-01 7.142857e-02 0.000000e+00 0.000000e+00 0.000000e+00
 0.000000e+00 0.000000e+00 9.411765e-01 5.882353e-02 0.000000e+00 0.000000e+00
 0.000000e+00 0.000000e+00 0.000000e+00 9.473684e-01 5.263158e-02 0.000000e+00
 0.000000e+00 0.000000e+00 0.000000e+00 0.000000e+00 9.411765e-01 5.882353e-02
 0.000000e+00 0.000000e+00 0.000000e+00 0.000000e+00 0.000000e+00 0.000000e+00
<ENDHMM>
