~o
<STREAMINFO> 1 39
<VECSIZE> 39<NULLD><MFCC_D_A_0><DIAGC>
~h "satu"
<BEGINHMM>
<NUMSTATES> 6
<STATE> 2
<MEAN> 39
 -4.977914e+00 -2.153115e+01 8.464990e+00 -1.841647e+01 -5.574707e+00 4.943568e+00 -1.151231e+00 -1.528627e+01 2.000233e+01 -2.932753e+00 -2.865822e+00 8.432300e-01 8.367278e+01 1.758075e+00 2.647294e-01 -1.390392e+00 -1.233376e-01 -2.399022e-01 -7.631457e-01 -3.573779e-01 5.633481e-01 -6.783241e-02 -4.715174e-02 -4.811358e-01 6.449416e-01 5.466070e-01 2.321394e-02 7.068110e-02 1.212084e-01 9.907462e-02 -5.987003e-02 9.491712e-02 -2.163940e-01 -7.320391e-02 -2.309376e-01 -3.462176e-02 2.404195e-02 4.787693e-02 -8.946674e-02
<VARIANCE> 39
 1.796638e+02 2.090302e+01 1.167120e+02 7.319292e+00 1.042982e+01 2.564172e+01 8.807302e+00 2.331094e+01 1.414610e+01 1.590926e+01 3.648051e+01 1.179075e+01 1.374735e+01 5.481381e+00 2.151445e+00 2.457521e+00 1.191640e+00 7.455027e-01 2.090356e+00 2.935060e+00 9.781870e-01 2.954507e+00 2.222926e+00 2.240802e+00 9.627575e-01 7.429271e-01 8.583288e-01 4.341370e-01 2.165518e-01 2.080407e-01 1.225587e-01 3.195678e-01 4.092586e-01 9.571406e-02 5.486842e-01 3.771293e-01 3.202008e-01 1.916394e-01 1.283546e-01
<GCONST> 1.020811e+02
<STATE> 3
<MEAN> 39
 5.022852e+00 -1.475114e+01 -5.569913e+00 -9.682757e+00 -1.577173e+01 2.859627e+00 -6.943421e+00 -6.269834e+00 5.003394e+00 -6.444777e+00 -6.326144e+00 1.024232e+01 7.462252e+01 -4.847481e-01 3.961613e-01 -6.398103e-01 4.921927e-01 -3.144776e-01 -8.836061e-03 9.217547e-02 4.941149e-01 -1.004208e+00 -2.880386e-01 -7.571369e-02 1.636052e-01 -1.138316e+00 -9.833574e-02 -7.333937e-02 7.017050e-02 -1.320599e-01 1.863278e-02 -3.407895e-03 1.425330e-01 7.629212e-03 1.744438e-01 8.159427e-02 6.449860e-02 -1.435685e-01 4.471377e-02
<VARIANCE> 39
 8.203860e+00 5.044859e+00 3.163311e+01 1.457100e+01 1.934094e+01 3.743534e+00 8.619318e+00 3.522622e+01 1.905779e+01 3.472273e+00 5.717708e+00 4.641547e+00 4.778375e+01 2.977299e-01 1.208467e-01 1.564002e+00 1.153959e+00 2.147250e+00 4.080118e-01 1.085215e+00 3.286110e+00 1.581633e+00 8.515828e-01 6.947838e-01 8.668528e-01 6.134659e-01 3.157734e-02 4.316066e-02 6.143115e-01 1.888365e-01 3.992431e-01 8.463594e-02 3.156624e-01 6.079961e-01 1.999488e-01 1.728889e-01 2.168148e-01 2.105970e-01 2.022610e-01
<GCONST> 7.873602e+01
<STATE> 4
<MEAN> 39
 3.626685e+00 -1.354112e+01 1.558759e+01 -6.296546e+00 -1.130435e+01 3.402980e+00 -1.795004e+01 -7.623740e+00 1.393416e+01 -8.334370e+00 -1.310719e+01 -2.309437e-01 7.989814e+01 4.108487e-01 -4.150580e-02 1.644375e+00 1.350596e-01 -6.266499e-02 -1.586463e-01 -1.090579e+00 -1.088784e-02 9.095829e-01 1.848002e-01 -3.532522e-01 -6.472754e-01 8.480279e-01 7.289585e-02 6.437999e-02 -1.929554e-01 4.950385e-02 -4.314175e-02 -1.057199e-01 5.749838e-02 5.945138e-02 -6.245875e-02 -8.390755e-04 -9.907879e-02 1.162574e-02 -6.535213e-02
<VARIANCE> 39
 2.368869e+01 5.302987e+00 8.983871e+01 1.548457e+01 2.904111e+01 7.193594e+00 5.960960e+01 1.588131e+01 6.160458e+01 1.384772e+01 6.198005e+01 1.938792e+01 3.006173e+01 2.111037e+00 5.793467e-01 4.835361e+00 1.794640e+00 3.528813e+00 1.021305e+00 9.651510e-01 2.003838e+00 2.962612e+00 1.754023e+00 8.176355e+00 2.196732e+00 2.335062e+00 4.699877e-01 8.030749e-02 4.524954e-01 3.319202e-01 5.736462e-01 2.302266e-01 1.907511e-01 3.691815e-01 3.917003e-01 4.061176e-01 1.733274e+00 2.362197e-01 3.425469e-01
<GCONST> 1.092216e+02
<STATE> 5
<MEAN> 39
 2.717448e+00 -6.582583e+00 1.213843e+01 -6.534970e-01 -1.849163e+01 -8.968553e+00 -1.950388e+01 -4.705162e+00 6.539743e+00 -7.120625e+00 -1.625304e+01 -3.710094e+00 7.176347e+01 -4.262820e-01 7.917005e-01 -7.240455e-01 1.006406e+00 3.901880e-01 -1.566211e-01 1.271461e+00 1.312155e-01 -1.012145e+00 -6.670020e-03 -9.505161e-02 1.398801e-01 -1.113014e+00 6.606868e-02 4.749705e-02 1.075781e-01 1.896997e-01 2.633574e-01 3.461816e-01 1.718228e-01 1.079907e-01 4.870275e-02 7.645801e-02 5.993836e-02 1.388145e-01 4.011972e-02
<VARIANCE> 39
 8.207524e+00 1.234147e+01 2.647938e+01 2.512364e+01 8.335544e+00 1.893314e+01 2.821936e+01 6.532485e+00 2.601388e+01 7.828931e+00 9.202062e+00 1.290556e+01 3.864990e+01 2.027830e-01 2.008618e-01 1.110686e+00 1.428735e+00 2.837523e+00 3.807427e+00 9.255272e-01 1.036780e+00 8.408793e-01 1.411987e+00 1.371867e+00 2.067022e+00 3.767978e-01 5.606744e-02 4.661054e-02 1.492587e-01 3.015087e-01 2.735244e-01 2.241759e-01 7.882577e-02 1.818545e-01 2.096416e-01 3.359550e-01 3.093698e-01 3.534258e-01 8.229110e-02
<GCONST> 8.321042e+01
<TRANSP> 6
 0.000000e+00 1.000000e+00 0.000000e+00 0.000000e+00 0.000000e+00 0.000000e+00
 0.000000e+00 9.444444e-01 5.555555e-02 0.000000e+00 0.000000e+00 0.000000e+00
 0.000000e+00 0.000000e+00 9.444444e-01 5.555555e-02 0.000000e+00 0.000000e+00
 0.000000e+00 0.000000e+00 0.000000e+00 9.473684e-01 5.263158e-02 0.000000e+00
 0.000000e+00 0.000000e+00 0.000000e+00 0.000000e+00 9.375000e-01 6.250000e-02
 0.000000e+00 0.000000e+00 0.000000e+00 0.000000e+00 0.000000e+00 0.000000e+00
<ENDHMM>
