~o
<STREAMINFO> 1 39
<VECSIZE> 39<NULLD><MFCC_D_A_0><DIAGC>
~h "sil"
<BEGINHMM>
<NUMSTATES> 6
<STATE> 2
<MEAN> 39
 -1.765593e+01 3.621668e+00 -4.521409e-01 5.964024e+00 -3.333518e-01 5.327595e+00 4.926122e+00 1.188792e+00 4.391755e+00 1.345795e-02 -2.368118e+00 1.434017e+00 5.597167e+01 -2.773111e-01 -2.722616e-01 -3.306448e-01 -2.825753e-02 6.256108e-02 -9.835999e-02 7.626782e-02 -2.706875e-02 -1.962488e-01 2.018184e-01 1.855054e-01 1.040047e-01 -2.484894e-01 6.382311e-02 6.956346e-02 3.131774e-02 8.500413e-02 2.102858e-02 -2.554597e-02 2.668364e-02 5.423852e-04 -5.118079e-02 -2.050228e-02 3.344416e-02 -1.895808e-03 2.515982e-02
<VARIANCE> 39
 3.362639e+01 3.203856e+01 9.570419e+00 1.215785e+01 3.785403e+01 1.296246e+01 3.378011e+01 1.937731e+01 1.927861e+01 1.185365e+01 3.583230e+01 8.065904e+00 6.617530e+00 1.110342e+00 1.019369e+00 1.299374e+00 1.255876e+00 1.591390e+00 1.539140e+00 1.501666e+00 1.538831e+00 1.435284e+00 8.270035e-01 1.608952e+00 1.259149e+00 4.927040e-01 1.363855e-01 1.001002e-01 2.340073e-01 1.940383e-01 3.478215e-01 3.119746e-01 3.276048e-01 3.250979e-01 2.593666e-01 1.780997e-01 2.835960e-01 3.124291e-01 6.885109e-02
<GCONST> 9.157959e+01
<STATE> 3
<MEAN> 39
 -1.270798e+01 -3.550622e+00 -5.302627e-01 6.503869e+00 -6.208838e+00 6.910209e+00 -9.746268e-01 -5.701616e-01 -8.918945e-01 1.287049e+00 -4.843181e+00 2.234425e+00 5.347662e+01 -2.812604e-02 3.720519e-02 1.031813e-02 4.603018e-02 4.544028e-02 3.248315e-02 2.884433e-02 6.931765e-02 -2.466757e-03 1.910201e-02 7.356316e-02 4.535754e-02 -4.839073e-02 3.268008e-03 -1.277211e-03 -1.315344e-04 -9.747287e-03 -2.113051e-02 -1.876683e-02 -1.374284e-02 -2.279129e-02 -1.351530e-02 -1.187501e-02 -1.749854e-02 -1.841641e-02 4.804185e-03
<VARIANCE> 39
 1.611494e+00 2.267082e+00 2.904170e+00 2.482065e+00 4.257778e+00 3.254304e+00 6.723055e+00 7.887233e+00 6.917540e+00 4.967517e+00 6.136508e+00 5.616651e+00 1.416976e+00 1.031073e-01 1.626228e-01 3.283276e-01 3.067345e-01 3.461190e-01 3.597430e-01 8.976418e-01 1.085789e+00 7.358383e-01 6.175616e-01 7.958834e-01 7.627836e-01 7.192054e-02 2.165684e-02 2.965518e-02 6.397337e-02 5.377179e-02 6.421992e-02 7.424059e-02 2.066083e-01 2.428767e-01 1.409848e-01 1.233679e-01 1.606146e-01 1.403769e-01 1.000000e-02
<GCONST> 4.275036e+01
<STATE> 4
<MEAN> 39
 -1.359192e+01 -1.886807e+00 -1.634389e+00 6.565504e+00 -5.858697e+00 5.845298e+00 -1.488694e+00 2.166494e-01 -2.511571e+00 1.554042e+00 -4.139110e+00 1.254878e+00 5.143375e+01 -8.899349e-03 -1.614768e-03 -1.042740e-02 -9.994837e-03 -1.202821e-02 -5.344602e-03 -5.743150e-03 -1.147608e-02 -2.980628e-02 -1.267030e-02 -9.237109e-03 -1.225548e-02 -9.213508e-03 9.483734e-04 -6.527835e-04 1.169683e-03 -5.257267e-03 1.478680e-03 6.981517e-03 -3.800189e-03 -5.780932e-03 -2.652974e-03 -5.497478e-04 3.015942e-03 2.962522e-03 1.850489e-03
<VARIANCE> 39
 6.039421e-01 1.049671e+00 1.730951e+00 2.780834e+00 3.949003e+00 4.851651e+00 5.109129e+00 6.683103e+00 7.710277e+00 6.877179e+00 6.133741e+00 5.277513e+00 3.006041e-01 4.501076e-02 8.557000e-02 2.061940e-01 3.311782e-01 4.181955e-01 6.696529e-01 7.483715e-01 8.024064e-01 9.338784e-01 7.147597e-01 5.929731e-01 5.929703e-01 1.867140e-02 1.000000e-02 1.765518e-02 4.548275e-02 6.921970e-02 8.622269e-02 1.513731e-01 1.743856e-01 1.760014e-01 1.935910e-01 1.464153e-01 1.170249e-01 1.270011e-01 1.000000e-02
<GCONST> 3.546320e+01
<STATE> 5
<MEAN> 39
 -1.947043e+01 4.887359e+00 -1.905933e+00 7.970737e+00 2.458462e+00 5.421807e+00 7.213631e+00 3.474855e+00 5.371928e-01 8.785383e-01 1.923179e+00 1.121769e+00 5.311889e+01 1.197731e-03 -1.237405e-02 -1.885029e-02 -8.532491e-02 6.513738e-02 1.537805e-01 9.859428e-02 1.476475e-01 1.158624e-01 -2.478309e-02 -9.989155e-02 1.375249e-02 1.102880e-02 1.050770e-02 6.817238e-03 8.766389e-03 -7.338652e-03 2.411048e-02 2.915565e-02 2.009245e-02 4.648726e-02 5.789049e-02 2.253084e-02 -1.671936e-02 6.661095e-03 5.477679e-03
<VARIANCE> 39
 1.236217e+00 3.028002e+00 5.091863e+00 5.856824e+00 5.214199e+00 7.726861e+00 1.071821e+01 1.377808e+01 1.775496e+01 9.862350e+00 9.508893e+00 7.017589e+00 3.760800e-01 5.997982e-02 2.548187e-01 4.926882e-01 4.215135e-01 3.020000e-01 4.740930e-01 7.572370e-01 1.632588e+00 2.005934e+00 1.412506e+00 1.063377e+00 1.008072e+00 2.249180e-02 1.000000e-02 5.538730e-02 1.081386e-01 8.108518e-02 5.473952e-02 7.510121e-02 1.238525e-01 3.116755e-01 3.894979e-01 3.081848e-01 2.232222e-01 2.193475e-01 1.000000e-02
<GCONST> 5.257813e+01
<TRANSP> 6
 0.000000e+00 1.000000e+00 0.000000e+00 0.000000e+00 0.000000e+00 0.000000e+00
 0.000000e+00 9.500000e-01 5.000000e-02 0.000000e+00 0.000000e+00 0.000000e+00
 0.000000e+00 0.000000e+00 9.767442e-01 2.325581e-02 0.000000e+00 0.000000e+00
 0.000000e+00 0.000000e+00 0.000000e+00 9.915966e-01 8.403363e-03 0.000000e+00
 0.000000e+00 0.000000e+00 0.000000e+00 0.000000e+00 9.642857e-01 3.571428e-02
 0.000000e+00 0.000000e+00 0.000000e+00 0.000000e+00 0.000000e+00 0.000000e+00
<ENDHMM>
