~o
<STREAMINFO> 1 39
<VECSIZE> 39<NULLD><MFCC_D_A_0><DIAGC>
~h "lima"
<BEGINHMM>
<NUMSTATES> 6
<STATE> 2
<MEAN> 39
 -5.837154e+00 -3.791850e+00 1.088459e+01 1.051066e+01 6.316317e+00 -1.652298e+01 5.410700e+00 -1.348558e+01 -8.475656e+00 -3.580027e+00 -8.018554e+00 -7.126288e+00 7.796444e+01 2.086694e-01 -6.014055e-01 3.230130e-01 8.416374e-01 4.475590e-01 -2.155887e+00 -1.109208e+00 -6.571562e-01 2.246320e-01 3.578966e-01 -7.561491e-01 -9.075505e-01 1.102190e+00 5.157354e-02 2.274455e-01 -3.057989e-01 -2.850963e-01 -2.472193e-02 2.799092e-01 1.648903e-01 2.762080e-01 2.803646e-03 -1.397875e-02 3.424050e-02 1.193065e-01 -2.713325e-01
<VARIANCE> 39
 2.381380e+01 6.837786e+01 2.484870e+01 6.912336e+01 3.525743e+01 2.687657e+02 1.843668e+02 1.987971e+02 8.086515e+01 4.464616e+01 1.183207e+02 4.524688e+01 3.874241e+01 1.755528e+00 3.480170e+00 3.976602e+00 3.596541e+00 2.868638e+00 8.055045e+00 6.946950e+00 5.468684e+00 7.634584e+00 2.277943e+00 5.185530e+00 4.865352e+00 2.139270e+00 1.908178e-01 5.688121e-01 5.035302e-01 6.839916e-01 3.697063e-01 2.329569e+00 1.278081e+00 1.274150e+00 1.093073e+00 4.653902e-01 1.243071e+00 6.869492e-01 3.450580e-01
<GCONST> 1.398670e+02
<STATE> 3
<MEAN> 39
 2.242230e-01 -1.485928e+00 5.538610e+00 7.154118e+00 8.584875e+00 -7.824930e+00 -3.070041e+00 -5.689307e+00 -5.100290e-01 -6.178223e+00 -1.030373e+01 -9.266825e+00 7.629533e+01 4.267852e-01 3.324872e-01 -8.068962e-01 -1.346649e+00 -1.015998e+00 4.079231e-01 9.479286e-01 6.275238e-01 3.807476e-01 -2.227399e-01 7.135907e-02 6.925675e-01 -3.623983e-02 -3.506101e-02 -2.127149e-01 2.449104e-02 -2.983362e-02 -2.334522e-01 -1.970916e-01 1.823628e-01 -4.596465e-02 4.189594e-02 8.611700e-03 1.023923e-01 2.006628e-01 1.584650e-01
<VARIANCE> 39
 1.444841e+01 1.153847e+02 2.440709e+01 7.057999e+01 3.740861e+01 1.248707e+02 2.550695e+02 7.809982e+01 5.762480e+01 9.624610e+01 7.744575e+01 1.862502e+01 1.661340e+01 3.250176e-01 1.699495e+00 9.178953e-01 2.398370e+00 3.246282e+00 5.513296e+00 3.062042e+00 4.002966e+00 1.930890e+00 1.670205e+00 2.765110e+00 2.413372e+00 1.334191e+00 5.754398e-02 1.557954e-01 2.156087e-01 3.186480e-01 3.050838e-01 6.291087e-01 4.265064e-01 4.639300e-01 3.310632e-01 3.054287e-01 4.758010e-01 2.710770e-01 1.278185e-01
<GCONST> 1.154854e+02
<STATE> 4
<MEAN> 39
 1.554308e+00 -1.021636e+01 -3.900630e+00 -1.227723e+01 -9.339215e+00 -9.927138e+00 2.499586e+01 -1.202014e+01 2.533991e+00 -9.242867e+00 -1.038349e+01 3.848891e+00 8.383747e+01 -3.252563e-02 -2.925744e-01 -3.069986e-01 -1.984687e-01 -3.072215e-01 2.292265e-01 8.227928e-01 -1.800665e-02 -2.104637e-01 -2.946851e-02 3.045363e-01 7.302041e-01 5.599038e-02 -4.232897e-02 1.430496e-01 1.836712e-01 2.205211e-01 2.458954e-01 -5.665862e-02 -3.156984e-01 7.709596e-02 -1.100998e-01 4.765382e-02 -1.693682e-01 -1.955404e-01 -1.609903e-01
<VARIANCE> 39
 2.341121e+01 5.201068e+01 2.869114e+00 1.299153e+01 2.065875e+01 1.395431e+02 4.203418e+02 2.061412e+02 1.523258e+02 3.168267e+01 1.723955e+01 8.687248e+00 3.864342e+00 7.474399e-02 4.111601e-01 6.525391e-01 7.012349e-01 6.065847e-01 1.168581e+00 3.171717e+00 9.751930e-01 1.557377e+00 1.412983e+00 1.204464e+00 9.942663e-01 2.380287e-01 2.050103e-02 3.943970e-02 1.124270e-01 1.929117e-01 2.410650e-01 2.302747e-01 6.891590e-01 2.024341e-01 2.429124e-01 2.132232e-01 1.386844e-01 1.907257e-01 3.497996e-02
<GCONST> 8.687539e+01
<STATE> 5
<MEAN> 39
 -9.275269e-01 -2.150906e+00 -2.737954e+00 -1.760360e+00 -2.775004e+00 -6.498486e+00 1.012374e+01 2.568635e+00 -8.517370e-01 -5.525292e+00 -7.425940e+00 2.539669e+00 7.258394e+01 -9.512697e-01 6.603945e-01 5.283908e-01 1.229413e+00 1.293282e+00 1.069805e+00 -9.932703e-01 6.941922e-01 1.308970e-01 2.829086e-01 -2.630097e-01 -7.486616e-01 -1.592667e+00 -9.730717e-02 -3.568273e-02 -7.528452e-02 8.468314e-02 5.170191e-02 2.395623e-01 -2.587551e-03 -7.788686e-02 1.533411e-01 1.876435e-02 5.982160e-02 -1.146591e-01 -6.331842e-02
<VARIANCE> 39
 1.895744e+01 1.102900e+02 3.782256e+01 7.058502e+01 5.881222e+01 1.185561e+02 1.666460e+02 1.318160e+02 1.629328e+01 4.804247e+01 5.721917e+01 1.849878e+01 3.175949e+01 9.085415e-01 1.203351e+00 1.650929e+00 2.483449e+00 4.722302e+00 3.251370e+00 9.824580e+00 5.429928e+00 1.820004e+00 1.339019e+00 1.636596e+00 1.502884e+00 8.376270e-01 1.623540e-01 3.150765e-01 2.287150e-01 6.392189e-01 8.195020e-01 5.533925e-01 1.008338e+00 7.693545e-01 3.505999e-01 2.443105e-01 3.708194e-01 4.720502e-01 2.333991e-01
<GCONST> 1.213713e+02
<TRANSP> 6
 0.000000e+00 1.000000e+00 0.000000e+00 0.000000e+00 0.000000e+00 0.000000e+00
 0.000000e+00 8.936170e-01 1.063830e-01 0.000000e+00 0.000000e+00 0.000000e+00
 0.000000e+00 0.000000e+00 9.242424e-01 7.575757e-02 0.000000e+00 0.000000e+00
 0.000000e+00 0.000000e+00 0.000000e+00 8.979592e-01 1.020408e-01 0.000000e+00
 0.000000e+00 0.000000e+00 0.000000e+00 0.000000e+00 8.837209e-01 1.162791e-01
 0.000000e+00 0.000000e+00 0.000000e+00 0.000000e+00 0.000000e+00 0.000000e+00
<ENDHMM>
