~o
<STREAMINFO> 1 39
<VECSIZE> 39<NULLD><MFCC_D_A_0><DIAGC>
~h "enam"
<BEGINHMM>
<NUMSTATES> 6
<STATE> 2
<MEAN> 39
 7.568086e-02 -1.509881e+00 2.059535e+00 4.451542e+00 9.981920e+00 1.086476e+00 -1.260375e+00 -1.341387e+01 1.111832e+00 -7.887818e+00 -7.947639e+00 -1.007706e+00 7.513107e+01 4.221861e-01 -7.297563e-02 2.139153e-01 -5.024175e-02 2.700918e-01 -3.318037e-01 -2.811728e-01 -2.114259e-01 -3.840557e-02 -1.463962e-01 -2.910071e-01 6.451833e-02 6.060629e-01 7.291240e-03 -1.340515e-01 -9.703285e-02 -1.648346e-01 -3.095538e-01 -5.892654e-02 1.358465e-01 1.941880e-01 6.899840e-02 9.128246e-02 1.176977e-01 1.509300e-01 3.247609e-02
<VARIANCE> 39
 2.379781e+01 4.453079e+01 4.400771e+01 5.139207e+01 4.642892e+01 1.821390e+02 2.090500e+02 1.650206e+02 8.091537e+01 5.123583e+01 3.666140e+01 1.450758e+01 4.080183e+01 7.417356e-01 1.447103e+00 1.414692e+00 3.162954e+00 4.655246e+00 2.116683e+00 4.053044e+00 2.456899e+00 2.198530e+00 2.228931e+00 2.322718e+00 1.048788e+00 1.818694e+00 1.149129e-01 2.666925e-01 1.432801e-01 6.216871e-01 4.839338e-01 2.361138e-01 8.707556e-01 2.684963e-01 3.916743e-01 3.347358e-01 4.218367e-01 1.814647e-01 3.952773e-01
<GCONST> 1.183506e+02
<STATE> 3
<MEAN> 39
 3.025127e-01 -1.175413e+01 -4.690286e+00 -9.347214e+00 -1.083337e+01 -1.215792e+01 2.994827e+01 -2.211084e+01 1.721879e+00 -9.424222e+00 -7.730270e+00 5.641759e+00 8.548781e+01 4.822114e-02 -2.353327e-01 -2.446836e-01 -8.893730e-01 -8.442837e-01 -2.495177e-02 7.490758e-01 5.135370e-01 7.367922e-01 2.097035e-01 1.257290e-01 -5.558503e-02 1.284059e-01 -4.465238e-02 2.820938e-01 2.252072e-01 4.262314e-01 4.702949e-01 1.447665e-01 -4.596481e-01 -7.301709e-02 -2.135760e-01 -1.382986e-01 -2.670085e-01 -2.471884e-01 -2.473260e-01
<VARIANCE> 39
 6.040692e+00 2.656640e+01 1.287275e+01 2.310921e+01 4.284704e+01 1.299790e+02 3.124713e+02 1.101427e+02 7.195440e+01 2.418291e+01 8.974423e+00 4.706602e+00 4.154137e+00 1.989928e-01 2.929601e+00 1.909632e+00 4.188873e+00 4.405200e+00 6.914428e-01 9.433281e+00 2.646430e+00 1.753907e+00 1.356285e+00 1.485984e+00 1.528384e+00 1.047777e+00 2.564917e-02 1.522170e-01 1.558088e-01 6.167481e-01 3.574648e-01 1.202989e-01 9.455671e-01 5.698460e-01 2.241040e-01 2.567849e-01 1.625091e-01 1.480617e-01 7.745495e-02
<GCONST> 1.009624e+02
<STATE> 4
<MEAN> 39
 3.077596e+00 -8.039099e+00 1.263632e+00 -8.362256e+00 -7.228394e-01 1.858065e+00 5.992916e+00 -5.531002e+00 8.228617e+00 -7.691939e+00 -1.075843e+01 4.500988e-01 8.043155e+01 -5.905389e-02 5.306093e-01 3.236260e-01 5.588718e-01 5.616572e-01 2.867247e-01 -4.203585e-01 4.393956e-01 -2.930070e-01 -5.672811e-02 -2.106508e-01 -3.071590e-01 -5.436623e-01 -2.039809e-02 6.369515e-03 -4.729061e-02 4.471171e-02 9.778849e-02 1.028915e-01 1.723088e-02 -3.996955e-03 3.732559e-02 3.307424e-02 -6.913014e-04 4.602614e-02 -5.544794e-02
<VARIANCE> 39
 2.793657e+01 1.453459e+02 1.429932e+01 4.788181e+01 1.304660e+01 1.932673e+02 1.374910e+02 1.067937e+02 9.408221e+01 3.792468e+01 7.405209e+01 2.352826e+01 1.984090e+01 1.990340e-01 5.966461e-01 8.684985e-01 1.105190e+00 1.687966e+00 6.682323e-01 1.024205e+00 1.662848e+00 1.411128e+00 8.397206e-01 1.200515e+00 9.694423e-01 1.912115e-01 3.706225e-02 1.162440e-01 1.520391e-01 1.868850e-01 3.349522e-01 1.423928e-01 1.861655e-01 2.290902e-01 2.135206e-01 1.894664e-01 1.881254e-01 1.715823e-01 2.200875e-02
<GCONST> 9.405795e+01
<STATE> 5
<MEAN> 39
 -2.882757e+00 1.982504e+00 2.255954e+00 5.950336e+00 6.833858e+00 8.380256e+00 3.422779e+00 4.294904e+00 3.842571e+00 -3.360217e+00 -7.357328e+00 -2.586012e+00 6.689417e+01 -7.592887e-01 -4.152755e-02 -1.442363e-01 5.218717e-01 -1.337650e-01 2.649122e-01 3.267458e-01 9.538609e-02 -1.680981e-01 2.854510e-01 2.448072e-01 1.811273e-01 -8.394611e-01 -2.462339e-03 -3.370172e-02 -7.307150e-02 -1.845646e-01 -2.216193e-01 -1.832309e-01 8.941484e-03 -1.547392e-01 -8.963265e-02 -9.021168e-02 7.049156e-02 1.301006e-02 7.671893e-02
<VARIANCE> 39
 2.137312e+01 1.009834e+02 1.587607e+01 4.710241e+01 3.265271e+01 7.532172e+01 3.064623e+01 8.348490e+00 3.203920e+01 2.450581e+01 2.452926e+01 3.491903e+01 2.154039e+01 1.495302e-01 5.882915e-01 6.706888e-01 1.181005e+00 1.622493e+00 1.289423e+00 1.461563e+00 1.426225e+00 1.536467e+00 1.826673e+00 2.406018e+00 2.054551e+00 1.450012e-01 3.306669e-02 5.271512e-02 7.577030e-02 1.557371e-01 1.249911e-01 8.356559e-02 1.987612e-01 2.785533e-01 2.988851e-01 2.690187e-01 3.748134e-01 2.963786e-01 1.375911e-02
<GCONST> 8.806893e+01
<TRANSP> 6
 0.000000e+00 1.000000e+00 0.000000e+00 0.000000e+00 0.000000e+00 0.000000e+00
 0.000000e+00 9.454545e-01 5.454545e-02 0.000000e+00 0.000000e+00 0.000000e+00
 0.000000e+00 0.000000e+00 8.695652e-01 1.304348e-01 0.000000e+00 0.000000e+00
 0.000000e+00 0.000000e+00 0.000000e+00 9.347826e-01 6.521739e-02 0.000000e+00
 0.000000e+00 0.000000e+00 0.000000e+00 0.000000e+00 9.230769e-01 7.692308e-02
 0.000000e+00 0.000000e+00 0.000000e+00 0.000000e+00 0.000000e+00 0.000000e+00
<ENDHMM>
