~o
<STREAMINFO> 1 39
<VECSIZE> 39<NULLD><MFCC_D_A_0><DIAGC>
~h "nol"
<BEGINHMM>
<NUMSTATES> 6
<STATE> 2
<MEAN> 39
 -3.918975e+00 -1.131531e-01 6.711902e+00 -2.328402e+00 9.371374e+00 -1.638786e+01 1.393006e+01 -2.453608e+01 -1.327203e+01 -8.759093e+00 -1.735251e+01 8.085488e+00 7.674155e+01 1.917900e-01 -7.009459e-02 -1.015131e-01 -6.751722e-01 -4.184495e-01 -3.830080e-01 3.822629e-01 -4.515377e-01 -2.191641e-01 -7.263308e-01 3.574339e-02 -3.375931e-01 6.604003e-01 -9.126747e-02 -2.241937e-01 -2.289878e-01 -3.311691e-01 -2.925659e-01 1.422077e-01 2.429298e-01 6.070077e-01 4.102986e-01 1.774702e-01 5.983589e-01 -3.354732e-01 5.020393e-02
<VARIANCE> 39
 1.011937e+00 1.250949e+00 3.148372e+00 9.710003e+00 1.675765e+01 4.703653e+00 7.029805e+00 1.008709e+01 1.609538e+01 1.585406e+01 1.280164e+01 1.633912e+01 2.229111e+00 3.412930e-01 3.988545e-01 1.417918e+00 4.834876e+00 5.748309e+00 1.809957e+00 2.181177e+00 8.119883e+00 4.048324e+00 7.957579e-01 7.621104e+00 5.468624e+00 1.201170e+00 3.671985e-02 5.453596e-02 2.577596e-01 5.757917e-01 1.418575e+00 3.250936e-01 9.038388e-01 7.192345e-01 4.497200e-01 5.022981e-01 7.103910e-01 7.220320e-01 1.895350e-01
<GCONST> 9.273444e+01
<STATE> 3
<MEAN> 39
 -2.760766e+00 -8.646249e+00 5.587441e+00 -1.783229e+01 -1.806724e+01 -2.182941e+01 3.409257e+01 -1.522211e+01 -1.530338e+00 -5.830712e+00 -1.117596e+01 9.064924e-01 8.505152e+01 -2.204218e-02 -3.439479e-01 1.180427e-01 -5.445980e-01 -1.316891e+00 -3.548411e-01 7.305710e-01 2.875882e-01 6.884897e-01 1.685884e-01 1.343129e-01 8.387814e-02 2.118327e-01 -1.212978e-02 2.018085e-01 -2.414114e-02 3.169365e-01 5.587150e-01 -3.443368e-03 -4.113310e-01 -8.943917e-02 -2.509338e-01 -6.441033e-02 -1.933118e-01 5.669639e-02 -1.806156e-01
<VARIANCE> 39
 6.583974e-01 3.766111e+00 2.893469e+00 3.138185e+00 3.203734e+01 4.042103e+00 3.260548e+01 4.502185e+00 1.084955e+01 2.955671e+01 1.764208e+01 7.472546e+00 6.686311e-01 1.896421e-01 1.136087e+00 2.768776e-01 1.546962e+00 9.369974e+00 7.957129e-01 9.646656e+00 2.882317e-01 7.313099e-01 5.081683e+00 3.164531e+00 8.109336e-01 4.935260e-01 2.513484e-02 1.558695e-01 7.575065e-02 4.288280e-01 5.990824e-01 1.580058e-01 9.793952e-01 5.822552e-02 1.404567e-01 6.676466e-01 9.838895e-01 2.563740e-01 1.210633e-01
<GCONST> 7.704461e+01
<STATE> 4
<MEAN> 39
 -3.094265e+00 -6.141120e-01 5.181975e-01 -1.176473e+01 -2.872905e+00 -2.727282e+01 2.449821e+01 -1.298952e+01 -7.971505e+00 -1.000983e+01 -1.281091e+01 -4.581506e+00 7.947571e+01 -7.259697e-04 5.651522e-01 -3.422939e-01 8.444666e-01 1.096983e+00 9.795610e-03 -4.131833e-01 1.292599e-01 -5.766473e-01 -1.987182e-01 -4.864419e-01 -1.253300e-01 -5.846795e-01 -1.815734e-02 -1.163205e-01 6.271036e-02 9.187398e-03 -4.685847e-02 9.456261e-02 7.782527e-02 9.843431e-02 4.424861e-02 -1.344357e-01 -8.781359e-02 2.425077e-01 1.322563e-02
<VARIANCE> 39
 2.143079e+00 6.541444e+00 3.380270e+00 1.720174e+01 1.854663e+01 2.260234e+01 4.478360e+00 3.303288e+00 1.514651e+01 4.794949e+00 1.277110e+01 5.636392e+00 6.996531e+00 2.991297e-01 4.988449e-01 6.338742e-01 1.091812e+00 2.120166e+00 3.406100e+00 8.446594e-01 6.111365e-01 1.723957e+00 1.049550e+00 1.536078e+00 1.226809e+00 2.639517e-01 6.337879e-02 1.507129e-02 1.223210e-01 2.925128e-01 2.623335e-01 4.388081e-01 1.435777e-01 1.389912e-01 2.369270e-01 1.090851e-01 3.778777e-01 1.784166e-01 5.141229e-02
<GCONST> 7.088000e+01
<STATE> 5
<MEAN> 39
 -4.915930e+00 -3.292615e-01 7.242746e-01 -4.151505e+00 9.275984e+00 -1.630525e+01 1.600989e+01 -9.635928e+00 -9.925805e+00 -1.617964e+01 -1.834980e+01 7.112053e+00 7.447735e+01 6.106292e-02 -2.182407e-01 6.414146e-01 8.842948e-01 2.069854e+00 1.912492e+00 -2.320875e+00 -1.633556e-01 -6.459854e-02 8.347580e-01 -1.291213e-01 1.213979e+00 -4.709989e-01 -5.032788e-02 -1.198876e-01 1.523982e-01 2.298646e-01 -2.371724e-01 -2.368480e-01 -1.692735e-01 -8.390943e-01 3.745500e-01 6.110473e-01 6.261935e-01 -1.256679e+00 3.039852e-01
<VARIANCE> 39
 2.085309e-01 6.576367e-01 4.426445e+00 5.539501e-01 2.098811e+01 2.987699e+01 1.936082e+01 2.412305e+00 1.828867e+00 6.805377e+00 6.118065e+00 2.536978e+01 1.589108e+00 7.636578e-02 2.001317e-01 2.922846e-01 3.071266e-01 1.419267e+00 2.262556e+00 3.029066e-01 3.159835e+00 1.191941e+00 2.524671e+00 4.844740e+00 8.691021e+00 2.942326e-01 9.227931e-02 1.206003e-01 2.253971e-02 1.965047e-01 3.254447e-01 1.746150e+00 1.860851e-01 2.245640e-01 2.113119e-01 1.998365e-01 4.877189e-01 1.610512e+00 2.196971e-01
<GCONST> 6.847174e+01
<TRANSP> 6
 0.000000e+00 1.000000e+00 0.000000e+00 0.000000e+00 0.000000e+00 0.000000e+00
 0.000000e+00 9.230769e-01 7.692308e-02 0.000000e+00 0.000000e+00 0.000000e+00
 0.000000e+00 0.000000e+00 9.375000e-01 6.250000e-02 0.000000e+00 0.000000e+00
 0.000000e+00 0.000000e+00 0.000000e+00 9.375000e-01 6.250000e-02 0.000000e+00
 0.000000e+00 0.000000e+00 0.000000e+00 0.000000e+00 8.333333e-01 1.666667e-01
 0.000000e+00 0.000000e+00 0.000000e+00 0.000000e+00 0.000000e+00 0.000000e+00
<ENDHMM>
