~o
<STREAMINFO> 1 39
<VECSIZE> 39<NULLD><MFCC_D_A_0><DIAGC>
~h "enam"
<BEGINHMM>
<NUMSTATES> 6
<STATE> 2
<MEAN> 39
 -4.647980e+00 -5.296276e+00 2.276349e+00 -1.309752e+00 -3.659290e+00 -1.053300e+00 2.853811e+00 -5.001408e+00 1.955444e+00 -4.142597e+00 -5.959413e+00 -3.481079e-01 7.052067e+01 3.330559e-02 -3.556562e-03 6.976476e-03 2.773122e-04 -1.521396e-03 2.774155e-03 -5.046906e-04 -2.091389e-03 1.914297e-03 -7.932955e-03 -1.208126e-02 6.296767e-04 2.434066e-02 2.062165e-04 -1.267594e-03 -1.024002e-03 -9.348730e-04 -9.350262e-04 8.119861e-04 -1.884033e-03 3.155140e-04 -4.981786e-04 1.086946e-03 -2.374605e-04 9.144042e-04 -8.026330e-04
<VARIANCE> 39
 8.222364e+01 8.387007e+01 6.151652e+01 1.038017e+02 8.931272e+01 1.507783e+02 2.100909e+02 1.200758e+02 7.645597e+01 4.578533e+01 4.841877e+01 3.412887e+01 1.504231e+02 1.365757e+00 1.363194e+00 1.792517e+00 2.356141e+00 2.788134e+00 2.689862e+00 3.417677e+00 2.832779e+00 2.320037e+00 1.804542e+00 2.023932e+00 1.693521e+00 1.622900e+00 1.792762e-01 1.964838e-01 2.537766e-01 3.759151e-01 3.725430e-01 4.184745e-01 5.206534e-01 4.412546e-01 4.038982e-01 3.219974e-01 3.723453e-01 2.952069e-01 1.973147e-01
<GCONST> 1.241049e+02
<STATE> 3
<MEAN> 39
 -8.386051e+00 -2.464568e+00 5.589568e+00 -2.058335e+00 -8.214437e-01 1.245728e+00 5.232868e+00 -7.344428e+00 4.064896e+00 -1.789992e+00 -2.345030e+00 -3.150877e-01 6.786226e+01 -4.007292e-01 -8.440840e-01 -8.495011e-01 -5.223303e-01 1.156015e-01 7.934057e-01 1.948169e-01 4.511403e-01 -9.614537e-01 2.003383e-01 -5.520579e-01 -4.329927e-01 -5.596931e-01 -2.038260e-02 1.640216e-01 -2.297152e-01 3.247202e-01 -4.962275e-01 -3.268792e-01 7.525306e-02 4.383163e-01 7.529102e-02 -2.679418e-01 -1.380722e-01 -1.818436e-01 -1.537645e-01
<VARIANCE> 39
 3.241850e+01 7.345677e+01 5.490249e+01 4.404539e+01 6.912005e+01 5.703788e+01 1.529709e+02 3.574017e+00 2.781735e+01 1.523743e+01 1.538522e+01 7.452755e-02 8.036580e+01 2.120497e-02 2.775261e-01 1.479410e+00 4.584680e-01 1.487657e-01 1.872872e+00 5.228806e-01 2.993271e+00 1.086544e+00 1.703532e+00 8.002227e-02 3.148503e-01 1.806515e-02 1.471028e-01 5.598960e-02 3.884218e-02 1.694749e-04 1.511068e-01 1.608575e-01 1.773995e-01 1.281816e-01 1.070489e-01 2.861385e-02 3.880779e-02 2.870613e-01 3.571404e-02
<GCONST> 6.111837e+01
<STATE> 4
<MEAN> 39
 -6.818747e+00 -8.408333e+00 2.650083e+00 -2.773698e+00 -8.309649e+00 4.934753e+00 -2.529386e+00 -4.943562e+00 3.483359e+00 -4.848687e+00 -8.473670e+00 -1.583742e+00 6.526368e+01 -3.211770e-01 1.276923e-01 -6.267223e-01 5.519530e-01 2.687359e-01 7.641497e-02 -6.934403e-02 5.491227e-01 -4.507170e-01 3.335493e-01 1.488388e-01 2.221200e-01 -7.433436e-01 1.560437e-02 9.955634e-02 8.507894e-02 1.126626e-01 5.636509e-02 -1.041069e-01 -3.489251e-02 4.405737e-03 1.768346e-02 -3.368206e-02 8.839542e-02 9.874517e-02 3.758598e-03
<VARIANCE> 39
 1.051788e+01 2.138352e+01 1.859455e+01 2.166916e+01 6.891335e+01 1.786035e+01 1.211005e+02 1.965710e+01 1.688824e+01 1.353360e+01 1.649090e+01 7.458752e+00 3.545143e+01 9.251549e-02 5.313284e-01 1.122197e+00 6.115535e-01 1.192968e+00 1.003224e+00 2.093725e+00 6.605536e-01 1.211132e+00 5.773021e-01 1.316051e+00 7.208557e-01 7.200555e-02 1.699592e-02 5.786178e-02 1.914519e-01 1.459780e-01 2.519417e-01 1.697261e-01 2.179953e-01 1.424240e-01 2.602652e-01 9.955980e-02 3.055217e-01 1.547141e-01 1.716728e-02
<GCONST> 7.797152e+01
<STATE> 5
<MEAN> 39
 -1.423348e+01 -1.280244e+00 -1.426736e+00 6.737015e+00 -4.685197e+00 5.999227e+00 -9.383689e-02 5.214072e-01 -1.708101e+00 1.381016e+00 -3.406669e+00 1.461375e+00 5.217362e+01 -8.026535e-03 6.558937e-03 -9.140159e-03 -1.372440e-02 9.499347e-03 1.974266e-02 6.533292e-03 2.533140e-02 -3.936505e-03 -5.465864e-03 -7.542223e-03 -4.689608e-03 -1.297206e-02 2.589154e-03 -3.573581e-04 1.530565e-03 -8.557141e-03 -1.013600e-03 4.475844e-03 8.685256e-05 -3.880611e-04 4.625869e-03 1.005760e-03 -4.524431e-03 -4.006181e-03 3.093645e-03
<VARIANCE> 39
 5.804457e+00 8.542041e+00 2.744117e+00 3.648645e+00 1.358344e+01 5.380372e+00 1.545262e+01 9.464856e+00 1.026350e+01 6.962479e+00 1.148038e+01 5.778315e+00 2.071259e+00 5.774628e-02 1.279663e-01 2.771170e-01 3.352489e-01 3.827299e-01 5.773908e-01 7.810975e-01 9.859936e-01 1.049493e+00 7.924895e-01 7.055801e-01 6.770552e-01 2.991897e-02 1.169728e-02 2.590247e-02 5.900241e-02 6.792208e-02 7.732044e-02 1.228986e-01 1.744809e-01 2.099246e-01 2.105144e-01 1.651481e-01 1.426617e-01 1.436337e-01 5.089362e-03
<GCONST> 4.875468e+01
<TRANSP> 6
 0.000000e+00 1.000000e+00 0.000000e+00 0.000000e+00 0.000000e+00 0.000000e+00
 0.000000e+00 9.982049e-01 1.795148e-03 0.000000e+00 0.000000e+00 0.000000e+00
 0.000000e+00 0.000000e+00 0.000000e+00 1.000000e+00 0.000000e+00 0.000000e+00
 0.000000e+00 0.000000e+00 0.000000e+00 9.063601e-01 9.363983e-02 0.000000e+00
 0.000000e+00 0.000000e+00 0.000000e+00 0.000000e+00 9.921011e-01 7.898841e-03
 0.000000e+00 0.000000e+00 0.000000e+00 0.000000e+00 0.000000e+00 0.000000e+00
<ENDHMM>
