~o
<STREAMINFO> 1 39
<VECSIZE> 39<NULLD><MFCC_D_A_0><DIAGC>
~h "sil"
<BEGINHMM>
<NUMSTATES> 6
<STATE> 2
<MEAN> 39
 -4.668259e+00 -5.341862e+00 2.308856e+00 -1.357315e+00 -3.740256e+00 -9.798119e-01 2.782703e+00 -5.024511e+00 1.997539e+00 -4.169031e+00 -5.995675e+00 -3.756142e-01 7.048170e+01 2.847598e-02 -2.289969e-03 -4.419251e-03 6.132176e-03 1.134675e-03 6.738449e-03 4.236997e-04 6.532372e-03 -4.149106e-03 -2.388434e-03 -1.300297e-02 2.748252e-03 1.270977e-02 5.275171e-04 4.049230e-04 -8.165417e-04 1.995977e-03 -9.754636e-05 -1.710855e-03 -2.384225e-03 1.026378e-03 -1.316322e-03 3.967187e-04 5.514473e-04 1.603862e-03 -1.243847e-03
<VARIANCE> 39
 8.105659e+01 8.330604e+01 6.094120e+01 1.026328e+02 8.953382e+01 1.495660e+02 2.098698e+02 1.186058e+02 7.561002e+01 4.528609e+01 4.811132e+01 3.375872e+01 1.485647e+02 1.348081e+00 1.355139e+00 1.796005e+00 2.334643e+00 2.764496e+00 2.672906e+00 3.396399e+00 2.810016e+00 2.307185e+00 1.791230e+00 2.016492e+00 1.677508e+00 1.608820e+00 1.770934e-01 1.948604e-01 2.535424e-01 3.728017e-01 3.710512e-01 4.155735e-01 5.164726e-01 4.371636e-01 4.017608e-01 3.189016e-01 3.722275e-01 2.929717e-01 1.948724e-01
<GCONST> 1.238087e+02
<STATE> 3
<MEAN> 39
 -1.246264e+01 -3.858165e+00 -5.014070e-01 6.151093e+00 -6.200815e+00 6.641996e+00 -7.398888e-01 -6.595827e-01 -6.025861e-01 1.050845e+00 -5.211845e+00 2.112405e+00 5.407282e+01 -6.919723e-02 1.499964e-02 -5.380660e-02 6.640168e-02 2.915419e-02 -2.202582e-03 -1.941570e-02 7.811010e-02 -5.846327e-02 3.994426e-02 6.697507e-02 1.599318e-02 -1.071009e-01 7.509642e-04 2.846424e-03 2.260876e-02 -1.207808e-02 -2.415138e-02 -1.290298e-03 -1.656438e-02 -2.473391e-02 2.965229e-03 -2.965524e-02 -1.688588e-02 -1.495579e-03 6.632539e-03
<VARIANCE> 39
 2.793763e+00 2.690375e+00 3.034640e+00 4.194687e+00 8.333190e+00 3.400330e+00 9.148538e+00 8.985222e+00 6.794204e+00 5.891837e+00 7.195489e+00 6.630520e+00 6.189356e+00 1.317414e-01 1.676622e-01 3.517839e-01 3.676831e-01 4.620555e-01 3.196191e-01 9.955223e-01 1.008307e+00 8.107252e-01 5.471719e-01 8.100329e-01 8.489293e-01 1.106468e-01 2.409387e-02 3.222241e-02 6.768031e-02 6.651110e-02 8.633590e-02 7.192824e-02 2.061415e-01 2.247705e-01 1.574243e-01 1.035270e-01 1.698362e-01 1.734064e-01 9.726818e-03
<GCONST> 4.922115e+01
<STATE> 4
<MEAN> 39
 -1.350105e+01 -1.968757e+00 -1.578070e+00 6.528769e+00 -5.802698e+00 5.888481e+00 -1.460939e+00 1.184541e-01 -2.514876e+00 1.518508e+00 -4.156476e+00 1.285115e+00 5.160471e+01 -7.819834e-03 5.085830e-03 -5.424968e-03 2.562074e-03 7.588768e-03 -6.343141e-03 -1.361235e-02 -5.836003e-03 -3.789589e-02 -7.243266e-03 6.878913e-03 -4.343559e-03 -1.311816e-02 1.013234e-03 5.701514e-04 3.059211e-04 -7.304830e-03 -1.803144e-03 1.524688e-03 -1.149517e-03 -2.792847e-03 1.143192e-03 2.597505e-03 5.772225e-03 2.229317e-04 2.483540e-03
<VARIANCE> 39
 7.963879e-01 1.159348e+00 1.774765e+00 3.059465e+00 4.793427e+00 5.150198e+00 5.672727e+00 6.774522e+00 7.367874e+00 6.778922e+00 6.098634e+00 5.192820e+00 1.666967e+00 4.389371e-02 8.778720e-02 2.084507e-01 3.276522e-01 4.181405e-01 6.636190e-01 7.724116e-01 8.322431e-01 9.291713e-01 7.219374e-01 5.959412e-01 5.767696e-01 2.176669e-02 8.715723e-03 1.821414e-02 4.567872e-02 6.769685e-02 8.696480e-02 1.500501e-01 1.776891e-01 1.823805e-01 1.885839e-01 1.492481e-01 1.173464e-01 1.237215e-01 3.799699e-03
<GCONST> 3.708963e+01
<STATE> 5
<MEAN> 39
 -1.926555e+01 4.710502e+00 -1.921116e+00 7.784461e+00 2.608113e+00 5.271985e+00 7.215210e+00 3.476313e+00 4.676159e-01 8.272073e-01 1.866055e+00 1.125026e+00 5.338367e+01 1.138429e-03 -7.451782e-03 -2.683893e-02 -8.249540e-02 6.919722e-02 1.285568e-01 7.372186e-02 1.684006e-01 9.655257e-02 -2.072809e-02 -8.317781e-02 5.927597e-03 1.901313e-03 9.792781e-03 6.686269e-03 8.639836e-03 -1.452038e-02 1.460891e-02 2.359329e-02 2.777695e-02 4.724725e-02 6.019161e-02 2.171995e-02 -1.440182e-02 -7.665431e-04 8.116437e-03
<VARIANCE> 39
 3.574226e+00 4.734193e+00 5.015880e+00 7.705499e+00 6.371365e+00 8.850281e+00 1.052732e+01 1.353601e+01 1.771644e+01 9.838249e+00 9.525649e+00 6.895449e+00 4.302648e+00 5.893033e-02 2.517242e-01 4.876530e-01 4.145060e-01 2.976342e-01 5.013603e-01 7.787867e-01 1.628116e+00 1.991863e+00 1.388708e+00 1.060508e+00 9.938369e-01 2.676509e-02 9.483172e-03 5.442081e-02 1.062500e-01 8.256742e-02 5.885633e-02 7.552344e-02 1.250008e-01 3.062638e-01 3.829888e-01 3.028296e-01 2.196213e-01 2.185987e-01 4.972113e-03
<GCONST> 5.645288e+01
<TRANSP> 6
 0.000000e+00 1.000000e+00 0.000000e+00 0.000000e+00 0.000000e+00 0.000000e+00
 0.000000e+00 9.982306e-01 1.769383e-03 0.000000e+00 0.000000e+00 0.000000e+00
 0.000000e+00 0.000000e+00 9.605398e-01 3.946017e-02 0.000000e+00 0.000000e+00
 0.000000e+00 0.000000e+00 0.000000e+00 9.882258e-01 1.177429e-02 0.000000e+00
 0.000000e+00 0.000000e+00 0.000000e+00 0.000000e+00 9.474407e-01 5.255934e-02
 0.000000e+00 0.000000e+00 0.000000e+00 0.000000e+00 0.000000e+00 0.000000e+00
<ENDHMM>
