~o
<STREAMINFO> 1 39
<VECSIZE> 39<NULLD><MFCC_D_A_0><DIAGC>
~h "lima"
<BEGINHMM>
<NUMSTATES> 6
<STATE> 2
<MEAN> 39
 -6.419472e+00 3.906540e+00 3.559432e+00 4.964512e+00 -1.365954e+00 -3.636148e+00 4.781919e+00 7.060394e-01 -8.360031e-01 -1.817895e+00 -2.143009e-01 -3.870991e+00 6.990631e+01 1.158418e-01 1.308199e-02 -7.718231e-03 3.278372e-02 -5.417342e-02 -3.380402e-02 1.345444e-02 -2.474697e-03 -3.149953e-02 -3.856145e-02 -1.010543e-01 -1.876249e-02 4.873672e-02 3.328331e-03 7.457003e-04 1.484923e-03 2.629605e-03 -2.640347e-02 -2.023964e-02 -4.907316e-03 -3.051340e-03 6.455224e-03 6.210742e-03 -6.675791e-03 -1.255588e-03 -1.429224e-03
<VARIANCE> 39
 8.044574e+01 8.427838e+01 5.311387e+01 9.605685e+01 1.194670e+02 9.995788e+01 8.292540e+01 9.463809e+01 4.325198e+01 4.464291e+01 4.100554e+01 2.730919e+01 9.390540e+01 2.913368e+00 2.689065e+00 2.479967e+00 3.425359e+00 4.453316e+00 4.870209e+00 3.822023e+00 3.337709e+00 3.256658e+00 2.282354e+00 2.629993e+00 2.104127e+00 3.046770e+00 3.672870e-01 3.848465e-01 3.741617e-01 6.063508e-01 5.465083e-01 7.560370e-01 6.672956e-01 5.237931e-01 6.393941e-01 4.158053e-01 4.846214e-01 3.457940e-01 4.455790e-01
<GCONST> 1.318784e+02
<STATE> 3
<MEAN> 39
 -3.474402e+00 2.935283e-01 1.071269e+01 -1.524888e+00 -1.969247e+01 -2.496338e+01 1.390173e+01 -1.501856e+01 -6.245440e+00 -3.715495e+00 -1.153552e+01 -6.550122e+00 7.538954e+01 1.505394e-01 -4.614890e-01 -3.093230e-01 -3.955386e-01 -6.709242e-01 -3.005525e-01 -1.893854e-01 3.235001e-01 -1.399903e-01 4.162113e-03 3.747633e-01 4.803970e-01 2.809527e-01 1.988086e-02 -1.361194e-01 -1.721033e-01 -1.652496e-01 3.144155e-01 1.916452e-01 3.969813e-02 -1.856974e-02 1.308115e-01 -2.338552e-01 -6.866010e-02 2.293266e-01 1.132268e-01
<VARIANCE> 39
 2.286282e+01 6.625609e+00 2.768910e+01 2.752057e+01 3.672710e+01 1.137129e+02 3.673222e+01 5.138042e+01 1.363224e+01 2.135591e+01 2.144047e+01 1.977808e+01 7.938994e+01 2.072153e-01 6.088659e-01 7.148613e-01 2.459332e+00 1.295216e+00 1.618089e+00 1.527777e+00 9.226186e-01 1.251948e+00 3.353489e+00 1.446808e+00 2.430809e+00 7.584887e-01 4.320824e-02 2.830218e-02 6.248394e-02 1.545745e-01 2.934871e-01 2.166613e-01 4.275279e-01 1.964467e-01 1.337643e-01 1.418829e-01 1.405272e-01 6.035174e-01 3.540079e-02
<GCONST> 9.095314e+01
<STATE> 4
<MEAN> 39
 -3.217861e+00 -1.255953e+01 -1.193286e+00 -1.434922e+01 -1.511533e+01 -1.786643e+01 2.673661e+01 -2.115395e+01 5.097621e+00 -1.228256e+01 -8.882243e+00 5.337829e+00 8.406150e+01 -5.770812e-02 -3.535050e-01 -4.323498e-01 -1.852706e-01 9.315598e-02 5.343477e-01 5.497983e-01 -4.552169e-01 6.845039e-01 -4.801996e-03 8.546634e-02 6.083129e-01 5.263669e-02 -5.605570e-02 1.092708e-01 1.670238e-01 9.737139e-02 3.765369e-02 8.295351e-02 -1.072428e-01 9.004841e-02 -8.171303e-02 1.168255e-01 8.108728e-02 -2.241667e-02 -1.108031e-01
<VARIANCE> 39
 1.226471e+01 2.160201e+01 8.213478e+00 3.318484e+01 1.623978e+01 4.656395e+01 9.849235e+01 6.860394e+01 1.838513e+01 1.628183e+01 4.752926e+00 1.914689e+01 8.977956e+01 2.341766e-02 4.912335e-01 3.685541e-01 2.528057e-01 1.208252e+00 7.313085e-01 1.283870e+00 7.179877e-01 3.294652e-01 1.006012e+00 5.234268e-01 3.916770e-01 3.321770e-01 4.805826e-02 5.935004e-02 7.237977e-02 4.563827e-02 1.669551e-01 9.984284e-02 1.643040e-01 7.161805e-02 1.764412e-02 1.641492e-01 1.216895e-01 1.079425e-01 3.519699e-02
<GCONST> 6.855374e+01
<STATE> 5
<MEAN> 39
 -6.515693e+00 -6.501351e+00 1.105072e+00 -7.618040e-01 -4.149370e+00 1.754264e+00 1.206946e+00 -4.727401e+00 1.829421e+00 -3.318318e+00 -6.638782e+00 8.383459e-01 6.613211e+01 -2.803793e-03 6.290101e-03 2.812594e-03 6.567141e-03 2.489991e-02 1.374258e-02 -8.949219e-03 1.867758e-02 -1.050163e-02 6.490565e-03 5.728478e-03 -6.914677e-03 -9.136352e-03 8.857481e-04 6.695876e-04 -2.447619e-04 -2.542870e-04 9.524791e-04 4.983529e-04 -1.897465e-04 7.282442e-04 -7.706922e-04 -2.509231e-04 1.332884e-03 -4.418688e-04 3.285650e-04
<VARIANCE> 39
 8.216043e+01 4.893520e+01 5.070723e+01 8.593132e+01 6.083693e+01 1.208063e+02 1.864539e+02 9.478498e+01 6.972782e+01 4.130748e+01 3.514322e+01 2.465842e+01 1.838802e+02 7.165871e-01 7.773722e-01 1.312475e+00 1.645621e+00 1.859751e+00 1.712066e+00 2.745333e+00 2.313162e+00 1.832358e+00 1.437041e+00 1.595156e+00 1.351496e+00 9.379555e-01 9.794291e-02 1.151328e-01 1.842608e-01 2.549300e-01 2.660099e-01 2.753345e-01 4.083531e-01 3.722889e-01 3.110023e-01 2.637367e-01 2.991320e-01 2.454533e-01 9.656305e-02
<GCONST> 1.123559e+02
<TRANSP> 6
 0.000000e+00 1.000000e+00 0.000000e+00 0.000000e+00 0.000000e+00 0.000000e+00
 0.000000e+00 9.921523e-01 7.847738e-03 0.000000e+00 0.000000e+00 0.000000e+00
 0.000000e+00 0.000000e+00 8.423356e-01 1.576644e-01 0.000000e+00 0.000000e+00
 0.000000e+00 0.000000e+00 0.000000e+00 8.751962e-01 1.248038e-01 0.000000e+00
 0.000000e+00 0.000000e+00 0.000000e+00 0.000000e+00 9.981893e-01 1.810695e-03
 0.000000e+00 0.000000e+00 0.000000e+00 0.000000e+00 0.000000e+00 0.000000e+00
<ENDHMM>
