~o
<STREAMINFO> 1 39
<VECSIZE> 39<NULLD><MFCC_D_A_0><DIAGC>
~h "dua"
<BEGINHMM>
<NUMSTATES> 6
<STATE> 2
<MEAN> 39
 -5.689481e+00 -2.165593e-01 3.352118e+00 -8.942515e-01 -1.770421e+00 -1.038544e+01 1.311026e+01 -8.054834e+00 -2.600167e+00 -4.700067e+00 -5.588675e+00 -2.040937e+00 7.452309e+01 5.338933e-02 3.322218e-03 -1.553134e-02 1.513925e-02 1.189640e-03 1.155400e-02 6.903427e-03 1.533183e-02 -1.755027e-02 -1.104057e-02 -2.292370e-02 8.983341e-03 1.487683e-02 3.916988e-04 -2.308640e-03 -1.070943e-03 -1.022197e-03 -5.135954e-03 -1.218313e-03 -4.366748e-03 2.442774e-03 3.183425e-03 6.027176e-04 -4.025929e-03 1.249932e-03 -1.275611e-03
<VARIANCE> 39
 5.302393e+01 7.806015e+01 4.395314e+01 1.155207e+02 1.295259e+02 1.332994e+02 1.753575e+02 1.738852e+02 5.374926e+01 4.436272e+01 7.692585e+01 3.921414e+01 8.738691e+01 1.900488e+00 2.010091e+00 1.884073e+00 2.971685e+00 4.349616e+00 4.272999e+00 4.918651e+00 4.122906e+00 3.058910e+00 2.237447e+00 2.965684e+00 2.362785e+00 2.241298e+00 2.461563e-01 2.853395e-01 2.795076e-01 4.929965e-01 5.561997e-01 6.631294e-01 7.836828e-01 6.276395e-01 5.427337e-01 3.958722e-01 5.428737e-01 4.072393e-01 3.163215e-01
<GCONST> 1.320081e+02
<STATE> 3
<MEAN> 39
 -1.451234e+01 -2.410952e-01 -2.047758e+00 2.085615e+00 8.168362e-01 4.620190e+00 7.435418e+00 -2.352197e-01 5.740740e-01 -2.911758e+00 -3.011236e+00 -6.177038e-01 5.756305e+01 -2.983792e-01 -6.877201e-01 -2.684447e-01 -1.013544e-03 -7.989415e-01 3.803264e-01 3.876360e-01 9.024705e-01 1.854825e-01 -1.569166e-02 -9.219120e-01 -7.674605e-01 -2.564291e-01 3.558377e-01 1.732459e-01 -7.720861e-03 2.414433e-01 -3.125961e-01 -5.011069e-01 -1.217719e-01 5.532507e-03 2.103125e-01 -1.477809e-02 -2.007552e-01 -1.548794e-01 3.038684e-01
<VARIANCE> 39
 3.103182e+01 1.557146e+01 2.013031e+01 5.040104e+01 7.092761e+01 4.784589e+01 1.557449e+02 3.757716e+00 3.244314e+00 6.012282e+00 9.554088e+00 1.266935e-01 1.127679e+02 2.247242e-03 2.529863e-01 3.532394e-01 1.108198e-01 2.196879e-01 2.067310e+00 5.824444e-02 1.023349e+00 3.278797e-02 5.444254e-01 5.500825e-01 8.557817e-01 1.775610e-01 4.982989e-02 1.547296e-03 1.193619e-01 2.631144e-01 3.137931e-01 6.750604e-01 1.628190e-01 9.188697e-02 2.052641e-02 9.666143e-02 1.194202e-01 3.775594e-03 3.615561e-02
<GCONST> 5.040651e+01
<STATE> 4
<MEAN> 39
 -1.348540e+01 -2.798300e+00 -2.921194e+00 4.920974e+00 -6.843799e+00 6.360782e+00 -1.240939e+00 6.706840e-01 -1.919564e+00 1.002686e+00 -4.860924e+00 1.480653e+00 5.172293e+01 7.543900e-03 -1.490769e-02 1.043355e-02 -9.581894e-03 2.042331e-02 1.393205e-02 -2.212303e-03 1.134138e-02 3.050985e-02 9.129808e-03 -1.668157e-02 -3.039113e-03 2.375466e-02 4.348270e-04 7.762296e-04 2.404172e-03 1.565487e-03 1.379617e-03 -9.408967e-04 -9.157359e-03 -4.433305e-03 7.461885e-03 5.113323e-03 6.541305e-03 6.104012e-03 1.890380e-03
<VARIANCE> 39
 1.028701e+00 2.024005e+00 3.431916e+00 4.323687e+00 5.599206e+00 6.209044e+00 8.796293e+00 7.417808e+00 7.439686e+00 8.628649e+00 6.949990e+00 6.024247e+00 2.952448e+00 8.490165e-02 2.459380e-01 3.326306e-01 4.696198e-01 3.940894e-01 6.395871e-01 5.877727e-01 8.767399e-01 1.018043e+00 1.023761e+00 8.935161e-01 6.907797e-01 5.182920e-02 1.766284e-02 5.667173e-02 6.104507e-02 1.065879e-01 7.734370e-02 1.308057e-01 1.208839e-01 1.794253e-01 2.171962e-01 2.180911e-01 1.844826e-01 1.458660e-01 9.091889e-03
<GCONST> 4.891463e+01
<STATE> 5
<MEAN> 39
 -5.687455e+00 -7.795509e+00 1.263959e+00 -2.620751e-02 -4.822500e+00 6.263856e+00 -4.266994e+00 -2.165194e+00 4.422376e+00 -2.841363e+00 -5.610953e+00 1.010620e+00 6.490997e+01 6.788494e-04 5.328872e-04 -3.597450e-03 1.725503e-03 6.596914e-03 3.926299e-03 -5.147005e-03 7.641020e-03 -7.939669e-03 2.138896e-03 2.767422e-03 1.134022e-03 -4.115513e-03 2.823359e-04 2.166598e-03 1.100035e-03 -4.353096e-04 2.505532e-03 1.168241e-03 1.225532e-03 7.581639e-04 -2.403259e-03 -9.539283e-04 2.297520e-03 8.439095e-04 -7.337490e-04
<VARIANCE> 39
 1.030402e+02 5.644819e+01 6.039974e+01 9.071707e+01 4.718890e+01 3.265749e+01 8.153227e+01 5.516827e+01 6.181656e+01 4.302691e+01 2.570501e+01 2.229595e+01 1.740020e+02 7.685922e-01 6.996267e-01 1.475616e+00 1.566913e+00 1.335754e+00 1.259946e+00 2.011066e+00 1.664029e+00 1.618109e+00 1.291504e+00 1.143272e+00 1.062540e+00 9.318578e-01 1.029947e-01 1.022633e-01 2.035919e-01 2.366301e-01 2.018493e-01 2.015290e-01 2.940658e-01 2.799156e-01 2.771384e-01 2.332987e-01 2.150667e-01 1.944479e-01 8.278915e-02
<GCONST> 1.052195e+02
<TRANSP> 6
 0.000000e+00 1.000000e+00 0.000000e+00 0.000000e+00 0.000000e+00 0.000000e+00
 0.000000e+00 9.959729e-01 4.027072e-03 0.000000e+00 0.000000e+00 0.000000e+00
 0.000000e+00 0.000000e+00 0.000000e+00 1.000000e+00 0.000000e+00 0.000000e+00
 0.000000e+00 0.000000e+00 0.000000e+00 9.846550e-01 1.534506e-02 0.000000e+00
 0.000000e+00 0.000000e+00 0.000000e+00 0.000000e+00 9.973747e-01 2.625380e-03
 0.000000e+00 0.000000e+00 0.000000e+00 0.000000e+00 0.000000e+00 0.000000e+00
<ENDHMM>
