~o
<STREAMINFO> 1 39
<VECSIZE> 39<NULLD><MFCC_D_A_0><DIAGC>
~h "satu"
<BEGINHMM>
<NUMSTATES> 6
<STATE> 2
<MEAN> 39
 -2.321450e+01 -8.415939e+00 8.451998e+00 -1.630719e+01 5.525222e+00 -5.012368e+00 1.793612e+01 -1.564172e+01 8.178674e+00 -5.567051e+00 4.216460e+00 -5.172797e+00 7.692249e+01 2.221613e+00 -7.298269e-01 -2.123307e+00 8.597137e-02 -1.436458e+00 -7.313147e-03 4.160749e-01 4.156696e-01 -4.777147e-01 -1.162205e+00 -7.362499e-01 -3.280539e-01 6.167102e-01 2.407219e-01 -1.585235e-01 -2.228355e-01 2.887641e-01 -4.303650e-01 2.074472e-02 7.112958e-02 -1.311366e-01 3.046633e-01 -2.309042e-01 -8.992735e-02 1.519355e-02 7.851155e-02
<VARIANCE> 39
 1.327831e+02 3.766493e+01 1.126336e+02 9.574259e+01 8.334812e+01 1.449774e+01 9.424922e+01 8.110915e+01 5.786770e+01 5.158927e+01 2.025961e+01 1.525056e+01 2.573438e+02 1.033497e+01 1.461893e+00 3.426610e+00 1.166703e+00 7.948104e+00 6.742592e-01 1.980458e+00 1.357215e+00 8.857010e+00 3.047067e+00 1.448239e+00 6.388903e-01 1.001191e+00 1.496253e+00 2.090625e-01 2.892087e-01 1.553882e-01 4.922094e-01 2.003378e-01 3.421214e-01 3.745812e-01 2.691960e+00 3.130915e-01 2.242241e-01 1.662990e-01 2.115586e-01
<GCONST> 1.211428e+02
<STATE> 3
<MEAN> 39
 -2.467311e+01 4.907253e-02 -8.728992e+00 2.840650e+00 -5.850123e+00 3.178959e+00 2.614066e+00 2.048269e+00 -5.132603e-01 -9.262397e-01 6.526415e-01 -2.274686e+00 4.472820e+01 1.109527e-01 -1.997333e-01 1.552082e-02 5.884684e-01 -2.054959e-01 6.938297e-01 8.529823e-01 -1.585909e-01 5.793408e-01 -2.714556e-01 -1.203791e-01 -3.674681e-01 1.086265e-01 3.862245e-01 4.949820e-02 5.058395e-01 1.022368e-01 -1.507195e-01 -1.654729e-02 -2.412796e-01 -3.199044e-01 2.144119e-01 1.628439e-01 7.880847e-02 3.059853e-01 3.866893e-01
<VARIANCE> 39
 1.379610e+02 5.187340e+01 2.152640e+01 4.691544e+01 2.366238e+01 1.613714e+01 1.317799e+02 6.811774e+01 1.939824e+01 5.239624e+01 1.044688e+01 8.731573e+00 4.354373e+02 5.968406e-01 1.124694e+00 8.666140e-01 2.257211e+00 2.751427e+00 4.711912e-01 3.477894e-01 1.765859e+00 3.797786e+00 8.090219e-01 1.477869e-01 5.317505e-01 1.412515e-01 1.155130e+00 6.039618e-02 1.513121e-01 8.826561e-02 1.656768e-01 4.147957e-02 4.150231e-02 3.542678e-02 5.944218e-02 2.275071e-02 2.907760e-02 8.259756e-02 6.677310e-01
<GCONST> 8.517544e+01
<STATE> 4
<MEAN> 39
 -6.250239e+00 -4.598922e+00 1.617337e+00 2.212841e-01 -3.978063e+00 3.263353e-01 2.148271e+00 -3.965332e+00 1.280129e+00 -3.148120e+00 -5.616750e+00 -1.301830e-03 6.713960e+01 5.240347e-03 4.071959e-03 6.265667e-03 3.637868e-03 1.373401e-02 5.324126e-03 -3.876187e-03 9.032857e-03 -5.456815e-03 5.957771e-03 -6.099748e-03 4.971134e-03 1.139530e-03 -2.068738e-03 1.406192e-03 -5.529077e-05 -1.566928e-03 3.019315e-03 -6.508223e-04 -1.995792e-03 2.480597e-03 -1.858473e-03 1.509106e-03 2.240963e-04 -9.932111e-06 -2.226492e-03
<VARIANCE> 39
 7.734289e+01 7.207807e+01 5.134818e+01 9.257207e+01 7.522614e+01 1.311048e+02 1.743910e+02 1.022659e+02 6.545732e+01 4.265042e+01 4.190909e+01 2.907574e+01 1.677941e+02 1.024484e+00 1.123285e+00 1.477871e+00 1.969575e+00 2.279769e+00 2.299106e+00 2.930205e+00 2.480736e+00 2.024748e+00 1.591528e+00 1.779233e+00 1.503947e+00 1.323306e+00 1.338236e-01 1.637175e-01 2.163825e-01 3.180472e-01 3.160289e-01 3.638711e-01 4.556236e-01 3.964884e-01 3.527468e-01 2.905456e-01 3.317838e-01 2.668821e-01 1.572694e-01
<GCONST> 1.182782e+02
<STATE> 5
<MEAN> 39
 -1.240622e+01 -2.046945e+00 -2.703530e+00 1.992262e+00 2.741454e+00 3.830694e+00 4.918417e+00 2.171682e+00 -1.904061e+00 8.830560e-01 -2.582380e+00 3.854205e-01 5.869563e+01 1.346098e-01 1.244264e-01 1.630891e-02 -2.674692e-01 3.695907e-01 2.507661e-01 -6.830963e-01 4.497011e-01 -4.482797e-01 1.383175e-01 6.032737e-01 3.412687e-01 -1.873803e-01 3.932032e-02 4.950225e-02 7.460031e-02 -2.931745e-01 -2.396011e-01 -1.544621e-02 1.729686e-01 1.360843e-01 1.742471e-02 -1.857073e-01 9.109794e-02 6.006108e-02 6.965920e-02
<VARIANCE> 39
 1.781962e+01 1.662724e+01 1.520293e-01 1.898068e+01 5.428307e+01 3.315921e+01 4.696217e+01 2.673932e+01 2.537609e+01 1.001245e+01 2.614974e+00 5.592257e+00 6.851152e+01 8.075953e-03 5.687687e-02 2.986589e-01 1.114380e+00 3.726831e-01 1.124118e+00 1.084365e+00 1.479569e+00 1.730899e+00 4.181350e-01 4.076204e-01 2.452767e-01 1.713371e-01 3.842165e-03 3.155453e-03 5.937432e-03 2.730225e-02 3.804316e-02 1.184347e-01 8.634984e-02 7.839006e-04 2.878925e-02 1.114321e-01 2.637545e-02 2.134064e-01 5.734458e-03
<GCONST> 4.079935e+01
<TRANSP> 6
 0.000000e+00 1.000000e+00 0.000000e+00 0.000000e+00 0.000000e+00 0.000000e+00
 0.000000e+00 7.690616e-01 2.309384e-01 0.000000e+00 0.000000e+00 0.000000e+00
 0.000000e+00 0.000000e+00 5.714587e-01 4.285414e-01 0.000000e+00 0.000000e+00
 0.000000e+00 0.000000e+00 0.000000e+00 9.985428e-01 1.457222e-03 0.000000e+00
 0.000000e+00 0.000000e+00 0.000000e+00 0.000000e+00 3.998592e-01 6.001408e-01
 0.000000e+00 0.000000e+00 0.000000e+00 0.000000e+00 0.000000e+00 0.000000e+00
<ENDHMM>
