~o
<STREAMINFO> 1 39
<VECSIZE> 39<NULLD><MFCC_D_A_0><DIAGC>
~h "nol"
<BEGINHMM>
<NUMSTATES> 6
<STATE> 2
<MEAN> 39
 -6.547834e+00 6.470694e+00 2.939294e+00 8.834529e+00 7.199895e-01 -1.189228e+00 1.812957e+00 4.206481e+00 -7.459762e-01 -4.349732e-02 9.305524e-01 -3.558606e+00 6.785352e+01 4.980451e-02 -2.561478e-02 1.898803e-02 -9.288701e-03 -5.563146e-03 6.258877e-03 2.239987e-02 -1.780549e-02 1.631341e-02 -8.339613e-03 -4.623437e-02 9.662921e-03 6.991094e-02 -3.501953e-03 4.698314e-03 3.813843e-03 4.687075e-04 9.762329e-04 -6.325142e-03 4.936829e-04 -2.512288e-03 9.044840e-03 4.683021e-03 3.887443e-03 7.303494e-03 2.012390e-03
<VARIANCE> 39
 8.772840e+01 6.552336e+01 4.661032e+01 4.584585e+01 7.359579e+01 5.339342e+01 5.222442e+01 2.978128e+01 3.716486e+01 2.900259e+01 3.401088e+01 2.900755e+01 9.220819e+01 2.844554e+00 3.004381e+00 2.390382e+00 3.664407e+00 3.659395e+00 4.520789e+00 3.835750e+00 2.037611e+00 2.885075e+00 1.565470e+00 2.134291e+00 2.118206e+00 3.001661e+00 3.616728e-01 4.357572e-01 4.092354e-01 6.375994e-01 4.997287e-01 7.653878e-01 6.939753e-01 3.513367e-01 5.522336e-01 2.918388e-01 3.643588e-01 3.516941e-01 4.468221e-01
<GCONST> 1.250719e+02
<STATE> 3
<MEAN> 39
 -2.246451e+01 -3.031781e+00 4.312007e+00 -4.113717e+00 -2.673856e+00 -2.221335e+00 6.867807e+00 -8.802579e+00 5.223855e+00 2.347973e+00 5.502921e-01 9.349561e-01 6.173513e+01 -7.147048e-01 5.064590e-01 3.951288e-01 2.070058e-02 1.412973e+00 3.458244e-01 1.604149e+00 -2.830855e-01 4.216027e-01 6.138625e-01 5.723054e-01 -1.219354e-01 4.610343e-01 1.347315e-01 2.439552e-01 -1.865789e-01 2.884105e-01 4.172931e-01 1.296296e-01 -7.182683e-02 2.268011e-01 1.668046e-01 -5.380682e-01 -2.096194e-01 -4.736492e-01 1.957983e-01
<VARIANCE> 39
 4.433731e+01 2.853920e+01 1.323751e+02 1.206033e+02 7.858622e+01 9.029119e+00 1.077040e+02 1.448582e+02 4.101451e+01 1.049890e+01 3.721676e+01 1.567979e+01 1.764287e+02 3.464288e-01 1.049869e+00 3.445382e-01 5.950349e-01 1.042975e+00 7.173825e-02 5.387993e-01 1.119128e-01 2.455197e-02 5.408673e-01 1.696107e+00 2.795708e-02 1.961190e-02 3.979498e-04 4.944411e-03 1.319622e-01 7.196859e-02 1.867674e-02 2.582030e-01 3.366947e-02 1.297203e-01 3.511258e-01 8.612808e-02 1.419912e-02 9.280480e-02 2.466158e-02
<GCONST> 6.063005e+01
<STATE> 4
<MEAN> 39
 -6.370017e+00 -6.466618e+00 1.401234e+00 -1.330068e+00 -4.704880e+00 5.475037e-01 2.325511e+00 -5.395787e+00 1.653753e+00 -3.689351e+00 -6.630510e+00 5.465549e-01 6.701820e+01 1.558999e-02 2.051712e-03 -1.208504e-02 8.696121e-03 3.151462e-03 7.225499e-03 -4.569090e-03 1.637634e-02 -1.099424e-02 -2.299962e-03 -6.126477e-03 5.029223e-04 -6.297268e-03 1.247209e-03 -5.358158e-04 -2.615820e-05 1.340130e-04 -1.109983e-03 1.759968e-04 -2.707561e-03 6.974962e-04 -8.823036e-04 8.242728e-04 -3.880672e-04 8.776031e-04 -1.152030e-03
<VARIANCE> 39
 7.924940e+01 4.905554e+01 5.274117e+01 8.736304e+01 7.184403e+01 1.429780e+02 1.961387e+02 1.020061e+02 6.952531e+01 4.320575e+01 3.556572e+01 2.672965e+01 1.846920e+02 8.212361e-01 8.140415e-01 1.371098e+00 1.684535e+00 2.107298e+00 1.913946e+00 2.766638e+00 2.550951e+00 1.944085e+00 1.615508e+00 1.715219e+00 1.395249e+00 1.038669e+00 1.107725e-01 1.183898e-01 1.857536e-01 2.633280e-01 2.877427e-01 2.943557e-01 4.143987e-01 4.036509e-01 3.361546e-01 2.899115e-01 3.250990e-01 2.515967e-01 1.119216e-01
<GCONST> 1.148104e+02
<STATE> 5
<MEAN> 39
 -1.240477e+01 -2.046609e+00 -2.703531e+00 1.989722e+00 2.749771e+00 3.829615e+00 4.926454e+00 2.176798e+00 -1.899322e+00 8.825569e-01 -2.580940e+00 3.879804e-01 5.870268e+01 1.345502e-01 1.246997e-01 1.626262e-02 -2.662823e-01 3.702231e-01 2.500137e-01 -6.831220e-01 4.511570e-01 -4.480498e-01 1.387158e-01 6.029807e-01 3.407770e-01 -1.877646e-01 3.925367e-02 4.954685e-02 7.451486e-02 -2.931627e-01 -2.397124e-01 -1.572533e-02 1.732732e-01 1.360776e-01 1.755158e-02 -1.853550e-01 9.124247e-02 5.962813e-02 6.965695e-02
<VARIANCE> 39
 1.783392e+01 1.664356e+01 1.518571e-01 1.897995e+01 5.425939e+01 3.318566e+01 4.694625e+01 2.674458e+01 2.538130e+01 1.000306e+01 2.612639e+00 5.589064e+00 6.851677e+01 8.078457e-03 5.686391e-02 2.989412e-01 1.113983e+00 3.726193e-01 1.124439e+00 1.085475e+00 1.478898e+00 1.732710e+00 4.178963e-01 4.078268e-01 2.452413e-01 1.713275e-01 3.839971e-03 3.156688e-03 5.934247e-03 2.731346e-02 3.806166e-02 1.184282e-01 8.632042e-02 7.842892e-04 2.880345e-02 1.114355e-01 2.635597e-02 2.133594e-01 5.739749e-03
<GCONST> 4.080097e+01
<TRANSP> 6
 0.000000e+00 1.000000e+00 0.000000e+00 0.000000e+00 0.000000e+00 0.000000e+00
 0.000000e+00 9.899525e-01 1.004750e-02 0.000000e+00 0.000000e+00 0.000000e+00
 0.000000e+00 0.000000e+00 0.000000e+00 1.000000e+00 0.000000e+00 0.000000e+00
 0.000000e+00 0.000000e+00 0.000000e+00 9.983105e-01 1.689475e-03 0.000000e+00
 0.000000e+00 0.000000e+00 0.000000e+00 0.000000e+00 3.997436e-01 6.002564e-01
 0.000000e+00 0.000000e+00 0.000000e+00 0.000000e+00 0.000000e+00 0.000000e+00
<ENDHMM>
