~o
<STREAMINFO> 1 39
<VECSIZE> 39<NULLD><MFCC_D_A_0><DIAGC>
~h "dua"
<BEGINHMM>
<NUMSTATES> 6
<STATE> 2
<MEAN> 39
 -5.687292e+00 -2.202313e-01 3.353636e+00 -9.000762e-01 -1.770911e+00 -1.039202e+01 1.311816e+01 -8.062445e+00 -2.601006e+00 -4.703219e+00 -5.592575e+00 -2.040305e+00 7.453043e+01 5.321405e-02 3.378113e-03 -1.559513e-02 1.512565e-02 1.203651e-03 1.153993e-02 6.878914e-03 1.539114e-02 -1.755378e-02 -1.103299e-02 -2.289514e-02 8.995300e-03 1.467817e-02 3.977932e-04 -2.305275e-03 -1.072521e-03 -1.016917e-03 -5.120376e-03 -1.197599e-03 -4.362911e-03 2.453277e-03 3.179044e-03 6.092419e-04 -4.020633e-03 1.236858e-03 -1.275966e-03
<VARIANCE> 39
 5.296529e+01 7.804779e+01 4.393818e+01 1.155099e+02 1.295561e+02 1.332746e+02 1.753295e+02 1.738800e+02 5.376067e+01 4.435684e+01 7.692919e+01 3.922079e+01 8.721138e+01 1.898778e+00 2.009608e+00 1.883806e+00 2.971330e+00 4.350253e+00 4.273073e+00 4.919545e+00 4.124221e+00 3.059185e+00 2.237948e+00 2.966336e+00 2.363058e+00 2.239948e+00 2.458722e-01 2.852688e-01 2.794370e-01 4.929148e-01 5.562688e-01 6.631097e-01 7.837839e-01 6.278236e-01 5.427554e-01 3.959540e-01 5.430086e-01 4.072960e-01 3.160924e-01
<GCONST> 1.320024e+02
<STATE> 3
<MEAN> 39
 -1.450821e+01 -2.325053e-01 -2.031535e+00 2.072011e+00 8.475806e-01 4.612099e+00 7.476412e+00 -2.380784e-01 5.804747e-01 -2.920213e+00 -3.011579e+00 -6.169397e-01 5.759229e+01 -2.983371e-01 -6.889058e-01 -2.695725e-01 1.854217e-04 -7.996258e-01 3.844685e-01 3.869922e-01 9.046311e-01 1.852974e-01 -1.372211e-02 -9.232649e-01 -7.706007e-01 -2.578927e-01 3.555514e-01 1.731731e-01 -8.895823e-03 2.407265e-01 -3.140698e-01 -5.034872e-01 -1.232497e-01 4.925586e-03 2.106192e-01 -1.496476e-02 -2.007336e-01 -1.547800e-01 3.038788e-01
<VARIANCE> 39
 3.111240e+01 1.556594e+01 2.009288e+01 5.050435e+01 7.074983e+01 4.796741e+01 1.556603e+02 3.766746e+00 3.239328e+00 6.005662e+00 9.577160e+00 1.266552e-01 1.128574e+02 2.253072e-03 2.533641e-01 3.539701e-01 1.105333e-01 2.202177e-01 2.068388e+00 5.830057e-02 1.025191e+00 3.287246e-02 5.449483e-01 5.502145e-01 8.536898e-01 1.773483e-01 4.995441e-02 1.547599e-03 1.190692e-01 2.633498e-01 3.134271e-01 6.739489e-01 1.624225e-01 9.206691e-02 2.052041e-02 9.691105e-02 1.197056e-01 3.777733e-03 3.623946e-02
<GCONST> 5.042587e+01
<STATE> 4
<MEAN> 39
 -1.348540e+01 -2.798072e+00 -2.920972e+00 4.920537e+00 -6.842896e+00 6.360405e+00 -1.239700e+00 6.706178e-01 -1.919393e+00 1.002367e+00 -4.860750e+00 1.480614e+00 5.172384e+01 7.563786e-03 -1.496819e-02 1.034323e-02 -9.623160e-03 2.031777e-02 1.389506e-02 -2.297443e-03 1.146031e-02 3.061371e-02 9.189144e-03 -1.677175e-02 -3.090460e-03 2.376817e-02 4.499339e-04 7.829964e-04 2.396606e-03 1.575563e-03 1.384538e-03 -9.951057e-04 -9.211769e-03 -4.455431e-03 7.472051e-03 5.111843e-03 6.541735e-03 6.131948e-03 1.907335e-03
<VARIANCE> 39
 1.032078e+00 2.026127e+00 3.432303e+00 4.330104e+00 5.609793e+00 6.211972e+00 8.818976e+00 7.418016e+00 7.439541e+00 8.629448e+00 6.950356e+00 6.024125e+00 2.969825e+00 8.494235e-02 2.459748e-01 3.327115e-01 4.696272e-01 3.942142e-01 6.399462e-01 5.878378e-01 8.768646e-01 1.018116e+00 1.023749e+00 8.936842e-01 6.907665e-01 5.187007e-02 1.766567e-02 5.667053e-02 6.104331e-02 1.065979e-01 7.735612e-02 1.308369e-01 1.209140e-01 1.794205e-01 2.171839e-01 2.180792e-01 1.844771e-01 1.458652e-01 9.098664e-03
<GCONST> 4.893591e+01
<STATE> 5
<MEAN> 39
 -5.694605e+00 -7.789042e+00 1.262314e+00 -2.252964e-02 -4.818402e+00 6.263023e+00 -4.260498e+00 -2.162372e+00 4.421245e+00 -2.839335e+00 -5.607385e+00 1.010830e+00 6.490465e+01 6.853458e-04 5.274977e-04 -3.619521e-03 1.757708e-03 6.653814e-03 3.959271e-03 -5.197225e-03 7.708828e-03 -7.950351e-03 2.168147e-03 2.793736e-03 1.165087e-03 -4.139573e-03 2.806735e-04 2.181435e-03 1.111749e-03 -4.299571e-04 2.523851e-03 1.168133e-03 1.237993e-03 7.659873e-04 -2.410245e-03 -9.543975e-04 2.313394e-03 8.446570e-04 -7.387119e-04
<VARIANCE> 39
 1.030920e+02 5.650432e+01 6.037706e+01 9.070571e+01 4.720102e+01 3.264890e+01 8.157817e+01 5.516309e+01 6.179911e+01 4.301822e+01 2.572408e+01 2.228861e+01 1.739790e+02 7.683693e-01 6.994532e-01 1.475138e+00 1.566393e+00 1.335486e+00 1.259754e+00 2.010883e+00 1.664147e+00 1.618232e+00 1.291525e+00 1.143362e+00 1.062545e+00 9.314873e-01 1.029705e-01 1.022503e-01 2.035481e-01 2.365577e-01 2.018196e-01 2.015022e-01 2.940386e-01 2.799621e-01 2.771580e-01 2.333206e-01 2.150842e-01 1.944770e-01 8.276086e-02
<GCONST> 1.052179e+02
<TRANSP> 6
 0.000000e+00 1.000000e+00 0.000000e+00 0.000000e+00 0.000000e+00 0.000000e+00
 0.000000e+00 9.959834e-01 4.016615e-03 0.000000e+00 0.000000e+00 0.000000e+00
 0.000000e+00 0.000000e+00 0.000000e+00 1.000000e+00 0.000000e+00 0.000000e+00
 0.000000e+00 0.000000e+00 0.000000e+00 9.845772e-01 1.542281e-02 0.000000e+00
 0.000000e+00 0.000000e+00 0.000000e+00 0.000000e+00 9.973626e-01 2.637487e-03
 0.000000e+00 0.000000e+00 0.000000e+00 0.000000e+00 0.000000e+00 0.000000e+00
<ENDHMM>
