~o
<STREAMINFO> 1 39
<VECSIZE> 39<NULLD><MFCC_D_A_0><DIAGC>
~h "lima"
<BEGINHMM>
<NUMSTATES> 6
<STATE> 2
<MEAN> 39
 -6.419410e+00 3.912938e+00 3.557915e+00 4.974106e+00 -1.361010e+00 -3.630263e+00 4.774507e+00 7.146767e-01 -8.361734e-01 -1.813484e+00 -2.112454e-01 -3.870429e+00 6.990133e+01 1.157640e-01 1.301266e-02 -7.643607e-03 3.273207e-02 -5.403184e-02 -3.364971e-02 1.347516e-02 -2.502385e-03 -3.143781e-02 -3.852325e-02 -1.009164e-01 -1.873849e-02 4.881220e-02 3.316852e-03 7.382695e-04 1.474139e-03 2.604950e-03 -2.637256e-02 -2.023934e-02 -4.923758e-03 -3.054545e-03 6.458012e-03 6.197363e-03 -6.682540e-03 -1.235559e-03 -1.423418e-03
<VARIANCE> 39
 8.046443e+01 8.424896e+01 5.309888e+01 9.596954e+01 1.193675e+02 9.986230e+01 8.287196e+01 9.450838e+01 4.323488e+01 4.461396e+01 4.099009e+01 2.731219e+01 9.392677e+01 2.913534e+00 2.689879e+00 2.479815e+00 3.426025e+00 4.451405e+00 4.869338e+00 3.822096e+00 3.334624e+00 3.255756e+00 2.280599e+00 2.628748e+00 2.104153e+00 3.046977e+00 3.673263e-01 3.849696e-01 3.742533e-01 6.064422e-01 5.463868e-01 7.560588e-01 6.673561e-01 5.233833e-01 6.391931e-01 4.155096e-01 4.843138e-01 3.458004e-01 4.456298e-01
<GCONST> 1.318681e+02
<STATE> 3
<MEAN> 39
 -3.479303e+00 2.942556e-01 1.070713e+01 -1.521737e+00 -1.968693e+01 -2.495229e+01 1.389675e+01 -1.501198e+01 -6.243776e+00 -3.714833e+00 -1.153257e+01 -6.547439e+00 7.538013e+01 1.506224e-01 -4.615849e-01 -3.095157e-01 -3.958791e-01 -6.713663e-01 -3.013824e-01 -1.895803e-01 3.232341e-01 -1.397365e-01 4.110050e-03 3.741432e-01 4.801634e-01 2.811395e-01 1.997284e-02 -1.361313e-01 -1.719743e-01 -1.651357e-01 3.142895e-01 1.916737e-01 3.974344e-02 -1.857865e-02 1.308910e-01 -2.337320e-01 -6.855994e-02 2.293491e-01 1.133097e-01
<VARIANCE> 39
 2.292150e+01 6.629949e+00 2.776446e+01 2.753711e+01 3.681564e+01 1.140008e+02 3.680467e+01 5.147928e+01 1.363979e+01 2.134916e+01 2.145614e+01 1.979075e+01 7.959994e+01 2.073613e-01 6.086633e-01 7.146940e-01 2.458732e+00 1.295345e+00 1.619505e+00 1.527323e+00 9.226536e-01 1.252043e+00 3.352346e+00 1.447899e+00 2.430061e+00 7.584159e-01 4.328240e-02 2.829402e-02 6.250705e-02 1.545746e-01 2.934204e-01 2.165959e-01 4.274183e-01 1.963987e-01 1.337345e-01 1.418705e-01 1.405171e-01 6.033816e-01 3.542032e-02
<GCONST> 9.097418e+01
<STATE> 4
<MEAN> 39
 -3.221259e+00 -1.255599e+01 -1.195075e+00 -1.434378e+01 -1.511321e+01 -1.786041e+01 2.672764e+01 -2.114692e+01 5.096679e+00 -1.227928e+01 -8.881519e+00 5.336010e+00 8.405219e+01 -5.772767e-02 -3.536074e-01 -4.322427e-01 -1.853597e-01 9.291810e-02 5.338030e-01 5.495750e-01 -4.551028e-01 6.845778e-01 -4.906972e-03 8.514810e-02 6.082231e-01 5.278194e-02 -5.607159e-02 1.092726e-01 1.671255e-01 9.746786e-02 3.777257e-02 8.312713e-02 -1.070862e-01 8.999296e-02 -8.170097e-02 1.168230e-01 8.116843e-02 -2.234894e-02 -1.107778e-01
<VARIANCE> 39
 1.230013e+01 2.164291e+01 8.222126e+00 3.327636e+01 1.625384e+01 4.667833e+01 9.873959e+01 6.875220e+01 1.838784e+01 1.631402e+01 4.756524e+00 1.915240e+01 9.005431e+01 2.342431e-02 4.911793e-01 3.684896e-01 2.527575e-01 1.208088e+00 7.321252e-01 1.283904e+00 7.178570e-01 3.295792e-01 1.005786e+00 5.238080e-01 3.916025e-01 3.321768e-01 4.815212e-02 5.933575e-02 7.239405e-02 4.566967e-02 1.669581e-01 9.992494e-02 1.643384e-01 7.163738e-02 1.764402e-02 1.641057e-01 1.217679e-01 1.079900e-01 3.521974e-02
<GCONST> 6.858319e+01
<STATE> 5
<MEAN> 39
 -6.516040e+00 -6.503731e+00 1.103800e+00 -7.574542e-01 -4.152950e+00 1.768671e+00 1.190317e+00 -4.718312e+00 1.834755e+00 -3.315198e+00 -6.635529e+00 8.391007e-01 6.612253e+01 -2.794149e-03 6.273525e-03 2.813154e-03 6.540524e-03 2.484654e-02 1.372613e-02 -8.900625e-03 1.862369e-02 -1.048002e-02 6.469391e-03 5.718110e-03 -6.896452e-03 -9.104401e-03 8.844768e-04 6.703722e-04 -2.422140e-04 -2.543588e-04 9.529258e-04 5.059284e-04 -1.889281e-04 7.279888e-04 -7.688465e-04 -2.495913e-04 1.332498e-03 -4.394265e-04 3.261990e-04
<VARIANCE> 39
 8.219599e+01 4.893846e+01 5.071893e+01 8.591927e+01 6.077419e+01 1.205758e+02 1.861641e+02 9.466347e+01 6.970116e+01 4.130511e+01 3.510496e+01 2.464328e+01 1.838637e+02 7.164186e-01 7.768909e-01 1.312438e+00 1.644828e+00 1.857571e+00 1.710242e+00 2.742190e+00 2.310627e+00 1.831292e+00 1.436394e+00 1.593504e+00 1.350349e+00 9.375085e-01 9.791613e-02 1.150666e-01 1.842515e-01 2.548057e-01 2.657366e-01 2.750535e-01 4.078938e-01 3.719303e-01 3.108524e-01 2.636214e-01 2.988366e-01 2.452536e-01 9.648285e-02
<GCONST> 1.123301e+02
<TRANSP> 6
 0.000000e+00 1.000000e+00 0.000000e+00 0.000000e+00 0.000000e+00 0.000000e+00
 0.000000e+00 9.921524e-01 7.847585e-03 0.000000e+00 0.000000e+00 0.000000e+00
 0.000000e+00 0.000000e+00 8.420208e-01 1.579792e-01 0.000000e+00 0.000000e+00
 0.000000e+00 0.000000e+00 0.000000e+00 8.749372e-01 1.250628e-01 0.000000e+00
 0.000000e+00 0.000000e+00 0.000000e+00 0.000000e+00 9.981907e-01 1.809278e-03
 0.000000e+00 0.000000e+00 0.000000e+00 0.000000e+00 0.000000e+00 0.000000e+00
<ENDHMM>
