~o
<STREAMINFO> 1 39
<VECSIZE> 39<NULLD><MFCC_D_A_0><DIAGC>
~h "nol"
<BEGINHMM>
<NUMSTATES> 6
<STATE> 2
<MEAN> 39
 -6.550935e+00 6.469600e+00 2.937296e+00 8.833833e+00 7.182918e-01 -1.187746e+00 1.811750e+00 4.206140e+00 -7.462394e-01 -4.317915e-02 9.302059e-01 -3.558042e+00 6.784827e+01 5.004722e-02 -2.569048e-02 1.905310e-02 -9.267805e-03 -5.588168e-03 6.259716e-03 2.243948e-02 -1.786412e-02 1.631020e-02 -8.340873e-03 -4.626670e-02 9.662089e-03 7.016671e-02 -3.502970e-03 4.696935e-03 3.819691e-03 4.696529e-04 9.612548e-04 -6.345692e-03 4.948268e-04 -2.517915e-03 9.053652e-03 4.670671e-03 3.877258e-03 7.314998e-03 2.017360e-03
<VARIANCE> 39
 8.778174e+01 6.551911e+01 4.662981e+01 4.584538e+01 7.359901e+01 5.339653e+01 5.222799e+01 2.978222e+01 3.715955e+01 2.899885e+01 3.400574e+01 2.900420e+01 9.236429e+01 2.846057e+00 3.003942e+00 2.390113e+00 3.663987e+00 3.658758e+00 4.520123e+00 3.835040e+00 2.037318e+00 2.884589e+00 1.565215e+00 2.133925e+00 2.117851e+00 3.002707e+00 3.619682e-01 4.356931e-01 4.091931e-01 6.375415e-01 4.996412e-01 7.652749e-01 6.938472e-01 3.512773e-01 5.521464e-01 2.917852e-01 3.642925e-01 3.516327e-01 4.470121e-01
<GCONST> 1.250729e+02
<STATE> 3
<MEAN> 39
 -2.246020e+01 -3.036411e+00 4.309630e+00 -4.112498e+00 -2.680388e+00 -2.218316e+00 6.862094e+00 -8.807967e+00 5.214701e+00 2.346019e+00 5.534125e-01 9.317489e-01 6.173145e+01 -7.138071e-01 5.048183e-01 3.947176e-01 2.000844e-02 1.411605e+00 3.453692e-01 1.603024e+00 -2.830989e-01 4.213935e-01 6.126103e-01 5.701670e-01 -1.221989e-01 4.610694e-01 1.347306e-01 2.438332e-01 -1.860627e-01 2.884529e-01 4.172983e-01 1.298274e-01 -7.167617e-02 2.271091e-01 1.669620e-01 -5.375665e-01 -2.097197e-01 -4.732513e-01 1.956470e-01
<VARIANCE> 39
 4.438417e+01 2.851472e+01 1.324543e+02 1.206608e+02 7.867429e+01 9.040204e+00 1.078090e+02 1.448140e+02 4.105528e+01 1.049342e+01 3.720208e+01 1.566740e+01 1.765494e+02 3.467132e-01 1.048745e+00 3.443137e-01 5.945036e-01 1.044126e+00 7.175125e-02 5.381737e-01 1.119434e-01 2.452200e-02 5.404588e-01 1.696914e+00 2.797653e-02 1.961144e-02 3.981044e-04 4.943258e-03 1.320950e-01 7.200731e-02 1.868383e-02 2.584129e-01 3.370883e-02 1.296108e-01 3.511100e-01 8.613732e-02 1.418734e-02 9.269216e-02 2.469168e-02
<GCONST> 6.063453e+01
<STATE> 4
<MEAN> 39
 -6.368114e+00 -6.469570e+00 1.400845e+00 -1.329033e+00 -4.706843e+00 5.543327e-01 2.316234e+00 -5.392516e+00 1.656162e+00 -3.688379e+00 -6.630559e+00 5.471169e-01 6.701526e+01 1.556546e-02 2.049617e-03 -1.206353e-02 8.685240e-03 3.150558e-03 7.205810e-03 -4.565006e-03 1.634961e-02 -1.097576e-02 -2.292001e-03 -6.124989e-03 5.032431e-04 -6.285154e-03 1.243934e-03 -5.338340e-04 -2.749282e-05 1.333469e-04 -1.107360e-03 1.764464e-04 -2.704096e-03 6.930753e-04 -8.830152e-04 8.243939e-04 -3.827482e-04 8.766384e-04 -1.150630e-03
<VARIANCE> 39
 7.925537e+01 4.904530e+01 5.275329e+01 8.736330e+01 7.180848e+01 1.428959e+02 1.960606e+02 1.019605e+02 6.952738e+01 4.320765e+01 3.554369e+01 2.672567e+01 1.847042e+02 8.211717e-01 8.139313e-01 1.371240e+00 1.684467e+00 2.106448e+00 1.913242e+00 2.765745e+00 2.549838e+00 1.943660e+00 1.615155e+00 1.714562e+00 1.394866e+00 1.038568e+00 1.107618e-01 1.183750e-01 1.857722e-01 2.633127e-01 2.876489e-01 2.942615e-01 4.142562e-01 4.034883e-01 3.360825e-01 2.898481e-01 3.249784e-01 2.515256e-01 1.118896e-01
<GCONST> 1.148022e+02
<STATE> 5
<MEAN> 39
 -1.240321e+01 -2.050127e+00 -2.703638e+00 1.990064e+00 2.742306e+00 3.826506e+00 4.916600e+00 2.168821e+00 -1.906824e+00 8.828108e-01 -2.582339e+00 3.851718e-01 5.869937e+01 1.346253e-01 1.243415e-01 1.589162e-02 -2.674991e-01 3.695181e-01 2.502041e-01 -6.838920e-01 4.494926e-01 -4.492939e-01 1.380397e-01 6.037208e-01 3.412787e-01 -1.875260e-01 3.931878e-02 4.948195e-02 7.459452e-02 -2.932877e-01 -2.397191e-01 -1.558596e-02 1.730382e-01 1.360836e-01 1.734850e-02 -1.858667e-01 9.105848e-02 5.990682e-02 6.971698e-02
<VARIANCE> 39
 1.781534e+01 1.661496e+01 1.520307e-01 1.898343e+01 5.429892e+01 3.314611e+01 4.694828e+01 2.671543e+01 2.535492e+01 1.001466e+01 2.615383e+00 5.592351e+00 6.853427e+01 8.078204e-03 5.684899e-02 2.984937e-01 1.114566e+00 3.727235e-01 1.124376e+00 1.083732e+00 1.479382e+00 1.729568e+00 4.179556e-01 4.072575e-01 2.453421e-01 1.714054e-01 3.842903e-03 3.155030e-03 5.938858e-03 2.728726e-02 3.804615e-02 1.184746e-01 8.638159e-02 7.843443e-04 2.878030e-02 1.113506e-01 2.637042e-02 2.134855e-01 5.730738e-03
<GCONST> 4.079431e+01
<TRANSP> 6
 0.000000e+00 1.000000e+00 0.000000e+00 0.000000e+00 0.000000e+00 0.000000e+00
 0.000000e+00 9.899321e-01 1.006796e-02 0.000000e+00 0.000000e+00 0.000000e+00
 0.000000e+00 0.000000e+00 0.000000e+00 1.000000e+00 0.000000e+00 0.000000e+00
 0.000000e+00 0.000000e+00 0.000000e+00 9.983128e-01 1.687157e-03 0.000000e+00
 0.000000e+00 0.000000e+00 0.000000e+00 0.000000e+00 4.000112e-01 5.999888e-01
 0.000000e+00 0.000000e+00 0.000000e+00 0.000000e+00 0.000000e+00 0.000000e+00
<ENDHMM>
