~o
<STREAMINFO> 1 39
<VECSIZE> 39<NULLD><MFCC_D_A_0><DIAGC>
~h "sil"
<BEGINHMM>
<NUMSTATES> 6
<STATE> 2
<MEAN> 39
 -4.667819e+00 -5.345441e+00 2.308920e+00 -1.362088e+00 -3.741710e+00 -9.837171e-01 2.787413e+00 -5.030238e+00 1.996771e+00 -4.171268e+00 -5.998876e+00 -3.748496e-01 7.048450e+01 2.848661e-02 -2.290795e-03 -4.431250e-03 6.139627e-03 1.131062e-03 6.737064e-03 4.171471e-04 6.549474e-03 -4.150236e-03 -2.384851e-03 -1.300681e-02 2.754333e-03 1.270395e-02 5.279520e-04 4.048742e-04 -8.172473e-04 1.997195e-03 -9.676388e-05 -1.710719e-03 -2.385465e-03 1.026858e-03 -1.316776e-03 3.962848e-04 5.505139e-04 1.603185e-03 -1.244216e-03
<VARIANCE> 39
 8.104093e+01 8.325398e+01 6.094231e+01 1.026141e+02 8.954922e+01 1.496410e+02 2.099739e+02 1.186337e+02 7.562325e+01 4.528440e+01 4.810609e+01 3.375919e+01 1.485792e+02 1.347723e+00 1.354615e+00 1.795739e+00 2.334260e+00 2.764687e+00 2.672674e+00 3.396756e+00 2.810877e+00 2.307197e+00 1.791494e+00 2.016798e+00 1.677560e+00 1.608514e+00 1.770567e-01 1.947824e-01 2.534760e-01 3.727251e-01 3.710617e-01 4.155088e-01 5.164885e-01 4.372699e-01 4.017439e-01 3.189392e-01 3.722973e-01 2.929855e-01 1.948198e-01
<GCONST> 1.238079e+02
<STATE> 3
<MEAN> 39
 -1.246244e+01 -3.858380e+00 -5.013388e-01 6.150955e+00 -6.200786e+00 6.641927e+00 -7.399653e-01 -6.598346e-01 -6.027031e-01 1.050657e+00 -5.212066e+00 2.112435e+00 5.407305e+01 -6.917322e-02 1.501753e-02 -5.381049e-02 6.640767e-02 2.919536e-02 -2.210556e-03 -1.949489e-02 7.809373e-02 -5.844657e-02 3.999176e-02 6.697980e-02 1.600806e-02 -1.070941e-01 7.551053e-04 2.847509e-03 2.260346e-02 -1.208817e-02 -2.414819e-02 -1.290833e-03 -1.654465e-02 -2.470423e-02 2.981183e-03 -2.964485e-02 -1.687859e-02 -1.506717e-03 6.632842e-03
<VARIANCE> 39
 2.793234e+00 2.689028e+00 3.034606e+00 4.195834e+00 8.334834e+00 3.400605e+00 9.148280e+00 8.983773e+00 6.793904e+00 5.892114e+00 7.193942e+00 6.630623e+00 6.192880e+00 1.317278e-01 1.676622e-01 3.517930e-01 3.677106e-01 4.621269e-01 3.196151e-01 9.956287e-01 1.008267e+00 8.107296e-01 5.471355e-01 8.100336e-01 8.489555e-01 1.106497e-01 2.409380e-02 3.222406e-02 6.768101e-02 6.651188e-02 8.633418e-02 7.193125e-02 2.061407e-01 2.247560e-01 1.574173e-01 1.035240e-01 1.698400e-01 1.734099e-01 9.727051e-03
<GCONST> 4.922141e+01
<STATE> 4
<MEAN> 39
 -1.350099e+01 -1.968832e+00 -1.578072e+00 6.528717e+00 -5.802701e+00 5.888472e+00 -1.460947e+00 1.184649e-01 -2.514854e+00 1.518533e+00 -4.156519e+00 1.285121e+00 5.160477e+01 -7.818053e-03 5.085459e-03 -5.431543e-03 2.562096e-03 7.600019e-03 -6.343177e-03 -1.361548e-02 -5.828158e-03 -3.789435e-02 -7.238930e-03 6.876629e-03 -4.350125e-03 -1.312033e-02 1.013562e-03 5.702910e-04 3.064697e-04 -7.306003e-03 -1.803288e-03 1.524587e-03 -1.144850e-03 -2.788958e-03 1.140680e-03 2.593811e-03 5.773239e-03 2.242987e-04 2.483281e-03
<VARIANCE> 39
 7.964181e-01 1.159087e+00 1.774789e+00 3.059800e+00 4.794031e+00 5.150393e+00 5.672891e+00 6.774640e+00 7.368068e+00 6.778992e+00 6.098329e+00 5.192893e+00 1.668116e+00 4.389400e-02 8.778862e-02 2.084537e-01 3.276583e-01 4.181397e-01 6.636261e-01 7.724339e-01 8.322593e-01 9.291787e-01 7.219396e-01 5.959544e-01 5.767761e-01 2.176899e-02 8.715839e-03 1.821443e-02 4.567947e-02 6.769823e-02 8.696666e-02 1.500524e-01 1.776908e-01 1.823797e-01 1.885878e-01 1.492506e-01 1.173479e-01 1.237242e-01 3.799680e-03
<GCONST> 3.709092e+01
<STATE> 5
<MEAN> 39
 -1.926484e+01 4.709784e+00 -1.921198e+00 7.783769e+00 2.608218e+00 5.271657e+00 7.214894e+00 3.476115e+00 4.671706e-01 8.269527e-01 1.865667e+00 1.124975e+00 5.338432e+01 1.145502e-03 -7.442864e-03 -2.685178e-02 -8.253380e-02 6.919326e-02 1.285254e-01 7.363407e-02 1.684228e-01 9.647635e-02 -2.074680e-02 -8.311719e-02 5.936703e-03 1.884062e-03 9.792821e-03 6.685696e-03 8.643256e-03 -1.454412e-02 1.457827e-02 2.358159e-02 2.779485e-02 4.725175e-02 6.019199e-02 2.170065e-02 -1.440182e-02 -7.758659e-04 8.124445e-03
<VARIANCE> 39
 3.581115e+00 4.740441e+00 5.015559e+00 7.711301e+00 6.377042e+00 8.853113e+00 1.052976e+01 1.353621e+01 1.771786e+01 9.838285e+00 9.527152e+00 6.895003e+00 4.312983e+00 5.892722e-02 2.517080e-01 4.876254e-01 4.145415e-01 2.976195e-01 5.014575e-01 7.788310e-01 1.628084e+00 1.991776e+00 1.388625e+00 1.060472e+00 9.937943e-01 2.677713e-02 9.482592e-03 5.441634e-02 1.062418e-01 8.256911e-02 5.886604e-02 7.552227e-02 1.249998e-01 3.062391e-01 3.829593e-01 3.028145e-01 2.196055e-01 2.185927e-01 4.972788e-03
<GCONST> 5.646098e+01
<TRANSP> 6
 0.000000e+00 1.000000e+00 0.000000e+00 0.000000e+00 0.000000e+00 0.000000e+00
 0.000000e+00 9.982310e-01 1.769004e-03 0.000000e+00 0.000000e+00 0.000000e+00
 0.000000e+00 0.000000e+00 9.605492e-01 3.945081e-02 0.000000e+00 0.000000e+00
 0.000000e+00 0.000000e+00 0.000000e+00 9.882289e-01 1.177114e-02 0.000000e+00
 0.000000e+00 0.000000e+00 0.000000e+00 0.000000e+00 9.473661e-01 5.263392e-02
 0.000000e+00 0.000000e+00 0.000000e+00 0.000000e+00 0.000000e+00 0.000000e+00
<ENDHMM>
