~o
<STREAMINFO> 1 39
<VECSIZE> 39<NULLD><MFCC_D_A_0><DIAGC>
~h "satu"
<BEGINHMM>
<NUMSTATES> 6
<STATE> 2
<MEAN> 39
 -2.321542e+01 -8.417210e+00 8.452548e+00 -1.630958e+01 5.525377e+00 -5.012658e+00 1.793724e+01 -1.564351e+01 8.178658e+00 -5.568241e+00 4.216150e+00 -5.173652e+00 7.692368e+01 2.221880e+00 -7.298616e-01 -2.123530e+00 8.589062e-02 -1.436613e+00 -7.377250e-03 4.158904e-01 4.156615e-01 -4.776636e-01 -1.162167e+00 -7.362831e-01 -3.280092e-01 6.167870e-01 2.407587e-01 -1.585349e-01 -2.228731e-01 2.888162e-01 -4.304127e-01 2.074488e-02 7.116048e-02 -1.311245e-01 3.046972e-01 -2.309648e-01 -8.993109e-02 1.521364e-02 7.851981e-02
<VARIANCE> 39
 1.327972e+02 3.765146e+01 1.126462e+02 9.569167e+01 8.336087e+01 1.449912e+01 9.425037e+01 8.108278e+01 5.787677e+01 5.157990e+01 2.026189e+01 1.524429e+01 2.573875e+02 1.033519e+01 1.462018e+00 3.426411e+00 1.166802e+00 7.948611e+00 6.742788e-01 1.980397e+00 1.357342e+00 8.857819e+00 3.047421e+00 1.448366e+00 6.389369e-01 1.001224e+00 1.496379e+00 2.090810e-01 2.892210e-01 1.553783e-01 4.922318e-01 2.003568e-01 3.421474e-01 3.746192e-01 2.692202e+00 3.130869e-01 2.242451e-01 1.663146e-01 2.115777e-01
<GCONST> 1.211434e+02
<STATE> 3
<MEAN> 39
 -2.467765e+01 4.805895e-02 -8.733479e+00 2.837770e+00 -5.853833e+00 3.180552e+00 2.609120e+00 2.047751e+00 -5.156655e-01 -9.270560e-01 6.502815e-01 -2.275659e+00 4.471923e+01 1.114788e-01 -1.994909e-01 1.537925e-02 5.885207e-01 -2.057275e-01 6.936722e-01 8.525633e-01 -1.585331e-01 5.799537e-01 -2.713571e-01 -1.202959e-01 -3.670633e-01 1.087896e-01 3.865660e-01 4.954425e-02 5.059527e-01 1.024031e-01 -1.507433e-01 -1.641890e-02 -2.411309e-01 -3.198358e-01 2.145813e-01 1.627512e-01 7.877113e-02 3.061380e-01 3.869311e-01
<VARIANCE> 39
 1.380011e+02 5.187960e+01 2.150850e+01 4.690543e+01 2.364533e+01 1.614148e+01 1.318158e+02 6.813094e+01 1.940161e+01 5.240525e+01 1.044027e+01 8.730825e+00 4.355555e+02 5.967460e-01 1.125122e+00 8.668249e-01 2.257667e+00 2.751818e+00 4.712379e-01 3.476363e-01 1.766247e+00 3.797581e+00 8.092439e-01 1.478027e-01 5.316092e-01 1.412613e-01 1.155644e+00 6.041437e-02 1.513228e-01 8.828690e-02 1.656975e-01 4.146608e-02 4.149716e-02 3.544373e-02 5.940079e-02 2.275216e-02 2.906932e-02 8.256969e-02 6.680719e-01
<GCONST> 8.517605e+01
<STATE> 4
<MEAN> 39
 -6.249463e+00 -4.603222e+00 1.616855e+00 2.187410e-01 -3.980223e+00 3.283543e-01 2.145849e+00 -3.967148e+00 1.281261e+00 -3.148901e+00 -5.618880e+00 -1.803333e-04 6.713879e+01 5.241827e-03 4.069162e-03 6.269640e-03 3.641104e-03 1.373196e-02 5.316628e-03 -3.878201e-03 9.027886e-03 -5.458831e-03 5.960614e-03 -6.096177e-03 4.968542e-03 1.143990e-03 -2.070130e-03 1.405469e-03 -5.585200e-05 -1.567720e-03 3.018653e-03 -6.513589e-04 -1.995959e-03 2.478637e-03 -1.861051e-03 1.508599e-03 2.249441e-04 -1.074269e-05 -2.227148e-03
<VARIANCE> 39
 7.734731e+01 7.204745e+01 5.135825e+01 9.257132e+01 7.521785e+01 1.311197e+02 1.744238e+02 1.022626e+02 6.547105e+01 4.265529e+01 4.189583e+01 2.907379e+01 1.678411e+02 1.024204e+00 1.122807e+00 1.477782e+00 1.969254e+00 2.279366e+00 2.298482e+00 2.929960e+00 2.480767e+00 2.024549e+00 1.591561e+00 1.779091e+00 1.503784e+00 1.323032e+00 1.337948e-01 1.636482e-01 2.163490e-01 3.179811e-01 3.159786e-01 3.637616e-01 4.555547e-01 3.964838e-01 3.526967e-01 2.905465e-01 3.317688e-01 2.668559e-01 1.572110e-01
<GCONST> 1.182742e+02
<STATE> 5
<MEAN> 39
 -1.240455e+01 -2.049447e+00 -2.703610e+00 1.991627e+00 2.738809e+00 3.828000e+00 4.913895e+00 2.167534e+00 -1.907987e+00 8.830701e-01 -2.582917e+00 3.842259e-01 5.869564e+01 1.346449e-01 1.242554e-01 1.601639e-02 -2.679596e-01 3.692873e-01 2.506442e-01 -6.836787e-01 4.489717e-01 -4.491256e-01 1.379536e-01 6.037222e-01 3.414700e-01 -1.873373e-01 3.934545e-02 4.946955e-02 7.462969e-02 -2.932635e-01 -2.396451e-01 -1.544022e-02 1.729003e-01 1.360865e-01 1.731792e-02 -1.859649e-01 9.101156e-02 6.011694e-02 6.970311e-02
<VARIANCE> 39
 1.781080e+01 1.661166e+01 1.520983e-01 1.898302e+01 5.430417e+01 3.313903e+01 4.695807e+01 2.671942e+01 2.535826e+01 1.001780e+01 2.616199e+00 5.593582e+00 6.852640e+01 8.076640e-03 5.686116e-02 2.984247e-01 1.114674e+00 3.727381e-01 1.124184e+00 1.083456e+00 1.479693e+00 1.729194e+00 4.180955e-01 4.072687e-01 2.453393e-01 1.713918e-01 3.843579e-03 3.154650e-03 5.939746e-03 2.728667e-02 3.803810e-02 1.184670e-01 8.638507e-02 7.840780e-04 2.877698e-02 1.113700e-01 2.637937e-02 2.134838e-01 5.729601e-03
<GCONST> 4.079494e+01
<TRANSP> 6
 0.000000e+00 1.000000e+00 0.000000e+00 0.000000e+00 0.000000e+00 0.000000e+00
 0.000000e+00 7.691340e-01 2.308659e-01 0.000000e+00 0.000000e+00 0.000000e+00
 0.000000e+00 0.000000e+00 5.715458e-01 4.284543e-01 0.000000e+00 0.000000e+00
 0.000000e+00 0.000000e+00 0.000000e+00 9.985434e-01 1.456613e-03 0.000000e+00
 0.000000e+00 0.000000e+00 0.000000e+00 0.000000e+00 4.000181e-01 5.999820e-01
 0.000000e+00 0.000000e+00 0.000000e+00 0.000000e+00 0.000000e+00 0.000000e+00
<ENDHMM>
