~o
<STREAMINFO> 1 39
<VECSIZE> 39<NULLD><MFCC_D_A_0><DIAGC>
~h "enam"
<BEGINHMM>
<NUMSTATES> 6
<STATE> 2
<MEAN> 39
 -4.650869e+00 -5.285790e+00 2.279275e+00 -1.312340e+00 -3.655051e+00 -1.080220e+00 2.884624e+00 -5.013778e+00 1.943743e+00 -4.145731e+00 -5.960962e+00 -3.515562e-01 7.053328e+01 3.331432e-02 -3.514362e-03 6.892664e-03 3.163510e-04 -1.515837e-03 2.764360e-03 -5.002607e-04 -2.041016e-03 1.867309e-03 -7.926724e-03 -1.208970e-02 6.507532e-04 2.425831e-02 2.098166e-04 -1.268354e-03 -1.022569e-03 -9.343345e-04 -9.366011e-04 8.159494e-04 -1.889386e-03 3.254535e-04 -4.966572e-04 1.088911e-03 -2.388729e-04 9.160078e-04 -8.042380e-04
<VARIANCE> 39
 8.214229e+01 8.388267e+01 6.147075e+01 1.038180e+02 8.943831e+01 1.510175e+02 2.103530e+02 1.202618e+02 7.646218e+01 4.578180e+01 4.849005e+01 3.414979e+01 1.502856e+02 1.366367e+00 1.364364e+00 1.792490e+00 2.357302e+00 2.792346e+00 2.693722e+00 3.421893e+00 2.836882e+00 2.321971e+00 1.805890e+00 2.026736e+00 1.695325e+00 1.623818e+00 1.793375e-01 1.966433e-01 2.537838e-01 3.761331e-01 3.730331e-01 4.190539e-01 5.213619e-01 4.418481e-01 4.042323e-01 3.222284e-01 3.728580e-01 2.955177e-01 1.975103e-01
<GCONST> 1.241346e+02
<STATE> 3
<MEAN> 39
 -8.393018e+00 -2.450598e+00 5.572087e+00 -2.057994e+00 -7.993292e-01 1.226472e+00 5.264866e+00 -7.342134e+00 4.050941e+00 -1.788896e+00 -2.337277e+00 -3.144176e-01 6.785760e+01 -4.005003e-01 -8.442397e-01 -8.470507e-01 -5.219377e-01 1.145742e-01 7.963963e-01 1.951852e-01 4.557198e-01 -9.586444e-01 2.021720e-01 -5.523327e-01 -4.314755e-01 -5.599316e-01 -2.089790e-02 1.638214e-01 -2.295342e-01 3.246878e-01 -4.970254e-01 -3.266167e-01 7.630271e-02 4.374641e-01 7.585502e-02 -2.680558e-01 -1.385333e-01 -1.826828e-01 -1.535210e-01
<VARIANCE> 39
 3.239272e+01 7.335767e+01 5.479783e+01 4.408370e+01 6.901937e+01 5.705672e+01 1.529955e+02 3.571227e+00 2.777503e+01 1.524610e+01 1.535866e+01 7.438813e-02 8.038474e+01 2.117793e-02 2.778800e-01 1.476807e+00 4.585362e-01 1.485516e-01 1.875326e+00 5.230114e-01 2.988732e+00 1.085257e+00 1.706795e+00 8.016748e-02 3.145543e-01 1.809745e-02 1.469607e-01 5.597609e-02 3.882868e-02 1.691624e-04 1.513356e-01 1.608640e-01 1.770729e-01 1.282955e-01 1.072437e-01 2.861419e-02 3.884616e-02 2.876033e-01 3.578232e-02
<GCONST> 6.111333e+01
<STATE> 4
<MEAN> 39
 -6.821404e+00 -8.402695e+00 2.645628e+00 -2.776547e+00 -8.289751e+00 4.927022e+00 -2.503617e+00 -4.937244e+00 3.480738e+00 -4.844858e+00 -8.466631e+00 -1.581310e+00 6.526958e+01 -3.209957e-01 1.267783e-01 -6.267536e-01 5.523847e-01 2.689966e-01 7.744917e-02 -7.161034e-02 5.501235e-01 -4.507766e-01 3.338028e-01 1.489453e-01 2.222919e-01 -7.433644e-01 1.565136e-02 9.977394e-02 8.502689e-02 1.127966e-01 5.653746e-02 -1.047207e-01 -3.519324e-02 4.098839e-03 1.727655e-02 -3.396394e-02 8.850274e-02 9.866931e-02 3.745664e-03
<VARIANCE> 39
 1.052322e+01 2.139192e+01 1.858792e+01 2.167517e+01 6.912485e+01 1.789664e+01 1.214614e+02 1.967158e+01 1.687577e+01 1.354254e+01 1.651620e+01 7.459189e+00 3.546805e+01 9.254593e-02 5.317512e-01 1.120824e+00 6.113299e-01 1.193628e+00 1.004027e+00 2.097733e+00 6.609454e-01 1.210802e+00 5.772341e-01 1.314536e+00 7.208391e-01 7.197259e-02 1.698440e-02 5.783639e-02 1.912072e-01 1.459769e-01 2.519812e-01 1.697818e-01 2.181274e-01 1.424552e-01 2.601477e-01 9.949481e-02 3.051377e-01 1.547134e-01 1.715530e-02
<GCONST> 7.798036e+01
<STATE> 5
<MEAN> 39
 -1.423668e+01 -1.276363e+00 -1.427050e+00 6.737699e+00 -4.680372e+00 5.998658e+00 -8.903503e-02 5.233485e-01 -1.706655e+00 1.380668e+00 -3.403198e+00 1.461174e+00 5.217453e+01 -8.026664e-03 6.553164e-03 -9.152146e-03 -1.374441e-02 9.527216e-03 1.978188e-02 6.568638e-03 2.543202e-02 -3.890814e-03 -5.476573e-03 -7.585627e-03 -4.688827e-03 -1.297161e-02 2.592605e-03 -3.518791e-04 1.534776e-03 -8.561242e-03 -1.005445e-03 4.482693e-03 1.027419e-04 -3.676164e-04 4.662617e-03 1.027104e-03 -4.528422e-03 -4.012568e-03 3.098798e-03
<VARIANCE> 39
 5.819509e+00 8.562943e+00 2.745696e+00 3.652176e+00 1.361443e+01 5.383468e+00 1.548411e+01 9.472863e+00 1.027083e+01 6.964390e+00 1.149731e+01 5.779039e+00 2.075219e+00 5.774717e-02 1.280449e-01 2.772528e-01 3.352775e-01 3.826998e-01 5.773457e-01 7.811065e-01 9.864193e-01 1.050131e+00 7.928712e-01 7.058107e-01 6.772503e-01 2.991873e-02 1.169581e-02 2.592066e-02 5.903215e-02 6.793208e-02 7.731001e-02 1.228691e-01 1.744531e-01 2.099938e-01 2.106255e-01 1.652328e-01 1.427098e-01 1.436810e-01 5.089599e-03
<GCONST> 4.877743e+01
<TRANSP> 6
 0.000000e+00 1.000000e+00 0.000000e+00 0.000000e+00 0.000000e+00 0.000000e+00
 0.000000e+00 9.982030e-01 1.797019e-03 0.000000e+00 0.000000e+00 0.000000e+00
 0.000000e+00 0.000000e+00 0.000000e+00 1.000000e+00 0.000000e+00 0.000000e+00
 0.000000e+00 0.000000e+00 0.000000e+00 9.061511e-01 9.384889e-02 0.000000e+00
 0.000000e+00 0.000000e+00 0.000000e+00 0.000000e+00 9.920779e-01 7.922126e-03
 0.000000e+00 0.000000e+00 0.000000e+00 0.000000e+00 0.000000e+00 0.000000e+00
<ENDHMM>
