~o
<STREAMINFO> 1 39
<VECSIZE> 39<NULLD><MFCC_D_A_0><DIAGC>
~h "belas"
<BEGINHMM>
<NUMSTATES> 6
<STATE> 2
<MEAN> 39
 -8.776103e+00 3.095228e+00 -1.263095e+00 1.618035e+00 4.151671e-01 -4.173700e+00 2.017306e+00 -2.204400e-02 -6.848067e-01 -4.384556e+00 2.519018e-01 -3.866034e-01 6.459573e+01 -7.761798e-03 1.209968e-02 7.942939e-03 1.168546e-02 2.952295e-03 1.701145e-03 4.294654e-03 2.988028e-04 -5.139696e-04 -5.047296e-03 -4.159361e-03 -2.317833e-03 7.224581e-02 1.269349e-03 -1.336948e-03 1.735854e-03 -1.545864e-03 5.736249e-05 -6.243204e-04 -7.262666e-04 -1.501489e-03 4.610851e-04 -9.849960e-04 6.374986e-04 -4.433159e-04 1.233850e-03
<VARIANCE> 39
 7.973793e+01 5.095772e+01 5.535636e+01 5.931656e+01 6.344811e+01 6.576635e+01 5.564516e+01 4.533898e+01 4.761836e+01 5.507915e+01 3.131747e+01 3.433294e+01 2.761857e+02 2.105354e+00 1.962194e+00 1.746064e+00 1.979979e+00 2.231631e+00 2.706139e+00 2.165498e+00 1.886374e+00 2.150968e+00 2.152167e+00 1.654944e+00 1.468782e+00 2.848783e+00 2.780423e-01 3.185168e-01 2.804802e-01 3.118615e-01 3.602351e-01 4.449254e-01 3.869159e-01 3.406396e-01 3.631703e-01 3.788788e-01 2.939025e-01 2.475259e-01 3.431542e-01
<GCONST> 1.196670e+02
<STATE> 3
<MEAN> 39
 -3.281110e+00 -2.621211e+00 4.646895e+00 -4.537005e+00 2.231001e+00 -8.618052e+00 1.891535e+00 -6.542963e+00 -2.808748e+00 -7.833105e+00 -1.748819e-01 -2.178046e+00 6.773743e+01 1.298681e-02 -2.804568e-03 2.605758e-03 -1.354508e-02 -4.668908e-03 -6.761315e-03 -3.957017e-03 -9.999408e-03 -5.681584e-03 -6.373131e-03 8.065060e-04 1.659686e-03 1.861340e-02 -1.631059e-03 1.739022e-03 -3.616479e-03 1.962824e-03 1.816680e-04 2.780927e-03 1.246361e-03 1.806983e-03 -9.244950e-05 2.160972e-03 -8.498976e-04 6.868977e-04 -5.808076e-03
<VARIANCE> 39
 8.167526e+01 9.697574e+01 7.605195e+01 1.186004e+02 1.230543e+02 1.067034e+02 1.530448e+02 1.245307e+02 9.726274e+01 7.085318e+01 1.238454e+02 5.274636e+01 1.593123e+02 2.530208e+00 3.465949e+00 3.234165e+00 4.554739e+00 4.283073e+00 5.741617e+00 5.443601e+00 5.104206e+00 4.953516e+00 4.083015e+00 3.786315e+00 3.002752e+00 3.276818e+00 3.421194e-01 5.360647e-01 5.004865e-01 7.114857e-01 6.611019e-01 9.940900e-01 9.422581e-01 8.849349e-01 8.683196e-01 7.364030e-01 6.697083e-01 5.124944e-01 4.426400e-01
<GCONST> 1.441441e+02
<STATE> 4
<MEAN> 39
 -8.096825e+00 -5.055269e+00 1.661083e+00 -1.537575e+00 2.022157e+00 -8.346587e-02 2.824716e+00 -1.950040e+00 3.373861e+00 -2.124377e+00 -2.340282e+00 9.346032e-01 6.084668e+01 -4.768457e-02 -2.207305e-03 -1.321587e-02 1.556959e-02 1.611731e-02 1.426841e-02 4.126907e-03 1.784337e-02 1.874228e-02 2.114924e-02 4.290250e-03 1.334651e-03 -5.431158e-02 3.178616e-03 2.238054e-04 2.223608e-03 -1.137597e-04 -1.615267e-03 -4.003638e-03 -6.672995e-04 4.983884e-04 -3.425568e-04 -1.752828e-03 6.229919e-05 -7.019400e-04 3.731108e-03
<VARIANCE> 39
 7.253213e+01 8.346233e+01 7.664436e+01 5.848197e+01 4.319399e+01 3.298040e+01 4.425302e+01 6.585337e+01 4.398727e+01 3.067871e+01 3.043237e+01 2.292216e+01 1.380806e+02 6.464307e-01 6.017782e-01 9.993569e-01 1.116171e+00 1.100068e+00 1.079231e+00 1.377475e+00 1.284510e+00 1.235036e+00 1.114474e+00 1.017598e+00 9.698400e-01 6.431782e-01 7.439683e-02 9.010494e-02 1.381397e-01 1.735990e-01 1.790583e-01 1.889310e-01 2.323567e-01 2.261911e-01 2.275505e-01 2.027036e-01 1.847914e-01 1.741113e-01 6.163649e-02
<GCONST> 9.812036e+01
<STATE> 5
<MEAN> 39
 -1.232167e+01 -2.919065e+00 6.695459e+00 -8.115664e+00 7.175406e+00 -1.315096e+01 1.069328e+01 -1.183416e+01 2.677139e+00 -6.716449e+00 2.696243e+00 -4.713066e+00 5.939366e+01 2.334756e-03 4.963785e-05 -8.909996e-04 4.926893e-03 -2.929782e-03 4.363639e-04 1.171384e-03 1.689500e-03 -2.335182e-03 -3.284774e-03 -5.174598e-03 -3.573383e-05 -3.549656e-03 2.680737e-04 -2.106485e-04 1.308036e-04 8.216390e-04 -3.850554e-04 1.793137e-03 -3.646924e-04 1.002822e-03 -5.643868e-04 4.436130e-04 -8.952405e-04 6.837095e-04 -6.085618e-04
<VARIANCE> 39
 6.680990e+01 2.985707e+01 3.875949e+01 2.972107e+01 3.659155e+01 5.572467e+01 2.742978e+01 4.344990e+01 5.695727e+01 2.732408e+01 3.653397e+01 3.225584e+01 5.742065e+01 1.409823e+00 1.525169e+00 1.552417e+00 1.535974e+00 1.608799e+00 2.288130e+00 1.598233e+00 1.844948e+00 2.649307e+00 1.779930e+00 2.130377e+00 1.734974e+00 1.259657e+00 1.607216e-01 2.520908e-01 2.370192e-01 2.730770e-01 2.736748e-01 3.660701e-01 2.711896e-01 3.162410e-01 4.418629e-01 3.260402e-01 3.756685e-01 2.900378e-01 1.618913e-01
<GCONST> 1.099330e+02
<TRANSP> 6
 0.000000e+00 9.888839e-01 1.111607e-02 0.000000e+00 0.000000e+00 0.000000e+00
 0.000000e+00 9.967692e-01 2.100718e-03 1.130046e-03 0.000000e+00 0.000000e+00
 0.000000e+00 0.000000e+00 9.973050e-01 2.649212e-03 4.582509e-05 0.000000e+00
 0.000000e+00 0.000000e+00 0.000000e+00 9.925041e-01 7.495924e-03 0.000000e+00
 0.000000e+00 0.000000e+00 0.000000e+00 0.000000e+00 9.921160e-01 7.884030e-03
 0.000000e+00 0.000000e+00 0.000000e+00 0.000000e+00 0.000000e+00 0.000000e+00
<ENDHMM>
~h "delapan"
<BEGINHMM>
<NUMSTATES> 6
<STATE> 2
<MEAN> 39
 -8.776103e+00 3.095228e+00 -1.263095e+00 1.618035e+00 4.151671e-01 -4.173700e+00 2.017306e+00 -2.204400e-02 -6.848067e-01 -4.384556e+00 2.519018e-01 -3.866034e-01 6.459573e+01 -7.761798e-03 1.209968e-02 7.942939e-03 1.168546e-02 2.952295e-03 1.701145e-03 4.294654e-03 2.988028e-04 -5.139696e-04 -5.047296e-03 -4.159361e-03 -2.317833e-03 7.224581e-02 1.269349e-03 -1.336948e-03 1.735854e-03 -1.545864e-03 5.736249e-05 -6.243204e-04 -7.262666e-04 -1.501489e-03 4.610851e-04 -9.849960e-04 6.374986e-04 -4.433159e-04 1.233850e-03
<VARIANCE> 39
 7.973793e+01 5.095772e+01 5.535636e+01 5.931656e+01 6.344811e+01 6.576635e+01 5.564516e+01 4.533898e+01 4.761836e+01 5.507915e+01 3.131747e+01 3.433294e+01 2.761857e+02 2.105354e+00 1.962194e+00 1.746064e+00 1.979979e+00 2.231631e+00 2.706139e+00 2.165498e+00 1.886374e+00 2.150968e+00 2.152167e+00 1.654944e+00 1.468782e+00 2.848783e+00 2.780423e-01 3.185168e-01 2.804802e-01 3.118615e-01 3.602351e-01 4.449254e-01 3.869159e-01 3.406396e-01 3.631703e-01 3.788788e-01 2.939025e-01 2.475259e-01 3.431542e-01
<GCONST> 1.196670e+02
<STATE> 3
<MEAN> 39
 -3.281110e+00 -2.621211e+00 4.646895e+00 -4.537005e+00 2.231001e+00 -8.618052e+00 1.891535e+00 -6.542963e+00 -2.808748e+00 -7.833105e+00 -1.748819e-01 -2.178046e+00 6.773743e+01 1.298681e-02 -2.804568e-03 2.605758e-03 -1.354508e-02 -4.668908e-03 -6.761315e-03 -3.957017e-03 -9.999408e-03 -5.681584e-03 -6.373131e-03 8.065060e-04 1.659686e-03 1.861340e-02 -1.631059e-03 1.739022e-03 -3.616479e-03 1.962824e-03 1.816680e-04 2.780927e-03 1.246361e-03 1.806983e-03 -9.244950e-05 2.160972e-03 -8.498976e-04 6.868977e-04 -5.808076e-03
<VARIANCE> 39
 8.167526e+01 9.697574e+01 7.605195e+01 1.186004e+02 1.230543e+02 1.067034e+02 1.530448e+02 1.245307e+02 9.726274e+01 7.085318e+01 1.238454e+02 5.274636e+01 1.593123e+02 2.530208e+00 3.465949e+00 3.234165e+00 4.554739e+00 4.283073e+00 5.741617e+00 5.443601e+00 5.104206e+00 4.953516e+00 4.083015e+00 3.786315e+00 3.002752e+00 3.276818e+00 3.421194e-01 5.360647e-01 5.004865e-01 7.114857e-01 6.611019e-01 9.940900e-01 9.422581e-01 8.849349e-01 8.683196e-01 7.364030e-01 6.697083e-01 5.124944e-01 4.426400e-01
<GCONST> 1.441441e+02
<STATE> 4
<MEAN> 39
 -8.096825e+00 -5.055269e+00 1.661083e+00 -1.537575e+00 2.022157e+00 -8.346587e-02 2.824716e+00 -1.950040e+00 3.373861e+00 -2.124377e+00 -2.340282e+00 9.346032e-01 6.084668e+01 -4.768457e-02 -2.207305e-03 -1.321587e-02 1.556959e-02 1.611731e-02 1.426841e-02 4.126907e-03 1.784337e-02 1.874228e-02 2.114924e-02 4.290250e-03 1.334651e-03 -5.431158e-02 3.178616e-03 2.238054e-04 2.223608e-03 -1.137597e-04 -1.615267e-03 -4.003638e-03 -6.672995e-04 4.983884e-04 -3.425568e-04 -1.752828e-03 6.229919e-05 -7.019400e-04 3.731108e-03
<VARIANCE> 39
 7.253213e+01 8.346233e+01 7.664436e+01 5.848197e+01 4.319399e+01 3.298040e+01 4.425302e+01 6.585337e+01 4.398727e+01 3.067871e+01 3.043237e+01 2.292216e+01 1.380806e+02 6.464307e-01 6.017782e-01 9.993569e-01 1.116171e+00 1.100068e+00 1.079231e+00 1.377475e+00 1.284510e+00 1.235036e+00 1.114474e+00 1.017598e+00 9.698400e-01 6.431782e-01 7.439683e-02 9.010494e-02 1.381397e-01 1.735990e-01 1.790583e-01 1.889310e-01 2.323567e-01 2.261911e-01 2.275505e-01 2.027036e-01 1.847914e-01 1.741113e-01 6.163649e-02
<GCONST> 9.812036e+01
<STATE> 5
<MEAN> 39
 -1.232167e+01 -2.919065e+00 6.695459e+00 -8.115664e+00 7.175406e+00 -1.315096e+01 1.069328e+01 -1.183416e+01 2.677139e+00 -6.716449e+00 2.696243e+00 -4.713066e+00 5.939366e+01 2.334756e-03 4.963785e-05 -8.909996e-04 4.926893e-03 -2.929782e-03 4.363639e-04 1.171384e-03 1.689500e-03 -2.335182e-03 -3.284774e-03 -5.174598e-03 -3.573383e-05 -3.549656e-03 2.680737e-04 -2.106485e-04 1.308036e-04 8.216390e-04 -3.850554e-04 1.793137e-03 -3.646924e-04 1.002822e-03 -5.643868e-04 4.436130e-04 -8.952405e-04 6.837095e-04 -6.085618e-04
<VARIANCE> 39
 6.680990e+01 2.985707e+01 3.875949e+01 2.972107e+01 3.659155e+01 5.572467e+01 2.742978e+01 4.344990e+01 5.695727e+01 2.732408e+01 3.653397e+01 3.225584e+01 5.742065e+01 1.409823e+00 1.525169e+00 1.552417e+00 1.535974e+00 1.608799e+00 2.288130e+00 1.598233e+00 1.844948e+00 2.649307e+00 1.779930e+00 2.130377e+00 1.734974e+00 1.259657e+00 1.607216e-01 2.520908e-01 2.370192e-01 2.730770e-01 2.736748e-01 3.660701e-01 2.711896e-01 3.162410e-01 4.418629e-01 3.260402e-01 3.756685e-01 2.900378e-01 1.618913e-01
<GCONST> 1.099330e+02
<TRANSP> 6
 0.000000e+00 9.888839e-01 1.111607e-02 0.000000e+00 0.000000e+00 0.000000e+00
 0.000000e+00 9.967692e-01 2.100718e-03 1.130046e-03 0.000000e+00 0.000000e+00
 0.000000e+00 0.000000e+00 9.973050e-01 2.649212e-03 4.582509e-05 0.000000e+00
 0.000000e+00 0.000000e+00 0.000000e+00 9.925041e-01 7.495924e-03 0.000000e+00
 0.000000e+00 0.000000e+00 0.000000e+00 0.000000e+00 9.921160e-01 7.884030e-03
 0.000000e+00 0.000000e+00 0.000000e+00 0.000000e+00 0.000000e+00 0.000000e+00
<ENDHMM>
~h "dua"
<BEGINHMM>
<NUMSTATES> 6
<STATE> 2
<MEAN> 39
 -8.776103e+00 3.095228e+00 -1.263095e+00 1.618035e+00 4.151671e-01 -4.173700e+00 2.017306e+00 -2.204400e-02 -6.848067e-01 -4.384556e+00 2.519018e-01 -3.866034e-01 6.459573e+01 -7.761798e-03 1.209968e-02 7.942939e-03 1.168546e-02 2.952295e-03 1.701145e-03 4.294654e-03 2.988028e-04 -5.139696e-04 -5.047296e-03 -4.159361e-03 -2.317833e-03 7.224581e-02 1.269349e-03 -1.336948e-03 1.735854e-03 -1.545864e-03 5.736249e-05 -6.243204e-04 -7.262666e-04 -1.501489e-03 4.610851e-04 -9.849960e-04 6.374986e-04 -4.433159e-04 1.233850e-03
<VARIANCE> 39
 7.973793e+01 5.095772e+01 5.535636e+01 5.931656e+01 6.344811e+01 6.576635e+01 5.564516e+01 4.533898e+01 4.761836e+01 5.507915e+01 3.131747e+01 3.433294e+01 2.761857e+02 2.105354e+00 1.962194e+00 1.746064e+00 1.979979e+00 2.231631e+00 2.706139e+00 2.165498e+00 1.886374e+00 2.150968e+00 2.152167e+00 1.654944e+00 1.468782e+00 2.848783e+00 2.780423e-01 3.185168e-01 2.804802e-01 3.118615e-01 3.602351e-01 4.449254e-01 3.869159e-01 3.406396e-01 3.631703e-01 3.788788e-01 2.939025e-01 2.475259e-01 3.431542e-01
<GCONST> 1.196670e+02
<STATE> 3
<MEAN> 39
 -3.281110e+00 -2.621211e+00 4.646895e+00 -4.537005e+00 2.231001e+00 -8.618052e+00 1.891535e+00 -6.542963e+00 -2.808748e+00 -7.833105e+00 -1.748819e-01 -2.178046e+00 6.773743e+01 1.298681e-02 -2.804568e-03 2.605758e-03 -1.354508e-02 -4.668908e-03 -6.761315e-03 -3.957017e-03 -9.999408e-03 -5.681584e-03 -6.373131e-03 8.065060e-04 1.659686e-03 1.861340e-02 -1.631059e-03 1.739022e-03 -3.616479e-03 1.962824e-03 1.816680e-04 2.780927e-03 1.246361e-03 1.806983e-03 -9.244950e-05 2.160972e-03 -8.498976e-04 6.868977e-04 -5.808076e-03
<VARIANCE> 39
 8.167526e+01 9.697574e+01 7.605195e+01 1.186004e+02 1.230543e+02 1.067034e+02 1.530448e+02 1.245307e+02 9.726274e+01 7.085318e+01 1.238454e+02 5.274636e+01 1.593123e+02 2.530208e+00 3.465949e+00 3.234165e+00 4.554739e+00 4.283073e+00 5.741617e+00 5.443601e+00 5.104206e+00 4.953516e+00 4.083015e+00 3.786315e+00 3.002752e+00 3.276818e+00 3.421194e-01 5.360647e-01 5.004865e-01 7.114857e-01 6.611019e-01 9.940900e-01 9.422581e-01 8.849349e-01 8.683196e-01 7.364030e-01 6.697083e-01 5.124944e-01 4.426400e-01
<GCONST> 1.441441e+02
<STATE> 4
<MEAN> 39
 -8.096825e+00 -5.055269e+00 1.661083e+00 -1.537575e+00 2.022157e+00 -8.346587e-02 2.824716e+00 -1.950040e+00 3.373861e+00 -2.124377e+00 -2.340282e+00 9.346032e-01 6.084668e+01 -4.768457e-02 -2.207305e-03 -1.321587e-02 1.556959e-02 1.611731e-02 1.426841e-02 4.126907e-03 1.784337e-02 1.874228e-02 2.114924e-02 4.290250e-03 1.334651e-03 -5.431158e-02 3.178616e-03 2.238054e-04 2.223608e-03 -1.137597e-04 -1.615267e-03 -4.003638e-03 -6.672995e-04 4.983884e-04 -3.425568e-04 -1.752828e-03 6.229919e-05 -7.019400e-04 3.731108e-03
<VARIANCE> 39
 7.253213e+01 8.346233e+01 7.664436e+01 5.848197e+01 4.319399e+01 3.298040e+01 4.425302e+01 6.585337e+01 4.398727e+01 3.067871e+01 3.043237e+01 2.292216e+01 1.380806e+02 6.464307e-01 6.017782e-01 9.993569e-01 1.116171e+00 1.100068e+00 1.079231e+00 1.377475e+00 1.284510e+00 1.235036e+00 1.114474e+00 1.017598e+00 9.698400e-01 6.431782e-01 7.439683e-02 9.010494e-02 1.381397e-01 1.735990e-01 1.790583e-01 1.889310e-01 2.323567e-01 2.261911e-01 2.275505e-01 2.027036e-01 1.847914e-01 1.741113e-01 6.163649e-02
<GCONST> 9.812036e+01
<STATE> 5
<MEAN> 39
 -1.232167e+01 -2.919065e+00 6.695459e+00 -8.115664e+00 7.175406e+00 -1.315096e+01 1.069328e+01 -1.183416e+01 2.677139e+00 -6.716449e+00 2.696243e+00 -4.713066e+00 5.939366e+01 2.334756e-03 4.963785e-05 -8.909996e-04 4.926893e-03 -2.929782e-03 4.363639e-04 1.171384e-03 1.689500e-03 -2.335182e-03 -3.284774e-03 -5.174598e-03 -3.573383e-05 -3.549656e-03 2.680737e-04 -2.106485e-04 1.308036e-04 8.216390e-04 -3.850554e-04 1.793137e-03 -3.646924e-04 1.002822e-03 -5.643868e-04 4.436130e-04 -8.952405e-04 6.837095e-04 -6.085618e-04
<VARIANCE> 39
 6.680990e+01 2.985707e+01 3.875949e+01 2.972107e+01 3.659155e+01 5.572467e+01 2.742978e+01 4.344990e+01 5.695727e+01 2.732408e+01 3.653397e+01 3.225584e+01 5.742065e+01 1.409823e+00 1.525169e+00 1.552417e+00 1.535974e+00 1.608799e+00 2.288130e+00 1.598233e+00 1.844948e+00 2.649307e+00 1.779930e+00 2.130377e+00 1.734974e+00 1.259657e+00 1.607216e-01 2.520908e-01 2.370192e-01 2.730770e-01 2.736748e-01 3.660701e-01 2.711896e-01 3.162410e-01 4.418629e-01 3.260402e-01 3.756685e-01 2.900378e-01 1.618913e-01
<GCONST> 1.099330e+02
<TRANSP> 6
 0.000000e+00 9.888839e-01 1.111607e-02 0.000000e+00 0.000000e+00 0.000000e+00
 0.000000e+00 9.967692e-01 2.100718e-03 1.130046e-03 0.000000e+00 0.000000e+00
 0.000000e+00 0.000000e+00 9.973050e-01 2.649212e-03 4.582509e-05 0.000000e+00
 0.000000e+00 0.000000e+00 0.000000e+00 9.925041e-01 7.495924e-03 0.000000e+00
 0.000000e+00 0.000000e+00 0.000000e+00 0.000000e+00 9.921160e-01 7.884030e-03
 0.000000e+00 0.000000e+00 0.000000e+00 0.000000e+00 0.000000e+00 0.000000e+00
<ENDHMM>
~h "empat"
<BEGINHMM>
<NUMSTATES> 6
<STATE> 2
<MEAN> 39
 -8.776103e+00 3.095228e+00 -1.263095e+00 1.618035e+00 4.151671e-01 -4.173700e+00 2.017306e+00 -2.204400e-02 -6.848067e-01 -4.384556e+00 2.519018e-01 -3.866034e-01 6.459573e+01 -7.761798e-03 1.209968e-02 7.942939e-03 1.168546e-02 2.952295e-03 1.701145e-03 4.294654e-03 2.988028e-04 -5.139696e-04 -5.047296e-03 -4.159361e-03 -2.317833e-03 7.224581e-02 1.269349e-03 -1.336948e-03 1.735854e-03 -1.545864e-03 5.736249e-05 -6.243204e-04 -7.262666e-04 -1.501489e-03 4.610851e-04 -9.849960e-04 6.374986e-04 -4.433159e-04 1.233850e-03
<VARIANCE> 39
 7.973793e+01 5.095772e+01 5.535636e+01 5.931656e+01 6.344811e+01 6.576635e+01 5.564516e+01 4.533898e+01 4.761836e+01 5.507915e+01 3.131747e+01 3.433294e+01 2.761857e+02 2.105354e+00 1.962194e+00 1.746064e+00 1.979979e+00 2.231631e+00 2.706139e+00 2.165498e+00 1.886374e+00 2.150968e+00 2.152167e+00 1.654944e+00 1.468782e+00 2.848783e+00 2.780423e-01 3.185168e-01 2.804802e-01 3.118615e-01 3.602351e-01 4.449254e-01 3.869159e-01 3.406396e-01 3.631703e-01 3.788788e-01 2.939025e-01 2.475259e-01 3.431542e-01
<GCONST> 1.196670e+02
<STATE> 3
<MEAN> 39
 -3.281110e+00 -2.621211e+00 4.646895e+00 -4.537005e+00 2.231001e+00 -8.618052e+00 1.891535e+00 -6.542963e+00 -2.808748e+00 -7.833105e+00 -1.748819e-01 -2.178046e+00 6.773743e+01 1.298681e-02 -2.804568e-03 2.605758e-03 -1.354508e-02 -4.668908e-03 -6.761315e-03 -3.957017e-03 -9.999408e-03 -5.681584e-03 -6.373131e-03 8.065060e-04 1.659686e-03 1.861340e-02 -1.631059e-03 1.739022e-03 -3.616479e-03 1.962824e-03 1.816680e-04 2.780927e-03 1.246361e-03 1.806983e-03 -9.244950e-05 2.160972e-03 -8.498976e-04 6.868977e-04 -5.808076e-03
<VARIANCE> 39
 8.167526e+01 9.697574e+01 7.605195e+01 1.186004e+02 1.230543e+02 1.067034e+02 1.530448e+02 1.245307e+02 9.726274e+01 7.085318e+01 1.238454e+02 5.274636e+01 1.593123e+02 2.530208e+00 3.465949e+00 3.234165e+00 4.554739e+00 4.283073e+00 5.741617e+00 5.443601e+00 5.104206e+00 4.953516e+00 4.083015e+00 3.786315e+00 3.002752e+00 3.276818e+00 3.421194e-01 5.360647e-01 5.004865e-01 7.114857e-01 6.611019e-01 9.940900e-01 9.422581e-01 8.849349e-01 8.683196e-01 7.364030e-01 6.697083e-01 5.124944e-01 4.426400e-01
<GCONST> 1.441441e+02
<STATE> 4
<MEAN> 39
 -8.096825e+00 -5.055269e+00 1.661083e+00 -1.537575e+00 2.022157e+00 -8.346587e-02 2.824716e+00 -1.950040e+00 3.373861e+00 -2.124377e+00 -2.340282e+00 9.346032e-01 6.084668e+01 -4.768457e-02 -2.207305e-03 -1.321587e-02 1.556959e-02 1.611731e-02 1.426841e-02 4.126907e-03 1.784337e-02 1.874228e-02 2.114924e-02 4.290250e-03 1.334651e-03 -5.431158e-02 3.178616e-03 2.238054e-04 2.223608e-03 -1.137597e-04 -1.615267e-03 -4.003638e-03 -6.672995e-04 4.983884e-04 -3.425568e-04 -1.752828e-03 6.229919e-05 -7.019400e-04 3.731108e-03
<VARIANCE> 39
 7.253213e+01 8.346233e+01 7.664436e+01 5.848197e+01 4.319399e+01 3.298040e+01 4.425302e+01 6.585337e+01 4.398727e+01 3.067871e+01 3.043237e+01 2.292216e+01 1.380806e+02 6.464307e-01 6.017782e-01 9.993569e-01 1.116171e+00 1.100068e+00 1.079231e+00 1.377475e+00 1.284510e+00 1.235036e+00 1.114474e+00 1.017598e+00 9.698400e-01 6.431782e-01 7.439683e-02 9.010494e-02 1.381397e-01 1.735990e-01 1.790583e-01 1.889310e-01 2.323567e-01 2.261911e-01 2.275505e-01 2.027036e-01 1.847914e-01 1.741113e-01 6.163649e-02
<GCONST> 9.812036e+01
<STATE> 5
<MEAN> 39
 -1.232167e+01 -2.919065e+00 6.695459e+00 -8.115664e+00 7.175406e+00 -1.315096e+01 1.069328e+01 -1.183416e+01 2.677139e+00 -6.716449e+00 2.696243e+00 -4.713066e+00 5.939366e+01 2.334756e-03 4.963785e-05 -8.909996e-04 4.926893e-03 -2.929782e-03 4.363639e-04 1.171384e-03 1.689500e-03 -2.335182e-03 -3.284774e-03 -5.174598e-03 -3.573383e-05 -3.549656e-03 2.680737e-04 -2.106485e-04 1.308036e-04 8.216390e-04 -3.850554e-04 1.793137e-03 -3.646924e-04 1.002822e-03 -5.643868e-04 4.436130e-04 -8.952405e-04 6.837095e-04 -6.085618e-04
<VARIANCE> 39
 6.680990e+01 2.985707e+01 3.875949e+01 2.972107e+01 3.659155e+01 5.572467e+01 2.742978e+01 4.344990e+01 5.695727e+01 2.732408e+01 3.653397e+01 3.225584e+01 5.742065e+01 1.409823e+00 1.525169e+00 1.552417e+00 1.535974e+00 1.608799e+00 2.288130e+00 1.598233e+00 1.844948e+00 2.649307e+00 1.779930e+00 2.130377e+00 1.734974e+00 1.259657e+00 1.607216e-01 2.520908e-01 2.370192e-01 2.730770e-01 2.736748e-01 3.660701e-01 2.711896e-01 3.162410e-01 4.418629e-01 3.260402e-01 3.756685e-01 2.900378e-01 1.618913e-01
<GCONST> 1.099330e+02
<TRANSP> 6
 0.000000e+00 9.888839e-01 1.111607e-02 0.000000e+00 0.000000e+00 0.000000e+00
 0.000000e+00 9.967692e-01 2.100718e-03 1.130046e-03 0.000000e+00 0.000000e+00
 0.000000e+00 0.000000e+00 9.973050e-01 2.649212e-03 4.582509e-05 0.000000e+00
 0.000000e+00 0.000000e+00 0.000000e+00 9.925041e-01 7.495924e-03 0.000000e+00
 0.000000e+00 0.000000e+00 0.000000e+00 0.000000e+00 9.921160e-01 7.884030e-03
 0.000000e+00 0.000000e+00 0.000000e+00 0.000000e+00 0.000000e+00 0.000000e+00
<ENDHMM>
~h "enam"
<BEGINHMM>
<NUMSTATES> 6
<STATE> 2
<MEAN> 39
 -8.776103e+00 3.095228e+00 -1.263095e+00 1.618035e+00 4.151671e-01 -4.173700e+00 2.017306e+00 -2.204400e-02 -6.848067e-01 -4.384556e+00 2.519018e-01 -3.866034e-01 6.459573e+01 -7.761798e-03 1.209968e-02 7.942939e-03 1.168546e-02 2.952295e-03 1.701145e-03 4.294654e-03 2.988028e-04 -5.139696e-04 -5.047296e-03 -4.159361e-03 -2.317833e-03 7.224581e-02 1.269349e-03 -1.336948e-03 1.735854e-03 -1.545864e-03 5.736249e-05 -6.243204e-04 -7.262666e-04 -1.501489e-03 4.610851e-04 -9.849960e-04 6.374986e-04 -4.433159e-04 1.233850e-03
<VARIANCE> 39
 7.973793e+01 5.095772e+01 5.535636e+01 5.931656e+01 6.344811e+01 6.576635e+01 5.564516e+01 4.533898e+01 4.761836e+01 5.507915e+01 3.131747e+01 3.433294e+01 2.761857e+02 2.105354e+00 1.962194e+00 1.746064e+00 1.979979e+00 2.231631e+00 2.706139e+00 2.165498e+00 1.886374e+00 2.150968e+00 2.152167e+00 1.654944e+00 1.468782e+00 2.848783e+00 2.780423e-01 3.185168e-01 2.804802e-01 3.118615e-01 3.602351e-01 4.449254e-01 3.869159e-01 3.406396e-01 3.631703e-01 3.788788e-01 2.939025e-01 2.475259e-01 3.431542e-01
<GCONST> 1.196670e+02
<STATE> 3
<MEAN> 39
 -3.281110e+00 -2.621211e+00 4.646895e+00 -4.537005e+00 2.231001e+00 -8.618052e+00 1.891535e+00 -6.542963e+00 -2.808748e+00 -7.833105e+00 -1.748819e-01 -2.178046e+00 6.773743e+01 1.298681e-02 -2.804568e-03 2.605758e-03 -1.354508e-02 -4.668908e-03 -6.761315e-03 -3.957017e-03 -9.999408e-03 -5.681584e-03 -6.373131e-03 8.065060e-04 1.659686e-03 1.861340e-02 -1.631059e-03 1.739022e-03 -3.616479e-03 1.962824e-03 1.816680e-04 2.780927e-03 1.246361e-03 1.806983e-03 -9.244950e-05 2.160972e-03 -8.498976e-04 6.868977e-04 -5.808076e-03
<VARIANCE> 39
 8.167526e+01 9.697574e+01 7.605195e+01 1.186004e+02 1.230543e+02 1.067034e+02 1.530448e+02 1.245307e+02 9.726274e+01 7.085318e+01 1.238454e+02 5.274636e+01 1.593123e+02 2.530208e+00 3.465949e+00 3.234165e+00 4.554739e+00 4.283073e+00 5.741617e+00 5.443601e+00 5.104206e+00 4.953516e+00 4.083015e+00 3.786315e+00 3.002752e+00 3.276818e+00 3.421194e-01 5.360647e-01 5.004865e-01 7.114857e-01 6.611019e-01 9.940900e-01 9.422581e-01 8.849349e-01 8.683196e-01 7.364030e-01 6.697083e-01 5.124944e-01 4.426400e-01
<GCONST> 1.441441e+02
<STATE> 4
<MEAN> 39
 -8.096825e+00 -5.055269e+00 1.661083e+00 -1.537575e+00 2.022157e+00 -8.346587e-02 2.824716e+00 -1.950040e+00 3.373861e+00 -2.124377e+00 -2.340282e+00 9.346032e-01 6.084668e+01 -4.768457e-02 -2.207305e-03 -1.321587e-02 1.556959e-02 1.611731e-02 1.426841e-02 4.126907e-03 1.784337e-02 1.874228e-02 2.114924e-02 4.290250e-03 1.334651e-03 -5.431158e-02 3.178616e-03 2.238054e-04 2.223608e-03 -1.137597e-04 -1.615267e-03 -4.003638e-03 -6.672995e-04 4.983884e-04 -3.425568e-04 -1.752828e-03 6.229919e-05 -7.019400e-04 3.731108e-03
<VARIANCE> 39
 7.253213e+01 8.346233e+01 7.664436e+01 5.848197e+01 4.319399e+01 3.298040e+01 4.425302e+01 6.585337e+01 4.398727e+01 3.067871e+01 3.043237e+01 2.292216e+01 1.380806e+02 6.464307e-01 6.017782e-01 9.993569e-01 1.116171e+00 1.100068e+00 1.079231e+00 1.377475e+00 1.284510e+00 1.235036e+00 1.114474e+00 1.017598e+00 9.698400e-01 6.431782e-01 7.439683e-02 9.010494e-02 1.381397e-01 1.735990e-01 1.790583e-01 1.889310e-01 2.323567e-01 2.261911e-01 2.275505e-01 2.027036e-01 1.847914e-01 1.741113e-01 6.163649e-02
<GCONST> 9.812036e+01
<STATE> 5
<MEAN> 39
 -1.232167e+01 -2.919065e+00 6.695459e+00 -8.115664e+00 7.175406e+00 -1.315096e+01 1.069328e+01 -1.183416e+01 2.677139e+00 -6.716449e+00 2.696243e+00 -4.713066e+00 5.939366e+01 2.334756e-03 4.963785e-05 -8.909996e-04 4.926893e-03 -2.929782e-03 4.363639e-04 1.171384e-03 1.689500e-03 -2.335182e-03 -3.284774e-03 -5.174598e-03 -3.573383e-05 -3.549656e-03 2.680737e-04 -2.106485e-04 1.308036e-04 8.216390e-04 -3.850554e-04 1.793137e-03 -3.646924e-04 1.002822e-03 -5.643868e-04 4.436130e-04 -8.952405e-04 6.837095e-04 -6.085618e-04
<VARIANCE> 39
 6.680990e+01 2.985707e+01 3.875949e+01 2.972107e+01 3.659155e+01 5.572467e+01 2.742978e+01 4.344990e+01 5.695727e+01 2.732408e+01 3.653397e+01 3.225584e+01 5.742065e+01 1.409823e+00 1.525169e+00 1.552417e+00 1.535974e+00 1.608799e+00 2.288130e+00 1.598233e+00 1.844948e+00 2.649307e+00 1.779930e+00 2.130377e+00 1.734974e+00 1.259657e+00 1.607216e-01 2.520908e-01 2.370192e-01 2.730770e-01 2.736748e-01 3.660701e-01 2.711896e-01 3.162410e-01 4.418629e-01 3.260402e-01 3.756685e-01 2.900378e-01 1.618913e-01
<GCONST> 1.099330e+02
<TRANSP> 6
 0.000000e+00 9.888839e-01 1.111607e-02 0.000000e+00 0.000000e+00 0.000000e+00
 0.000000e+00 9.967692e-01 2.100718e-03 1.130046e-03 0.000000e+00 0.000000e+00
 0.000000e+00 0.000000e+00 9.973050e-01 2.649212e-03 4.582509e-05 0.000000e+00
 0.000000e+00 0.000000e+00 0.000000e+00 9.925041e-01 7.495924e-03 0.000000e+00
 0.000000e+00 0.000000e+00 0.000000e+00 0.000000e+00 9.921160e-01 7.884030e-03
 0.000000e+00 0.000000e+00 0.000000e+00 0.000000e+00 0.000000e+00 0.000000e+00
<ENDHMM>
~h "kosong"
<BEGINHMM>
<NUMSTATES> 6
<STATE> 2
<MEAN> 39
 -8.776103e+00 3.095228e+00 -1.263095e+00 1.618035e+00 4.151671e-01 -4.173700e+00 2.017306e+00 -2.204400e-02 -6.848067e-01 -4.384556e+00 2.519018e-01 -3.866034e-01 6.459573e+01 -7.761798e-03 1.209968e-02 7.942939e-03 1.168546e-02 2.952295e-03 1.701145e-03 4.294654e-03 2.988028e-04 -5.139696e-04 -5.047296e-03 -4.159361e-03 -2.317833e-03 7.224581e-02 1.269349e-03 -1.336948e-03 1.735854e-03 -1.545864e-03 5.736249e-05 -6.243204e-04 -7.262666e-04 -1.501489e-03 4.610851e-04 -9.849960e-04 6.374986e-04 -4.433159e-04 1.233850e-03
<VARIANCE> 39
 7.973793e+01 5.095772e+01 5.535636e+01 5.931656e+01 6.344811e+01 6.576635e+01 5.564516e+01 4.533898e+01 4.761836e+01 5.507915e+01 3.131747e+01 3.433294e+01 2.761857e+02 2.105354e+00 1.962194e+00 1.746064e+00 1.979979e+00 2.231631e+00 2.706139e+00 2.165498e+00 1.886374e+00 2.150968e+00 2.152167e+00 1.654944e+00 1.468782e+00 2.848783e+00 2.780423e-01 3.185168e-01 2.804802e-01 3.118615e-01 3.602351e-01 4.449254e-01 3.869159e-01 3.406396e-01 3.631703e-01 3.788788e-01 2.939025e-01 2.475259e-01 3.431542e-01
<GCONST> 1.196670e+02
<STATE> 3
<MEAN> 39
 -3.281110e+00 -2.621211e+00 4.646895e+00 -4.537005e+00 2.231001e+00 -8.618052e+00 1.891535e+00 -6.542963e+00 -2.808748e+00 -7.833105e+00 -1.748819e-01 -2.178046e+00 6.773743e+01 1.298681e-02 -2.804568e-03 2.605758e-03 -1.354508e-02 -4.668908e-03 -6.761315e-03 -3.957017e-03 -9.999408e-03 -5.681584e-03 -6.373131e-03 8.065060e-04 1.659686e-03 1.861340e-02 -1.631059e-03 1.739022e-03 -3.616479e-03 1.962824e-03 1.816680e-04 2.780927e-03 1.246361e-03 1.806983e-03 -9.244950e-05 2.160972e-03 -8.498976e-04 6.868977e-04 -5.808076e-03
<VARIANCE> 39
 8.167526e+01 9.697574e+01 7.605195e+01 1.186004e+02 1.230543e+02 1.067034e+02 1.530448e+02 1.245307e+02 9.726274e+01 7.085318e+01 1.238454e+02 5.274636e+01 1.593123e+02 2.530208e+00 3.465949e+00 3.234165e+00 4.554739e+00 4.283073e+00 5.741617e+00 5.443601e+00 5.104206e+00 4.953516e+00 4.083015e+00 3.786315e+00 3.002752e+00 3.276818e+00 3.421194e-01 5.360647e-01 5.004865e-01 7.114857e-01 6.611019e-01 9.940900e-01 9.422581e-01 8.849349e-01 8.683196e-01 7.364030e-01 6.697083e-01 5.124944e-01 4.426400e-01
<GCONST> 1.441441e+02
<STATE> 4
<MEAN> 39
 -8.096825e+00 -5.055269e+00 1.661083e+00 -1.537575e+00 2.022157e+00 -8.346587e-02 2.824716e+00 -1.950040e+00 3.373861e+00 -2.124377e+00 -2.340282e+00 9.346032e-01 6.084668e+01 -4.768457e-02 -2.207305e-03 -1.321587e-02 1.556959e-02 1.611731e-02 1.426841e-02 4.126907e-03 1.784337e-02 1.874228e-02 2.114924e-02 4.290250e-03 1.334651e-03 -5.431158e-02 3.178616e-03 2.238054e-04 2.223608e-03 -1.137597e-04 -1.615267e-03 -4.003638e-03 -6.672995e-04 4.983884e-04 -3.425568e-04 -1.752828e-03 6.229919e-05 -7.019400e-04 3.731108e-03
<VARIANCE> 39
 7.253213e+01 8.346233e+01 7.664436e+01 5.848197e+01 4.319399e+01 3.298040e+01 4.425302e+01 6.585337e+01 4.398727e+01 3.067871e+01 3.043237e+01 2.292216e+01 1.380806e+02 6.464307e-01 6.017782e-01 9.993569e-01 1.116171e+00 1.100068e+00 1.079231e+00 1.377475e+00 1.284510e+00 1.235036e+00 1.114474e+00 1.017598e+00 9.698400e-01 6.431782e-01 7.439683e-02 9.010494e-02 1.381397e-01 1.735990e-01 1.790583e-01 1.889310e-01 2.323567e-01 2.261911e-01 2.275505e-01 2.027036e-01 1.847914e-01 1.741113e-01 6.163649e-02
<GCONST> 9.812036e+01
<STATE> 5
<MEAN> 39
 -1.232167e+01 -2.919065e+00 6.695459e+00 -8.115664e+00 7.175406e+00 -1.315096e+01 1.069328e+01 -1.183416e+01 2.677139e+00 -6.716449e+00 2.696243e+00 -4.713066e+00 5.939366e+01 2.334756e-03 4.963785e-05 -8.909996e-04 4.926893e-03 -2.929782e-03 4.363639e-04 1.171384e-03 1.689500e-03 -2.335182e-03 -3.284774e-03 -5.174598e-03 -3.573383e-05 -3.549656e-03 2.680737e-04 -2.106485e-04 1.308036e-04 8.216390e-04 -3.850554e-04 1.793137e-03 -3.646924e-04 1.002822e-03 -5.643868e-04 4.436130e-04 -8.952405e-04 6.837095e-04 -6.085618e-04
<VARIANCE> 39
 6.680990e+01 2.985707e+01 3.875949e+01 2.972107e+01 3.659155e+01 5.572467e+01 2.742978e+01 4.344990e+01 5.695727e+01 2.732408e+01 3.653397e+01 3.225584e+01 5.742065e+01 1.409823e+00 1.525169e+00 1.552417e+00 1.535974e+00 1.608799e+00 2.288130e+00 1.598233e+00 1.844948e+00 2.649307e+00 1.779930e+00 2.130377e+00 1.734974e+00 1.259657e+00 1.607216e-01 2.520908e-01 2.370192e-01 2.730770e-01 2.736748e-01 3.660701e-01 2.711896e-01 3.162410e-01 4.418629e-01 3.260402e-01 3.756685e-01 2.900378e-01 1.618913e-01
<GCONST> 1.099330e+02
<TRANSP> 6
 0.000000e+00 9.888839e-01 1.111607e-02 0.000000e+00 0.000000e+00 0.000000e+00
 0.000000e+00 9.967692e-01 2.100718e-03 1.130046e-03 0.000000e+00 0.000000e+00
 0.000000e+00 0.000000e+00 9.973050e-01 2.649212e-03 4.582509e-05 0.000000e+00
 0.000000e+00 0.000000e+00 0.000000e+00 9.925041e-01 7.495924e-03 0.000000e+00
 0.000000e+00 0.000000e+00 0.000000e+00 0.000000e+00 9.921160e-01 7.884030e-03
 0.000000e+00 0.000000e+00 0.000000e+00 0.000000e+00 0.000000e+00 0.000000e+00
<ENDHMM>
~h "lima"
<BEGINHMM>
<NUMSTATES> 6
<STATE> 2
<MEAN> 39
 -8.776103e+00 3.095228e+00 -1.263095e+00 1.618035e+00 4.151671e-01 -4.173700e+00 2.017306e+00 -2.204400e-02 -6.848067e-01 -4.384556e+00 2.519018e-01 -3.866034e-01 6.459573e+01 -7.761798e-03 1.209968e-02 7.942939e-03 1.168546e-02 2.952295e-03 1.701145e-03 4.294654e-03 2.988028e-04 -5.139696e-04 -5.047296e-03 -4.159361e-03 -2.317833e-03 7.224581e-02 1.269349e-03 -1.336948e-03 1.735854e-03 -1.545864e-03 5.736249e-05 -6.243204e-04 -7.262666e-04 -1.501489e-03 4.610851e-04 -9.849960e-04 6.374986e-04 -4.433159e-04 1.233850e-03
<VARIANCE> 39
 7.973793e+01 5.095772e+01 5.535636e+01 5.931656e+01 6.344811e+01 6.576635e+01 5.564516e+01 4.533898e+01 4.761836e+01 5.507915e+01 3.131747e+01 3.433294e+01 2.761857e+02 2.105354e+00 1.962194e+00 1.746064e+00 1.979979e+00 2.231631e+00 2.706139e+00 2.165498e+00 1.886374e+00 2.150968e+00 2.152167e+00 1.654944e+00 1.468782e+00 2.848783e+00 2.780423e-01 3.185168e-01 2.804802e-01 3.118615e-01 3.602351e-01 4.449254e-01 3.869159e-01 3.406396e-01 3.631703e-01 3.788788e-01 2.939025e-01 2.475259e-01 3.431542e-01
<GCONST> 1.196670e+02
<STATE> 3
<MEAN> 39
 -3.281110e+00 -2.621211e+00 4.646895e+00 -4.537005e+00 2.231001e+00 -8.618052e+00 1.891535e+00 -6.542963e+00 -2.808748e+00 -7.833105e+00 -1.748819e-01 -2.178046e+00 6.773743e+01 1.298681e-02 -2.804568e-03 2.605758e-03 -1.354508e-02 -4.668908e-03 -6.761315e-03 -3.957017e-03 -9.999408e-03 -5.681584e-03 -6.373131e-03 8.065060e-04 1.659686e-03 1.861340e-02 -1.631059e-03 1.739022e-03 -3.616479e-03 1.962824e-03 1.816680e-04 2.780927e-03 1.246361e-03 1.806983e-03 -9.244950e-05 2.160972e-03 -8.498976e-04 6.868977e-04 -5.808076e-03
<VARIANCE> 39
 8.167526e+01 9.697574e+01 7.605195e+01 1.186004e+02 1.230543e+02 1.067034e+02 1.530448e+02 1.245307e+02 9.726274e+01 7.085318e+01 1.238454e+02 5.274636e+01 1.593123e+02 2.530208e+00 3.465949e+00 3.234165e+00 4.554739e+00 4.283073e+00 5.741617e+00 5.443601e+00 5.104206e+00 4.953516e+00 4.083015e+00 3.786315e+00 3.002752e+00 3.276818e+00 3.421194e-01 5.360647e-01 5.004865e-01 7.114857e-01 6.611019e-01 9.940900e-01 9.422581e-01 8.849349e-01 8.683196e-01 7.364030e-01 6.697083e-01 5.124944e-01 4.426400e-01
<GCONST> 1.441441e+02
<STATE> 4
<MEAN> 39
 -8.096825e+00 -5.055269e+00 1.661083e+00 -1.537575e+00 2.022157e+00 -8.346587e-02 2.824716e+00 -1.950040e+00 3.373861e+00 -2.124377e+00 -2.340282e+00 9.346032e-01 6.084668e+01 -4.768457e-02 -2.207305e-03 -1.321587e-02 1.556959e-02 1.611731e-02 1.426841e-02 4.126907e-03 1.784337e-02 1.874228e-02 2.114924e-02 4.290250e-03 1.334651e-03 -5.431158e-02 3.178616e-03 2.238054e-04 2.223608e-03 -1.137597e-04 -1.615267e-03 -4.003638e-03 -6.672995e-04 4.983884e-04 -3.425568e-04 -1.752828e-03 6.229919e-05 -7.019400e-04 3.731108e-03
<VARIANCE> 39
 7.253213e+01 8.346233e+01 7.664436e+01 5.848197e+01 4.319399e+01 3.298040e+01 4.425302e+01 6.585337e+01 4.398727e+01 3.067871e+01 3.043237e+01 2.292216e+01 1.380806e+02 6.464307e-01 6.017782e-01 9.993569e-01 1.116171e+00 1.100068e+00 1.079231e+00 1.377475e+00 1.284510e+00 1.235036e+00 1.114474e+00 1.017598e+00 9.698400e-01 6.431782e-01 7.439683e-02 9.010494e-02 1.381397e-01 1.735990e-01 1.790583e-01 1.889310e-01 2.323567e-01 2.261911e-01 2.275505e-01 2.027036e-01 1.847914e-01 1.741113e-01 6.163649e-02
<GCONST> 9.812036e+01
<STATE> 5
<MEAN> 39
 -1.232167e+01 -2.919065e+00 6.695459e+00 -8.115664e+00 7.175406e+00 -1.315096e+01 1.069328e+01 -1.183416e+01 2.677139e+00 -6.716449e+00 2.696243e+00 -4.713066e+00 5.939366e+01 2.334756e-03 4.963785e-05 -8.909996e-04 4.926893e-03 -2.929782e-03 4.363639e-04 1.171384e-03 1.689500e-03 -2.335182e-03 -3.284774e-03 -5.174598e-03 -3.573383e-05 -3.549656e-03 2.680737e-04 -2.106485e-04 1.308036e-04 8.216390e-04 -3.850554e-04 1.793137e-03 -3.646924e-04 1.002822e-03 -5.643868e-04 4.436130e-04 -8.952405e-04 6.837095e-04 -6.085618e-04
<VARIANCE> 39
 6.680990e+01 2.985707e+01 3.875949e+01 2.972107e+01 3.659155e+01 5.572467e+01 2.742978e+01 4.344990e+01 5.695727e+01 2.732408e+01 3.653397e+01 3.225584e+01 5.742065e+01 1.409823e+00 1.525169e+00 1.552417e+00 1.535974e+00 1.608799e+00 2.288130e+00 1.598233e+00 1.844948e+00 2.649307e+00 1.779930e+00 2.130377e+00 1.734974e+00 1.259657e+00 1.607216e-01 2.520908e-01 2.370192e-01 2.730770e-01 2.736748e-01 3.660701e-01 2.711896e-01 3.162410e-01 4.418629e-01 3.260402e-01 3.756685e-01 2.900378e-01 1.618913e-01
<GCONST> 1.099330e+02
<TRANSP> 6
 0.000000e+00 9.888839e-01 1.111607e-02 0.000000e+00 0.000000e+00 0.000000e+00
 0.000000e+00 9.967692e-01 2.100718e-03 1.130046e-03 0.000000e+00 0.000000e+00
 0.000000e+00 0.000000e+00 9.973050e-01 2.649212e-03 4.582509e-05 0.000000e+00
 0.000000e+00 0.000000e+00 0.000000e+00 9.925041e-01 7.495924e-03 0.000000e+00
 0.000000e+00 0.000000e+00 0.000000e+00 0.000000e+00 9.921160e-01 7.884030e-03
 0.000000e+00 0.000000e+00 0.000000e+00 0.000000e+00 0.000000e+00 0.000000e+00
<ENDHMM>
~h "nol"
<BEGINHMM>
<NUMSTATES> 6
<STATE> 2
<MEAN> 39
 -8.776103e+00 3.095228e+00 -1.263095e+00 1.618035e+00 4.151671e-01 -4.173700e+00 2.017306e+00 -2.204400e-02 -6.848067e-01 -4.384556e+00 2.519018e-01 -3.866034e-01 6.459573e+01 -7.761798e-03 1.209968e-02 7.942939e-03 1.168546e-02 2.952295e-03 1.701145e-03 4.294654e-03 2.988028e-04 -5.139696e-04 -5.047296e-03 -4.159361e-03 -2.317833e-03 7.224581e-02 1.269349e-03 -1.336948e-03 1.735854e-03 -1.545864e-03 5.736249e-05 -6.243204e-04 -7.262666e-04 -1.501489e-03 4.610851e-04 -9.849960e-04 6.374986e-04 -4.433159e-04 1.233850e-03
<VARIANCE> 39
 7.973793e+01 5.095772e+01 5.535636e+01 5.931656e+01 6.344811e+01 6.576635e+01 5.564516e+01 4.533898e+01 4.761836e+01 5.507915e+01 3.131747e+01 3.433294e+01 2.761857e+02 2.105354e+00 1.962194e+00 1.746064e+00 1.979979e+00 2.231631e+00 2.706139e+00 2.165498e+00 1.886374e+00 2.150968e+00 2.152167e+00 1.654944e+00 1.468782e+00 2.848783e+00 2.780423e-01 3.185168e-01 2.804802e-01 3.118615e-01 3.602351e-01 4.449254e-01 3.869159e-01 3.406396e-01 3.631703e-01 3.788788e-01 2.939025e-01 2.475259e-01 3.431542e-01
<GCONST> 1.196670e+02
<STATE> 3
<MEAN> 39
 -3.281110e+00 -2.621211e+00 4.646895e+00 -4.537005e+00 2.231001e+00 -8.618052e+00 1.891535e+00 -6.542963e+00 -2.808748e+00 -7.833105e+00 -1.748819e-01 -2.178046e+00 6.773743e+01 1.298681e-02 -2.804568e-03 2.605758e-03 -1.354508e-02 -4.668908e-03 -6.761315e-03 -3.957017e-03 -9.999408e-03 -5.681584e-03 -6.373131e-03 8.065060e-04 1.659686e-03 1.861340e-02 -1.631059e-03 1.739022e-03 -3.616479e-03 1.962824e-03 1.816680e-04 2.780927e-03 1.246361e-03 1.806983e-03 -9.244950e-05 2.160972e-03 -8.498976e-04 6.868977e-04 -5.808076e-03
<VARIANCE> 39
 8.167526e+01 9.697574e+01 7.605195e+01 1.186004e+02 1.230543e+02 1.067034e+02 1.530448e+02 1.245307e+02 9.726274e+01 7.085318e+01 1.238454e+02 5.274636e+01 1.593123e+02 2.530208e+00 3.465949e+00 3.234165e+00 4.554739e+00 4.283073e+00 5.741617e+00 5.443601e+00 5.104206e+00 4.953516e+00 4.083015e+00 3.786315e+00 3.002752e+00 3.276818e+00 3.421194e-01 5.360647e-01 5.004865e-01 7.114857e-01 6.611019e-01 9.940900e-01 9.422581e-01 8.849349e-01 8.683196e-01 7.364030e-01 6.697083e-01 5.124944e-01 4.426400e-01
<GCONST> 1.441441e+02
<STATE> 4
<MEAN> 39
 -8.096825e+00 -5.055269e+00 1.661083e+00 -1.537575e+00 2.022157e+00 -8.346587e-02 2.824716e+00 -1.950040e+00 3.373861e+00 -2.124377e+00 -2.340282e+00 9.346032e-01 6.084668e+01 -4.768457e-02 -2.207305e-03 -1.321587e-02 1.556959e-02 1.611731e-02 1.426841e-02 4.126907e-03 1.784337e-02 1.874228e-02 2.114924e-02 4.290250e-03 1.334651e-03 -5.431158e-02 3.178616e-03 2.238054e-04 2.223608e-03 -1.137597e-04 -1.615267e-03 -4.003638e-03 -6.672995e-04 4.983884e-04 -3.425568e-04 -1.752828e-03 6.229919e-05 -7.019400e-04 3.731108e-03
<VARIANCE> 39
 7.253213e+01 8.346233e+01 7.664436e+01 5.848197e+01 4.319399e+01 3.298040e+01 4.425302e+01 6.585337e+01 4.398727e+01 3.067871e+01 3.043237e+01 2.292216e+01 1.380806e+02 6.464307e-01 6.017782e-01 9.993569e-01 1.116171e+00 1.100068e+00 1.079231e+00 1.377475e+00 1.284510e+00 1.235036e+00 1.114474e+00 1.017598e+00 9.698400e-01 6.431782e-01 7.439683e-02 9.010494e-02 1.381397e-01 1.735990e-01 1.790583e-01 1.889310e-01 2.323567e-01 2.261911e-01 2.275505e-01 2.027036e-01 1.847914e-01 1.741113e-01 6.163649e-02
<GCONST> 9.812036e+01
<STATE> 5
<MEAN> 39
 -1.232167e+01 -2.919065e+00 6.695459e+00 -8.115664e+00 7.175406e+00 -1.315096e+01 1.069328e+01 -1.183416e+01 2.677139e+00 -6.716449e+00 2.696243e+00 -4.713066e+00 5.939366e+01 2.334756e-03 4.963785e-05 -8.909996e-04 4.926893e-03 -2.929782e-03 4.363639e-04 1.171384e-03 1.689500e-03 -2.335182e-03 -3.284774e-03 -5.174598e-03 -3.573383e-05 -3.549656e-03 2.680737e-04 -2.106485e-04 1.308036e-04 8.216390e-04 -3.850554e-04 1.793137e-03 -3.646924e-04 1.002822e-03 -5.643868e-04 4.436130e-04 -8.952405e-04 6.837095e-04 -6.085618e-04
<VARIANCE> 39
 6.680990e+01 2.985707e+01 3.875949e+01 2.972107e+01 3.659155e+01 5.572467e+01 2.742978e+01 4.344990e+01 5.695727e+01 2.732408e+01 3.653397e+01 3.225584e+01 5.742065e+01 1.409823e+00 1.525169e+00 1.552417e+00 1.535974e+00 1.608799e+00 2.288130e+00 1.598233e+00 1.844948e+00 2.649307e+00 1.779930e+00 2.130377e+00 1.734974e+00 1.259657e+00 1.607216e-01 2.520908e-01 2.370192e-01 2.730770e-01 2.736748e-01 3.660701e-01 2.711896e-01 3.162410e-01 4.418629e-01 3.260402e-01 3.756685e-01 2.900378e-01 1.618913e-01
<GCONST> 1.099330e+02
<TRANSP> 6
 0.000000e+00 9.888839e-01 1.111607e-02 0.000000e+00 0.000000e+00 0.000000e+00
 0.000000e+00 9.967692e-01 2.100718e-03 1.130046e-03 0.000000e+00 0.000000e+00
 0.000000e+00 0.000000e+00 9.973050e-01 2.649212e-03 4.582509e-05 0.000000e+00
 0.000000e+00 0.000000e+00 0.000000e+00 9.925041e-01 7.495924e-03 0.000000e+00
 0.000000e+00 0.000000e+00 0.000000e+00 0.000000e+00 9.921160e-01 7.884030e-03
 0.000000e+00 0.000000e+00 0.000000e+00 0.000000e+00 0.000000e+00 0.000000e+00
<ENDHMM>
~h "puluh"
<BEGINHMM>
<NUMSTATES> 6
<STATE> 2
<MEAN> 39
 -8.776103e+00 3.095228e+00 -1.263095e+00 1.618035e+00 4.151671e-01 -4.173700e+00 2.017306e+00 -2.204400e-02 -6.848067e-01 -4.384556e+00 2.519018e-01 -3.866034e-01 6.459573e+01 -7.761798e-03 1.209968e-02 7.942939e-03 1.168546e-02 2.952295e-03 1.701145e-03 4.294654e-03 2.988028e-04 -5.139696e-04 -5.047296e-03 -4.159361e-03 -2.317833e-03 7.224581e-02 1.269349e-03 -1.336948e-03 1.735854e-03 -1.545864e-03 5.736249e-05 -6.243204e-04 -7.262666e-04 -1.501489e-03 4.610851e-04 -9.849960e-04 6.374986e-04 -4.433159e-04 1.233850e-03
<VARIANCE> 39
 7.973793e+01 5.095772e+01 5.535636e+01 5.931656e+01 6.344811e+01 6.576635e+01 5.564516e+01 4.533898e+01 4.761836e+01 5.507915e+01 3.131747e+01 3.433294e+01 2.761857e+02 2.105354e+00 1.962194e+00 1.746064e+00 1.979979e+00 2.231631e+00 2.706139e+00 2.165498e+00 1.886374e+00 2.150968e+00 2.152167e+00 1.654944e+00 1.468782e+00 2.848783e+00 2.780423e-01 3.185168e-01 2.804802e-01 3.118615e-01 3.602351e-01 4.449254e-01 3.869159e-01 3.406396e-01 3.631703e-01 3.788788e-01 2.939025e-01 2.475259e-01 3.431542e-01
<GCONST> 1.196670e+02
<STATE> 3
<MEAN> 39
 -3.281110e+00 -2.621211e+00 4.646895e+00 -4.537005e+00 2.231001e+00 -8.618052e+00 1.891535e+00 -6.542963e+00 -2.808748e+00 -7.833105e+00 -1.748819e-01 -2.178046e+00 6.773743e+01 1.298681e-02 -2.804568e-03 2.605758e-03 -1.354508e-02 -4.668908e-03 -6.761315e-03 -3.957017e-03 -9.999408e-03 -5.681584e-03 -6.373131e-03 8.065060e-04 1.659686e-03 1.861340e-02 -1.631059e-03 1.739022e-03 -3.616479e-03 1.962824e-03 1.816680e-04 2.780927e-03 1.246361e-03 1.806983e-03 -9.244950e-05 2.160972e-03 -8.498976e-04 6.868977e-04 -5.808076e-03
<VARIANCE> 39
 8.167526e+01 9.697574e+01 7.605195e+01 1.186004e+02 1.230543e+02 1.067034e+02 1.530448e+02 1.245307e+02 9.726274e+01 7.085318e+01 1.238454e+02 5.274636e+01 1.593123e+02 2.530208e+00 3.465949e+00 3.234165e+00 4.554739e+00 4.283073e+00 5.741617e+00 5.443601e+00 5.104206e+00 4.953516e+00 4.083015e+00 3.786315e+00 3.002752e+00 3.276818e+00 3.421194e-01 5.360647e-01 5.004865e-01 7.114857e-01 6.611019e-01 9.940900e-01 9.422581e-01 8.849349e-01 8.683196e-01 7.364030e-01 6.697083e-01 5.124944e-01 4.426400e-01
<GCONST> 1.441441e+02
<STATE> 4
<MEAN> 39
 -8.096825e+00 -5.055269e+00 1.661083e+00 -1.537575e+00 2.022157e+00 -8.346587e-02 2.824716e+00 -1.950040e+00 3.373861e+00 -2.124377e+00 -2.340282e+00 9.346032e-01 6.084668e+01 -4.768457e-02 -2.207305e-03 -1.321587e-02 1.556959e-02 1.611731e-02 1.426841e-02 4.126907e-03 1.784337e-02 1.874228e-02 2.114924e-02 4.290250e-03 1.334651e-03 -5.431158e-02 3.178616e-03 2.238054e-04 2.223608e-03 -1.137597e-04 -1.615267e-03 -4.003638e-03 -6.672995e-04 4.983884e-04 -3.425568e-04 -1.752828e-03 6.229919e-05 -7.019400e-04 3.731108e-03
<VARIANCE> 39
 7.253213e+01 8.346233e+01 7.664436e+01 5.848197e+01 4.319399e+01 3.298040e+01 4.425302e+01 6.585337e+01 4.398727e+01 3.067871e+01 3.043237e+01 2.292216e+01 1.380806e+02 6.464307e-01 6.017782e-01 9.993569e-01 1.116171e+00 1.100068e+00 1.079231e+00 1.377475e+00 1.284510e+00 1.235036e+00 1.114474e+00 1.017598e+00 9.698400e-01 6.431782e-01 7.439683e-02 9.010494e-02 1.381397e-01 1.735990e-01 1.790583e-01 1.889310e-01 2.323567e-01 2.261911e-01 2.275505e-01 2.027036e-01 1.847914e-01 1.741113e-01 6.163649e-02
<GCONST> 9.812036e+01
<STATE> 5
<MEAN> 39
 -1.232167e+01 -2.919065e+00 6.695459e+00 -8.115664e+00 7.175406e+00 -1.315096e+01 1.069328e+01 -1.183416e+01 2.677139e+00 -6.716449e+00 2.696243e+00 -4.713066e+00 5.939366e+01 2.334756e-03 4.963785e-05 -8.909996e-04 4.926893e-03 -2.929782e-03 4.363639e-04 1.171384e-03 1.689500e-03 -2.335182e-03 -3.284774e-03 -5.174598e-03 -3.573383e-05 -3.549656e-03 2.680737e-04 -2.106485e-04 1.308036e-04 8.216390e-04 -3.850554e-04 1.793137e-03 -3.646924e-04 1.002822e-03 -5.643868e-04 4.436130e-04 -8.952405e-04 6.837095e-04 -6.085618e-04
<VARIANCE> 39
 6.680990e+01 2.985707e+01 3.875949e+01 2.972107e+01 3.659155e+01 5.572467e+01 2.742978e+01 4.344990e+01 5.695727e+01 2.732408e+01 3.653397e+01 3.225584e+01 5.742065e+01 1.409823e+00 1.525169e+00 1.552417e+00 1.535974e+00 1.608799e+00 2.288130e+00 1.598233e+00 1.844948e+00 2.649307e+00 1.779930e+00 2.130377e+00 1.734974e+00 1.259657e+00 1.607216e-01 2.520908e-01 2.370192e-01 2.730770e-01 2.736748e-01 3.660701e-01 2.711896e-01 3.162410e-01 4.418629e-01 3.260402e-01 3.756685e-01 2.900378e-01 1.618913e-01
<GCONST> 1.099330e+02
<TRANSP> 6
 0.000000e+00 9.888839e-01 1.111607e-02 0.000000e+00 0.000000e+00 0.000000e+00
 0.000000e+00 9.967692e-01 2.100718e-03 1.130046e-03 0.000000e+00 0.000000e+00
 0.000000e+00 0.000000e+00 9.973050e-01 2.649212e-03 4.582509e-05 0.000000e+00
 0.000000e+00 0.000000e+00 0.000000e+00 9.925041e-01 7.495924e-03 0.000000e+00
 0.000000e+00 0.000000e+00 0.000000e+00 0.000000e+00 9.921160e-01 7.884030e-03
 0.000000e+00 0.000000e+00 0.000000e+00 0.000000e+00 0.000000e+00 0.000000e+00
<ENDHMM>
~h "satu"
<BEGINHMM>
<NUMSTATES> 6
<STATE> 2
<MEAN> 39
 -8.776103e+00 3.095228e+00 -1.263095e+00 1.618035e+00 4.151671e-01 -4.173700e+00 2.017306e+00 -2.204400e-02 -6.848067e-01 -4.384556e+00 2.519018e-01 -3.866034e-01 6.459573e+01 -7.761798e-03 1.209968e-02 7.942939e-03 1.168546e-02 2.952295e-03 1.701145e-03 4.294654e-03 2.988028e-04 -5.139696e-04 -5.047296e-03 -4.159361e-03 -2.317833e-03 7.224581e-02 1.269349e-03 -1.336948e-03 1.735854e-03 -1.545864e-03 5.736249e-05 -6.243204e-04 -7.262666e-04 -1.501489e-03 4.610851e-04 -9.849960e-04 6.374986e-04 -4.433159e-04 1.233850e-03
<VARIANCE> 39
 7.973793e+01 5.095772e+01 5.535636e+01 5.931656e+01 6.344811e+01 6.576635e+01 5.564516e+01 4.533898e+01 4.761836e+01 5.507915e+01 3.131747e+01 3.433294e+01 2.761857e+02 2.105354e+00 1.962194e+00 1.746064e+00 1.979979e+00 2.231631e+00 2.706139e+00 2.165498e+00 1.886374e+00 2.150968e+00 2.152167e+00 1.654944e+00 1.468782e+00 2.848783e+00 2.780423e-01 3.185168e-01 2.804802e-01 3.118615e-01 3.602351e-01 4.449254e-01 3.869159e-01 3.406396e-01 3.631703e-01 3.788788e-01 2.939025e-01 2.475259e-01 3.431542e-01
<GCONST> 1.196670e+02
<STATE> 3
<MEAN> 39
 -3.281110e+00 -2.621211e+00 4.646895e+00 -4.537005e+00 2.231001e+00 -8.618052e+00 1.891535e+00 -6.542963e+00 -2.808748e+00 -7.833105e+00 -1.748819e-01 -2.178046e+00 6.773743e+01 1.298681e-02 -2.804568e-03 2.605758e-03 -1.354508e-02 -4.668908e-03 -6.761315e-03 -3.957017e-03 -9.999408e-03 -5.681584e-03 -6.373131e-03 8.065060e-04 1.659686e-03 1.861340e-02 -1.631059e-03 1.739022e-03 -3.616479e-03 1.962824e-03 1.816680e-04 2.780927e-03 1.246361e-03 1.806983e-03 -9.244950e-05 2.160972e-03 -8.498976e-04 6.868977e-04 -5.808076e-03
<VARIANCE> 39
 8.167526e+01 9.697574e+01 7.605195e+01 1.186004e+02 1.230543e+02 1.067034e+02 1.530448e+02 1.245307e+02 9.726274e+01 7.085318e+01 1.238454e+02 5.274636e+01 1.593123e+02 2.530208e+00 3.465949e+00 3.234165e+00 4.554739e+00 4.283073e+00 5.741617e+00 5.443601e+00 5.104206e+00 4.953516e+00 4.083015e+00 3.786315e+00 3.002752e+00 3.276818e+00 3.421194e-01 5.360647e-01 5.004865e-01 7.114857e-01 6.611019e-01 9.940900e-01 9.422581e-01 8.849349e-01 8.683196e-01 7.364030e-01 6.697083e-01 5.124944e-01 4.426400e-01
<GCONST> 1.441441e+02
<STATE> 4
<MEAN> 39
 -8.096825e+00 -5.055269e+00 1.661083e+00 -1.537575e+00 2.022157e+00 -8.346587e-02 2.824716e+00 -1.950040e+00 3.373861e+00 -2.124377e+00 -2.340282e+00 9.346032e-01 6.084668e+01 -4.768457e-02 -2.207305e-03 -1.321587e-02 1.556959e-02 1.611731e-02 1.426841e-02 4.126907e-03 1.784337e-02 1.874228e-02 2.114924e-02 4.290250e-03 1.334651e-03 -5.431158e-02 3.178616e-03 2.238054e-04 2.223608e-03 -1.137597e-04 -1.615267e-03 -4.003638e-03 -6.672995e-04 4.983884e-04 -3.425568e-04 -1.752828e-03 6.229919e-05 -7.019400e-04 3.731108e-03
<VARIANCE> 39
 7.253213e+01 8.346233e+01 7.664436e+01 5.848197e+01 4.319399e+01 3.298040e+01 4.425302e+01 6.585337e+01 4.398727e+01 3.067871e+01 3.043237e+01 2.292216e+01 1.380806e+02 6.464307e-01 6.017782e-01 9.993569e-01 1.116171e+00 1.100068e+00 1.079231e+00 1.377475e+00 1.284510e+00 1.235036e+00 1.114474e+00 1.017598e+00 9.698400e-01 6.431782e-01 7.439683e-02 9.010494e-02 1.381397e-01 1.735990e-01 1.790583e-01 1.889310e-01 2.323567e-01 2.261911e-01 2.275505e-01 2.027036e-01 1.847914e-01 1.741113e-01 6.163649e-02
<GCONST> 9.812036e+01
<STATE> 5
<MEAN> 39
 -1.232167e+01 -2.919065e+00 6.695459e+00 -8.115664e+00 7.175406e+00 -1.315096e+01 1.069328e+01 -1.183416e+01 2.677139e+00 -6.716449e+00 2.696243e+00 -4.713066e+00 5.939366e+01 2.334756e-03 4.963785e-05 -8.909996e-04 4.926893e-03 -2.929782e-03 4.363639e-04 1.171384e-03 1.689500e-03 -2.335182e-03 -3.284774e-03 -5.174598e-03 -3.573383e-05 -3.549656e-03 2.680737e-04 -2.106485e-04 1.308036e-04 8.216390e-04 -3.850554e-04 1.793137e-03 -3.646924e-04 1.002822e-03 -5.643868e-04 4.436130e-04 -8.952405e-04 6.837095e-04 -6.085618e-04
<VARIANCE> 39
 6.680990e+01 2.985707e+01 3.875949e+01 2.972107e+01 3.659155e+01 5.572467e+01 2.742978e+01 4.344990e+01 5.695727e+01 2.732408e+01 3.653397e+01 3.225584e+01 5.742065e+01 1.409823e+00 1.525169e+00 1.552417e+00 1.535974e+00 1.608799e+00 2.288130e+00 1.598233e+00 1.844948e+00 2.649307e+00 1.779930e+00 2.130377e+00 1.734974e+00 1.259657e+00 1.607216e-01 2.520908e-01 2.370192e-01 2.730770e-01 2.736748e-01 3.660701e-01 2.711896e-01 3.162410e-01 4.418629e-01 3.260402e-01 3.756685e-01 2.900378e-01 1.618913e-01
<GCONST> 1.099330e+02
<TRANSP> 6
 0.000000e+00 9.888839e-01 1.111607e-02 0.000000e+00 0.000000e+00 0.000000e+00
 0.000000e+00 9.967692e-01 2.100718e-03 1.130046e-03 0.000000e+00 0.000000e+00
 0.000000e+00 0.000000e+00 9.973050e-01 2.649212e-03 4.582509e-05 0.000000e+00
 0.000000e+00 0.000000e+00 0.000000e+00 9.925041e-01 7.495924e-03 0.000000e+00
 0.000000e+00 0.000000e+00 0.000000e+00 0.000000e+00 9.921160e-01 7.884030e-03
 0.000000e+00 0.000000e+00 0.000000e+00 0.000000e+00 0.000000e+00 0.000000e+00
<ENDHMM>
~h "sebelas"
<BEGINHMM>
<NUMSTATES> 6
<STATE> 2
<MEAN> 39
 -8.776103e+00 3.095228e+00 -1.263095e+00 1.618035e+00 4.151671e-01 -4.173700e+00 2.017306e+00 -2.204400e-02 -6.848067e-01 -4.384556e+00 2.519018e-01 -3.866034e-01 6.459573e+01 -7.761798e-03 1.209968e-02 7.942939e-03 1.168546e-02 2.952295e-03 1.701145e-03 4.294654e-03 2.988028e-04 -5.139696e-04 -5.047296e-03 -4.159361e-03 -2.317833e-03 7.224581e-02 1.269349e-03 -1.336948e-03 1.735854e-03 -1.545864e-03 5.736249e-05 -6.243204e-04 -7.262666e-04 -1.501489e-03 4.610851e-04 -9.849960e-04 6.374986e-04 -4.433159e-04 1.233850e-03
<VARIANCE> 39
 7.973793e+01 5.095772e+01 5.535636e+01 5.931656e+01 6.344811e+01 6.576635e+01 5.564516e+01 4.533898e+01 4.761836e+01 5.507915e+01 3.131747e+01 3.433294e+01 2.761857e+02 2.105354e+00 1.962194e+00 1.746064e+00 1.979979e+00 2.231631e+00 2.706139e+00 2.165498e+00 1.886374e+00 2.150968e+00 2.152167e+00 1.654944e+00 1.468782e+00 2.848783e+00 2.780423e-01 3.185168e-01 2.804802e-01 3.118615e-01 3.602351e-01 4.449254e-01 3.869159e-01 3.406396e-01 3.631703e-01 3.788788e-01 2.939025e-01 2.475259e-01 3.431542e-01
<GCONST> 1.196670e+02
<STATE> 3
<MEAN> 39
 -3.281110e+00 -2.621211e+00 4.646895e+00 -4.537005e+00 2.231001e+00 -8.618052e+00 1.891535e+00 -6.542963e+00 -2.808748e+00 -7.833105e+00 -1.748819e-01 -2.178046e+00 6.773743e+01 1.298681e-02 -2.804568e-03 2.605758e-03 -1.354508e-02 -4.668908e-03 -6.761315e-03 -3.957017e-03 -9.999408e-03 -5.681584e-03 -6.373131e-03 8.065060e-04 1.659686e-03 1.861340e-02 -1.631059e-03 1.739022e-03 -3.616479e-03 1.962824e-03 1.816680e-04 2.780927e-03 1.246361e-03 1.806983e-03 -9.244950e-05 2.160972e-03 -8.498976e-04 6.868977e-04 -5.808076e-03
<VARIANCE> 39
 8.167526e+01 9.697574e+01 7.605195e+01 1.186004e+02 1.230543e+02 1.067034e+02 1.530448e+02 1.245307e+02 9.726274e+01 7.085318e+01 1.238454e+02 5.274636e+01 1.593123e+02 2.530208e+00 3.465949e+00 3.234165e+00 4.554739e+00 4.283073e+00 5.741617e+00 5.443601e+00 5.104206e+00 4.953516e+00 4.083015e+00 3.786315e+00 3.002752e+00 3.276818e+00 3.421194e-01 5.360647e-01 5.004865e-01 7.114857e-01 6.611019e-01 9.940900e-01 9.422581e-01 8.849349e-01 8.683196e-01 7.364030e-01 6.697083e-01 5.124944e-01 4.426400e-01
<GCONST> 1.441441e+02
<STATE> 4
<MEAN> 39
 -8.096825e+00 -5.055269e+00 1.661083e+00 -1.537575e+00 2.022157e+00 -8.346587e-02 2.824716e+00 -1.950040e+00 3.373861e+00 -2.124377e+00 -2.340282e+00 9.346032e-01 6.084668e+01 -4.768457e-02 -2.207305e-03 -1.321587e-02 1.556959e-02 1.611731e-02 1.426841e-02 4.126907e-03 1.784337e-02 1.874228e-02 2.114924e-02 4.290250e-03 1.334651e-03 -5.431158e-02 3.178616e-03 2.238054e-04 2.223608e-03 -1.137597e-04 -1.615267e-03 -4.003638e-03 -6.672995e-04 4.983884e-04 -3.425568e-04 -1.752828e-03 6.229919e-05 -7.019400e-04 3.731108e-03
<VARIANCE> 39
 7.253213e+01 8.346233e+01 7.664436e+01 5.848197e+01 4.319399e+01 3.298040e+01 4.425302e+01 6.585337e+01 4.398727e+01 3.067871e+01 3.043237e+01 2.292216e+01 1.380806e+02 6.464307e-01 6.017782e-01 9.993569e-01 1.116171e+00 1.100068e+00 1.079231e+00 1.377475e+00 1.284510e+00 1.235036e+00 1.114474e+00 1.017598e+00 9.698400e-01 6.431782e-01 7.439683e-02 9.010494e-02 1.381397e-01 1.735990e-01 1.790583e-01 1.889310e-01 2.323567e-01 2.261911e-01 2.275505e-01 2.027036e-01 1.847914e-01 1.741113e-01 6.163649e-02
<GCONST> 9.812036e+01
<STATE> 5
<MEAN> 39
 -1.232167e+01 -2.919065e+00 6.695459e+00 -8.115664e+00 7.175406e+00 -1.315096e+01 1.069328e+01 -1.183416e+01 2.677139e+00 -6.716449e+00 2.696243e+00 -4.713066e+00 5.939366e+01 2.334756e-03 4.963785e-05 -8.909996e-04 4.926893e-03 -2.929782e-03 4.363639e-04 1.171384e-03 1.689500e-03 -2.335182e-03 -3.284774e-03 -5.174598e-03 -3.573383e-05 -3.549656e-03 2.680737e-04 -2.106485e-04 1.308036e-04 8.216390e-04 -3.850554e-04 1.793137e-03 -3.646924e-04 1.002822e-03 -5.643868e-04 4.436130e-04 -8.952405e-04 6.837095e-04 -6.085618e-04
<VARIANCE> 39
 6.680990e+01 2.985707e+01 3.875949e+01 2.972107e+01 3.659155e+01 5.572467e+01 2.742978e+01 4.344990e+01 5.695727e+01 2.732408e+01 3.653397e+01 3.225584e+01 5.742065e+01 1.409823e+00 1.525169e+00 1.552417e+00 1.535974e+00 1.608799e+00 2.288130e+00 1.598233e+00 1.844948e+00 2.649307e+00 1.779930e+00 2.130377e+00 1.734974e+00 1.259657e+00 1.607216e-01 2.520908e-01 2.370192e-01 2.730770e-01 2.736748e-01 3.660701e-01 2.711896e-01 3.162410e-01 4.418629e-01 3.260402e-01 3.756685e-01 2.900378e-01 1.618913e-01
<GCONST> 1.099330e+02
<TRANSP> 6
 0.000000e+00 9.888839e-01 1.111607e-02 0.000000e+00 0.000000e+00 0.000000e+00
 0.000000e+00 9.967692e-01 2.100718e-03 1.130046e-03 0.000000e+00 0.000000e+00
 0.000000e+00 0.000000e+00 9.973050e-01 2.649212e-03 4.582509e-05 0.000000e+00
 0.000000e+00 0.000000e+00 0.000000e+00 9.925041e-01 7.495924e-03 0.000000e+00
 0.000000e+00 0.000000e+00 0.000000e+00 0.000000e+00 9.921160e-01 7.884030e-03
 0.000000e+00 0.000000e+00 0.000000e+00 0.000000e+00 0.000000e+00 0.000000e+00
<ENDHMM>
~h "sembilan"
<BEGINHMM>
<NUMSTATES> 6
<STATE> 2
<MEAN> 39
 -8.776103e+00 3.095228e+00 -1.263095e+00 1.618035e+00 4.151671e-01 -4.173700e+00 2.017306e+00 -2.204400e-02 -6.848067e-01 -4.384556e+00 2.519018e-01 -3.866034e-01 6.459573e+01 -7.761798e-03 1.209968e-02 7.942939e-03 1.168546e-02 2.952295e-03 1.701145e-03 4.294654e-03 2.988028e-04 -5.139696e-04 -5.047296e-03 -4.159361e-03 -2.317833e-03 7.224581e-02 1.269349e-03 -1.336948e-03 1.735854e-03 -1.545864e-03 5.736249e-05 -6.243204e-04 -7.262666e-04 -1.501489e-03 4.610851e-04 -9.849960e-04 6.374986e-04 -4.433159e-04 1.233850e-03
<VARIANCE> 39
 7.973793e+01 5.095772e+01 5.535636e+01 5.931656e+01 6.344811e+01 6.576635e+01 5.564516e+01 4.533898e+01 4.761836e+01 5.507915e+01 3.131747e+01 3.433294e+01 2.761857e+02 2.105354e+00 1.962194e+00 1.746064e+00 1.979979e+00 2.231631e+00 2.706139e+00 2.165498e+00 1.886374e+00 2.150968e+00 2.152167e+00 1.654944e+00 1.468782e+00 2.848783e+00 2.780423e-01 3.185168e-01 2.804802e-01 3.118615e-01 3.602351e-01 4.449254e-01 3.869159e-01 3.406396e-01 3.631703e-01 3.788788e-01 2.939025e-01 2.475259e-01 3.431542e-01
<GCONST> 1.196670e+02
<STATE> 3
<MEAN> 39
 -3.281110e+00 -2.621211e+00 4.646895e+00 -4.537005e+00 2.231001e+00 -8.618052e+00 1.891535e+00 -6.542963e+00 -2.808748e+00 -7.833105e+00 -1.748819e-01 -2.178046e+00 6.773743e+01 1.298681e-02 -2.804568e-03 2.605758e-03 -1.354508e-02 -4.668908e-03 -6.761315e-03 -3.957017e-03 -9.999408e-03 -5.681584e-03 -6.373131e-03 8.065060e-04 1.659686e-03 1.861340e-02 -1.631059e-03 1.739022e-03 -3.616479e-03 1.962824e-03 1.816680e-04 2.780927e-03 1.246361e-03 1.806983e-03 -9.244950e-05 2.160972e-03 -8.498976e-04 6.868977e-04 -5.808076e-03
<VARIANCE> 39
 8.167526e+01 9.697574e+01 7.605195e+01 1.186004e+02 1.230543e+02 1.067034e+02 1.530448e+02 1.245307e+02 9.726274e+01 7.085318e+01 1.238454e+02 5.274636e+01 1.593123e+02 2.530208e+00 3.465949e+00 3.234165e+00 4.554739e+00 4.283073e+00 5.741617e+00 5.443601e+00 5.104206e+00 4.953516e+00 4.083015e+00 3.786315e+00 3.002752e+00 3.276818e+00 3.421194e-01 5.360647e-01 5.004865e-01 7.114857e-01 6.611019e-01 9.940900e-01 9.422581e-01 8.849349e-01 8.683196e-01 7.364030e-01 6.697083e-01 5.124944e-01 4.426400e-01
<GCONST> 1.441441e+02
<STATE> 4
<MEAN> 39
 -8.096825e+00 -5.055269e+00 1.661083e+00 -1.537575e+00 2.022157e+00 -8.346587e-02 2.824716e+00 -1.950040e+00 3.373861e+00 -2.124377e+00 -2.340282e+00 9.346032e-01 6.084668e+01 -4.768457e-02 -2.207305e-03 -1.321587e-02 1.556959e-02 1.611731e-02 1.426841e-02 4.126907e-03 1.784337e-02 1.874228e-02 2.114924e-02 4.290250e-03 1.334651e-03 -5.431158e-02 3.178616e-03 2.238054e-04 2.223608e-03 -1.137597e-04 -1.615267e-03 -4.003638e-03 -6.672995e-04 4.983884e-04 -3.425568e-04 -1.752828e-03 6.229919e-05 -7.019400e-04 3.731108e-03
<VARIANCE> 39
 7.253213e+01 8.346233e+01 7.664436e+01 5.848197e+01 4.319399e+01 3.298040e+01 4.425302e+01 6.585337e+01 4.398727e+01 3.067871e+01 3.043237e+01 2.292216e+01 1.380806e+02 6.464307e-01 6.017782e-01 9.993569e-01 1.116171e+00 1.100068e+00 1.079231e+00 1.377475e+00 1.284510e+00 1.235036e+00 1.114474e+00 1.017598e+00 9.698400e-01 6.431782e-01 7.439683e-02 9.010494e-02 1.381397e-01 1.735990e-01 1.790583e-01 1.889310e-01 2.323567e-01 2.261911e-01 2.275505e-01 2.027036e-01 1.847914e-01 1.741113e-01 6.163649e-02
<GCONST> 9.812036e+01
<STATE> 5
<MEAN> 39
 -1.232167e+01 -2.919065e+00 6.695459e+00 -8.115664e+00 7.175406e+00 -1.315096e+01 1.069328e+01 -1.183416e+01 2.677139e+00 -6.716449e+00 2.696243e+00 -4.713066e+00 5.939366e+01 2.334756e-03 4.963785e-05 -8.909996e-04 4.926893e-03 -2.929782e-03 4.363639e-04 1.171384e-03 1.689500e-03 -2.335182e-03 -3.284774e-03 -5.174598e-03 -3.573383e-05 -3.549656e-03 2.680737e-04 -2.106485e-04 1.308036e-04 8.216390e-04 -3.850554e-04 1.793137e-03 -3.646924e-04 1.002822e-03 -5.643868e-04 4.436130e-04 -8.952405e-04 6.837095e-04 -6.085618e-04
<VARIANCE> 39
 6.680990e+01 2.985707e+01 3.875949e+01 2.972107e+01 3.659155e+01 5.572467e+01 2.742978e+01 4.344990e+01 5.695727e+01 2.732408e+01 3.653397e+01 3.225584e+01 5.742065e+01 1.409823e+00 1.525169e+00 1.552417e+00 1.535974e+00 1.608799e+00 2.288130e+00 1.598233e+00 1.844948e+00 2.649307e+00 1.779930e+00 2.130377e+00 1.734974e+00 1.259657e+00 1.607216e-01 2.520908e-01 2.370192e-01 2.730770e-01 2.736748e-01 3.660701e-01 2.711896e-01 3.162410e-01 4.418629e-01 3.260402e-01 3.756685e-01 2.900378e-01 1.618913e-01
<GCONST> 1.099330e+02
<TRANSP> 6
 0.000000e+00 9.888839e-01 1.111607e-02 0.000000e+00 0.000000e+00 0.000000e+00
 0.000000e+00 9.967692e-01 2.100718e-03 1.130046e-03 0.000000e+00 0.000000e+00
 0.000000e+00 0.000000e+00 9.973050e-01 2.649212e-03 4.582509e-05 0.000000e+00
 0.000000e+00 0.000000e+00 0.000000e+00 9.925041e-01 7.495924e-03 0.000000e+00
 0.000000e+00 0.000000e+00 0.000000e+00 0.000000e+00 9.921160e-01 7.884030e-03
 0.000000e+00 0.000000e+00 0.000000e+00 0.000000e+00 0.000000e+00 0.000000e+00
<ENDHMM>
~h "sepuluh"
<BEGINHMM>
<NUMSTATES> 6
<STATE> 2
<MEAN> 39
 -8.776103e+00 3.095228e+00 -1.263095e+00 1.618035e+00 4.151671e-01 -4.173700e+00 2.017306e+00 -2.204400e-02 -6.848067e-01 -4.384556e+00 2.519018e-01 -3.866034e-01 6.459573e+01 -7.761798e-03 1.209968e-02 7.942939e-03 1.168546e-02 2.952295e-03 1.701145e-03 4.294654e-03 2.988028e-04 -5.139696e-04 -5.047296e-03 -4.159361e-03 -2.317833e-03 7.224581e-02 1.269349e-03 -1.336948e-03 1.735854e-03 -1.545864e-03 5.736249e-05 -6.243204e-04 -7.262666e-04 -1.501489e-03 4.610851e-04 -9.849960e-04 6.374986e-04 -4.433159e-04 1.233850e-03
<VARIANCE> 39
 7.973793e+01 5.095772e+01 5.535636e+01 5.931656e+01 6.344811e+01 6.576635e+01 5.564516e+01 4.533898e+01 4.761836e+01 5.507915e+01 3.131747e+01 3.433294e+01 2.761857e+02 2.105354e+00 1.962194e+00 1.746064e+00 1.979979e+00 2.231631e+00 2.706139e+00 2.165498e+00 1.886374e+00 2.150968e+00 2.152167e+00 1.654944e+00 1.468782e+00 2.848783e+00 2.780423e-01 3.185168e-01 2.804802e-01 3.118615e-01 3.602351e-01 4.449254e-01 3.869159e-01 3.406396e-01 3.631703e-01 3.788788e-01 2.939025e-01 2.475259e-01 3.431542e-01
<GCONST> 1.196670e+02
<STATE> 3
<MEAN> 39
 -3.281110e+00 -2.621211e+00 4.646895e+00 -4.537005e+00 2.231001e+00 -8.618052e+00 1.891535e+00 -6.542963e+00 -2.808748e+00 -7.833105e+00 -1.748819e-01 -2.178046e+00 6.773743e+01 1.298681e-02 -2.804568e-03 2.605758e-03 -1.354508e-02 -4.668908e-03 -6.761315e-03 -3.957017e-03 -9.999408e-03 -5.681584e-03 -6.373131e-03 8.065060e-04 1.659686e-03 1.861340e-02 -1.631059e-03 1.739022e-03 -3.616479e-03 1.962824e-03 1.816680e-04 2.780927e-03 1.246361e-03 1.806983e-03 -9.244950e-05 2.160972e-03 -8.498976e-04 6.868977e-04 -5.808076e-03
<VARIANCE> 39
 8.167526e+01 9.697574e+01 7.605195e+01 1.186004e+02 1.230543e+02 1.067034e+02 1.530448e+02 1.245307e+02 9.726274e+01 7.085318e+01 1.238454e+02 5.274636e+01 1.593123e+02 2.530208e+00 3.465949e+00 3.234165e+00 4.554739e+00 4.283073e+00 5.741617e+00 5.443601e+00 5.104206e+00 4.953516e+00 4.083015e+00 3.786315e+00 3.002752e+00 3.276818e+00 3.421194e-01 5.360647e-01 5.004865e-01 7.114857e-01 6.611019e-01 9.940900e-01 9.422581e-01 8.849349e-01 8.683196e-01 7.364030e-01 6.697083e-01 5.124944e-01 4.426400e-01
<GCONST> 1.441441e+02
<STATE> 4
<MEAN> 39
 -8.096825e+00 -5.055269e+00 1.661083e+00 -1.537575e+00 2.022157e+00 -8.346587e-02 2.824716e+00 -1.950040e+00 3.373861e+00 -2.124377e+00 -2.340282e+00 9.346032e-01 6.084668e+01 -4.768457e-02 -2.207305e-03 -1.321587e-02 1.556959e-02 1.611731e-02 1.426841e-02 4.126907e-03 1.784337e-02 1.874228e-02 2.114924e-02 4.290250e-03 1.334651e-03 -5.431158e-02 3.178616e-03 2.238054e-04 2.223608e-03 -1.137597e-04 -1.615267e-03 -4.003638e-03 -6.672995e-04 4.983884e-04 -3.425568e-04 -1.752828e-03 6.229919e-05 -7.019400e-04 3.731108e-03
<VARIANCE> 39
 7.253213e+01 8.346233e+01 7.664436e+01 5.848197e+01 4.319399e+01 3.298040e+01 4.425302e+01 6.585337e+01 4.398727e+01 3.067871e+01 3.043237e+01 2.292216e+01 1.380806e+02 6.464307e-01 6.017782e-01 9.993569e-01 1.116171e+00 1.100068e+00 1.079231e+00 1.377475e+00 1.284510e+00 1.235036e+00 1.114474e+00 1.017598e+00 9.698400e-01 6.431782e-01 7.439683e-02 9.010494e-02 1.381397e-01 1.735990e-01 1.790583e-01 1.889310e-01 2.323567e-01 2.261911e-01 2.275505e-01 2.027036e-01 1.847914e-01 1.741113e-01 6.163649e-02
<GCONST> 9.812036e+01
<STATE> 5
<MEAN> 39
 -1.232167e+01 -2.919065e+00 6.695459e+00 -8.115664e+00 7.175406e+00 -1.315096e+01 1.069328e+01 -1.183416e+01 2.677139e+00 -6.716449e+00 2.696243e+00 -4.713066e+00 5.939366e+01 2.334756e-03 4.963785e-05 -8.909996e-04 4.926893e-03 -2.929782e-03 4.363639e-04 1.171384e-03 1.689500e-03 -2.335182e-03 -3.284774e-03 -5.174598e-03 -3.573383e-05 -3.549656e-03 2.680737e-04 -2.106485e-04 1.308036e-04 8.216390e-04 -3.850554e-04 1.793137e-03 -3.646924e-04 1.002822e-03 -5.643868e-04 4.436130e-04 -8.952405e-04 6.837095e-04 -6.085618e-04
<VARIANCE> 39
 6.680990e+01 2.985707e+01 3.875949e+01 2.972107e+01 3.659155e+01 5.572467e+01 2.742978e+01 4.344990e+01 5.695727e+01 2.732408e+01 3.653397e+01 3.225584e+01 5.742065e+01 1.409823e+00 1.525169e+00 1.552417e+00 1.535974e+00 1.608799e+00 2.288130e+00 1.598233e+00 1.844948e+00 2.649307e+00 1.779930e+00 2.130377e+00 1.734974e+00 1.259657e+00 1.607216e-01 2.520908e-01 2.370192e-01 2.730770e-01 2.736748e-01 3.660701e-01 2.711896e-01 3.162410e-01 4.418629e-01 3.260402e-01 3.756685e-01 2.900378e-01 1.618913e-01
<GCONST> 1.099330e+02
<TRANSP> 6
 0.000000e+00 9.888839e-01 1.111607e-02 0.000000e+00 0.000000e+00 0.000000e+00
 0.000000e+00 9.967692e-01 2.100718e-03 1.130046e-03 0.000000e+00 0.000000e+00
 0.000000e+00 0.000000e+00 9.973050e-01 2.649212e-03 4.582509e-05 0.000000e+00
 0.000000e+00 0.000000e+00 0.000000e+00 9.925041e-01 7.495924e-03 0.000000e+00
 0.000000e+00 0.000000e+00 0.000000e+00 0.000000e+00 9.921160e-01 7.884030e-03
 0.000000e+00 0.000000e+00 0.000000e+00 0.000000e+00 0.000000e+00 0.000000e+00
<ENDHMM>
~h "sil"
<BEGINHMM>
<NUMSTATES> 6
<STATE> 2
<MEAN> 39
 -8.776103e+00 3.095228e+00 -1.263095e+00 1.618035e+00 4.151671e-01 -4.173700e+00 2.017306e+00 -2.204400e-02 -6.848067e-01 -4.384556e+00 2.519018e-01 -3.866034e-01 6.459573e+01 -7.761798e-03 1.209968e-02 7.942939e-03 1.168546e-02 2.952295e-03 1.701145e-03 4.294654e-03 2.988028e-04 -5.139696e-04 -5.047296e-03 -4.159361e-03 -2.317833e-03 7.224581e-02 1.269349e-03 -1.336948e-03 1.735854e-03 -1.545864e-03 5.736249e-05 -6.243204e-04 -7.262666e-04 -1.501489e-03 4.610851e-04 -9.849960e-04 6.374986e-04 -4.433159e-04 1.233850e-03
<VARIANCE> 39
 7.973793e+01 5.095772e+01 5.535636e+01 5.931656e+01 6.344811e+01 6.576635e+01 5.564516e+01 4.533898e+01 4.761836e+01 5.507915e+01 3.131747e+01 3.433294e+01 2.761857e+02 2.105354e+00 1.962194e+00 1.746064e+00 1.979979e+00 2.231631e+00 2.706139e+00 2.165498e+00 1.886374e+00 2.150968e+00 2.152167e+00 1.654944e+00 1.468782e+00 2.848783e+00 2.780423e-01 3.185168e-01 2.804802e-01 3.118615e-01 3.602351e-01 4.449254e-01 3.869159e-01 3.406396e-01 3.631703e-01 3.788788e-01 2.939025e-01 2.475259e-01 3.431542e-01
<GCONST> 1.196670e+02
<STATE> 3
<MEAN> 39
 -3.281110e+00 -2.621211e+00 4.646895e+00 -4.537005e+00 2.231001e+00 -8.618052e+00 1.891535e+00 -6.542963e+00 -2.808748e+00 -7.833105e+00 -1.748819e-01 -2.178046e+00 6.773743e+01 1.298681e-02 -2.804568e-03 2.605758e-03 -1.354508e-02 -4.668908e-03 -6.761315e-03 -3.957017e-03 -9.999408e-03 -5.681584e-03 -6.373131e-03 8.065060e-04 1.659686e-03 1.861340e-02 -1.631059e-03 1.739022e-03 -3.616479e-03 1.962824e-03 1.816680e-04 2.780927e-03 1.246361e-03 1.806983e-03 -9.244950e-05 2.160972e-03 -8.498976e-04 6.868977e-04 -5.808076e-03
<VARIANCE> 39
 8.167526e+01 9.697574e+01 7.605195e+01 1.186004e+02 1.230543e+02 1.067034e+02 1.530448e+02 1.245307e+02 9.726274e+01 7.085318e+01 1.238454e+02 5.274636e+01 1.593123e+02 2.530208e+00 3.465949e+00 3.234165e+00 4.554739e+00 4.283073e+00 5.741617e+00 5.443601e+00 5.104206e+00 4.953516e+00 4.083015e+00 3.786315e+00 3.002752e+00 3.276818e+00 3.421194e-01 5.360647e-01 5.004865e-01 7.114857e-01 6.611019e-01 9.940900e-01 9.422581e-01 8.849349e-01 8.683196e-01 7.364030e-01 6.697083e-01 5.124944e-01 4.426400e-01
<GCONST> 1.441441e+02
<STATE> 4
<MEAN> 39
 -8.096825e+00 -5.055269e+00 1.661083e+00 -1.537575e+00 2.022157e+00 -8.346587e-02 2.824716e+00 -1.950040e+00 3.373861e+00 -2.124377e+00 -2.340282e+00 9.346032e-01 6.084668e+01 -4.768457e-02 -2.207305e-03 -1.321587e-02 1.556959e-02 1.611731e-02 1.426841e-02 4.126907e-03 1.784337e-02 1.874228e-02 2.114924e-02 4.290250e-03 1.334651e-03 -5.431158e-02 3.178616e-03 2.238054e-04 2.223608e-03 -1.137597e-04 -1.615267e-03 -4.003638e-03 -6.672995e-04 4.983884e-04 -3.425568e-04 -1.752828e-03 6.229919e-05 -7.019400e-04 3.731108e-03
<VARIANCE> 39
 7.253213e+01 8.346233e+01 7.664436e+01 5.848197e+01 4.319399e+01 3.298040e+01 4.425302e+01 6.585337e+01 4.398727e+01 3.067871e+01 3.043237e+01 2.292216e+01 1.380806e+02 6.464307e-01 6.017782e-01 9.993569e-01 1.116171e+00 1.100068e+00 1.079231e+00 1.377475e+00 1.284510e+00 1.235036e+00 1.114474e+00 1.017598e+00 9.698400e-01 6.431782e-01 7.439683e-02 9.010494e-02 1.381397e-01 1.735990e-01 1.790583e-01 1.889310e-01 2.323567e-01 2.261911e-01 2.275505e-01 2.027036e-01 1.847914e-01 1.741113e-01 6.163649e-02
<GCONST> 9.812036e+01
<STATE> 5
<MEAN> 39
 -1.232167e+01 -2.919065e+00 6.695459e+00 -8.115664e+00 7.175406e+00 -1.315096e+01 1.069328e+01 -1.183416e+01 2.677139e+00 -6.716449e+00 2.696243e+00 -4.713066e+00 5.939366e+01 2.334756e-03 4.963785e-05 -8.909996e-04 4.926893e-03 -2.929782e-03 4.363639e-04 1.171384e-03 1.689500e-03 -2.335182e-03 -3.284774e-03 -5.174598e-03 -3.573383e-05 -3.549656e-03 2.680737e-04 -2.106485e-04 1.308036e-04 8.216390e-04 -3.850554e-04 1.793137e-03 -3.646924e-04 1.002822e-03 -5.643868e-04 4.436130e-04 -8.952405e-04 6.837095e-04 -6.085618e-04
<VARIANCE> 39
 6.680990e+01 2.985707e+01 3.875949e+01 2.972107e+01 3.659155e+01 5.572467e+01 2.742978e+01 4.344990e+01 5.695727e+01 2.732408e+01 3.653397e+01 3.225584e+01 5.742065e+01 1.409823e+00 1.525169e+00 1.552417e+00 1.535974e+00 1.608799e+00 2.288130e+00 1.598233e+00 1.844948e+00 2.649307e+00 1.779930e+00 2.130377e+00 1.734974e+00 1.259657e+00 1.607216e-01 2.520908e-01 2.370192e-01 2.730770e-01 2.736748e-01 3.660701e-01 2.711896e-01 3.162410e-01 4.418629e-01 3.260402e-01 3.756685e-01 2.900378e-01 1.618913e-01
<GCONST> 1.099330e+02
<TRANSP> 6
 0.000000e+00 9.888839e-01 1.111607e-02 0.000000e+00 0.000000e+00 0.000000e+00
 0.000000e+00 9.967692e-01 2.100718e-03 1.130046e-03 0.000000e+00 0.000000e+00
 0.000000e+00 0.000000e+00 9.973050e-01 2.649212e-03 4.582509e-05 0.000000e+00
 0.000000e+00 0.000000e+00 0.000000e+00 9.925041e-01 7.495924e-03 0.000000e+00
 0.000000e+00 0.000000e+00 0.000000e+00 0.000000e+00 9.921160e-01 7.884030e-03
 0.000000e+00 0.000000e+00 0.000000e+00 0.000000e+00 0.000000e+00 0.000000e+00
<ENDHMM>
~h "tiga"
<BEGINHMM>
<NUMSTATES> 6
<STATE> 2
<MEAN> 39
 -8.776103e+00 3.095228e+00 -1.263095e+00 1.618035e+00 4.151671e-01 -4.173700e+00 2.017306e+00 -2.204400e-02 -6.848067e-01 -4.384556e+00 2.519018e-01 -3.866034e-01 6.459573e+01 -7.761798e-03 1.209968e-02 7.942939e-03 1.168546e-02 2.952295e-03 1.701145e-03 4.294654e-03 2.988028e-04 -5.139696e-04 -5.047296e-03 -4.159361e-03 -2.317833e-03 7.224581e-02 1.269349e-03 -1.336948e-03 1.735854e-03 -1.545864e-03 5.736249e-05 -6.243204e-04 -7.262666e-04 -1.501489e-03 4.610851e-04 -9.849960e-04 6.374986e-04 -4.433159e-04 1.233850e-03
<VARIANCE> 39
 7.973793e+01 5.095772e+01 5.535636e+01 5.931656e+01 6.344811e+01 6.576635e+01 5.564516e+01 4.533898e+01 4.761836e+01 5.507915e+01 3.131747e+01 3.433294e+01 2.761857e+02 2.105354e+00 1.962194e+00 1.746064e+00 1.979979e+00 2.231631e+00 2.706139e+00 2.165498e+00 1.886374e+00 2.150968e+00 2.152167e+00 1.654944e+00 1.468782e+00 2.848783e+00 2.780423e-01 3.185168e-01 2.804802e-01 3.118615e-01 3.602351e-01 4.449254e-01 3.869159e-01 3.406396e-01 3.631703e-01 3.788788e-01 2.939025e-01 2.475259e-01 3.431542e-01
<GCONST> 1.196670e+02
<STATE> 3
<MEAN> 39
 -3.281110e+00 -2.621211e+00 4.646895e+00 -4.537005e+00 2.231001e+00 -8.618052e+00 1.891535e+00 -6.542963e+00 -2.808748e+00 -7.833105e+00 -1.748819e-01 -2.178046e+00 6.773743e+01 1.298681e-02 -2.804568e-03 2.605758e-03 -1.354508e-02 -4.668908e-03 -6.761315e-03 -3.957017e-03 -9.999408e-03 -5.681584e-03 -6.373131e-03 8.065060e-04 1.659686e-03 1.861340e-02 -1.631059e-03 1.739022e-03 -3.616479e-03 1.962824e-03 1.816680e-04 2.780927e-03 1.246361e-03 1.806983e-03 -9.244950e-05 2.160972e-03 -8.498976e-04 6.868977e-04 -5.808076e-03
<VARIANCE> 39
 8.167526e+01 9.697574e+01 7.605195e+01 1.186004e+02 1.230543e+02 1.067034e+02 1.530448e+02 1.245307e+02 9.726274e+01 7.085318e+01 1.238454e+02 5.274636e+01 1.593123e+02 2.530208e+00 3.465949e+00 3.234165e+00 4.554739e+00 4.283073e+00 5.741617e+00 5.443601e+00 5.104206e+00 4.953516e+00 4.083015e+00 3.786315e+00 3.002752e+00 3.276818e+00 3.421194e-01 5.360647e-01 5.004865e-01 7.114857e-01 6.611019e-01 9.940900e-01 9.422581e-01 8.849349e-01 8.683196e-01 7.364030e-01 6.697083e-01 5.124944e-01 4.426400e-01
<GCONST> 1.441441e+02
<STATE> 4
<MEAN> 39
 -8.096825e+00 -5.055269e+00 1.661083e+00 -1.537575e+00 2.022157e+00 -8.346587e-02 2.824716e+00 -1.950040e+00 3.373861e+00 -2.124377e+00 -2.340282e+00 9.346032e-01 6.084668e+01 -4.768457e-02 -2.207305e-03 -1.321587e-02 1.556959e-02 1.611731e-02 1.426841e-02 4.126907e-03 1.784337e-02 1.874228e-02 2.114924e-02 4.290250e-03 1.334651e-03 -5.431158e-02 3.178616e-03 2.238054e-04 2.223608e-03 -1.137597e-04 -1.615267e-03 -4.003638e-03 -6.672995e-04 4.983884e-04 -3.425568e-04 -1.752828e-03 6.229919e-05 -7.019400e-04 3.731108e-03
<VARIANCE> 39
 7.253213e+01 8.346233e+01 7.664436e+01 5.848197e+01 4.319399e+01 3.298040e+01 4.425302e+01 6.585337e+01 4.398727e+01 3.067871e+01 3.043237e+01 2.292216e+01 1.380806e+02 6.464307e-01 6.017782e-01 9.993569e-01 1.116171e+00 1.100068e+00 1.079231e+00 1.377475e+00 1.284510e+00 1.235036e+00 1.114474e+00 1.017598e+00 9.698400e-01 6.431782e-01 7.439683e-02 9.010494e-02 1.381397e-01 1.735990e-01 1.790583e-01 1.889310e-01 2.323567e-01 2.261911e-01 2.275505e-01 2.027036e-01 1.847914e-01 1.741113e-01 6.163649e-02
<GCONST> 9.812036e+01
<STATE> 5
<MEAN> 39
 -1.232167e+01 -2.919065e+00 6.695459e+00 -8.115664e+00 7.175406e+00 -1.315096e+01 1.069328e+01 -1.183416e+01 2.677139e+00 -6.716449e+00 2.696243e+00 -4.713066e+00 5.939366e+01 2.334756e-03 4.963785e-05 -8.909996e-04 4.926893e-03 -2.929782e-03 4.363639e-04 1.171384e-03 1.689500e-03 -2.335182e-03 -3.284774e-03 -5.174598e-03 -3.573383e-05 -3.549656e-03 2.680737e-04 -2.106485e-04 1.308036e-04 8.216390e-04 -3.850554e-04 1.793137e-03 -3.646924e-04 1.002822e-03 -5.643868e-04 4.436130e-04 -8.952405e-04 6.837095e-04 -6.085618e-04
<VARIANCE> 39
 6.680990e+01 2.985707e+01 3.875949e+01 2.972107e+01 3.659155e+01 5.572467e+01 2.742978e+01 4.344990e+01 5.695727e+01 2.732408e+01 3.653397e+01 3.225584e+01 5.742065e+01 1.409823e+00 1.525169e+00 1.552417e+00 1.535974e+00 1.608799e+00 2.288130e+00 1.598233e+00 1.844948e+00 2.649307e+00 1.779930e+00 2.130377e+00 1.734974e+00 1.259657e+00 1.607216e-01 2.520908e-01 2.370192e-01 2.730770e-01 2.736748e-01 3.660701e-01 2.711896e-01 3.162410e-01 4.418629e-01 3.260402e-01 3.756685e-01 2.900378e-01 1.618913e-01
<GCONST> 1.099330e+02
<TRANSP> 6
 0.000000e+00 9.888839e-01 1.111607e-02 0.000000e+00 0.000000e+00 0.000000e+00
 0.000000e+00 9.967692e-01 2.100718e-03 1.130046e-03 0.000000e+00 0.000000e+00
 0.000000e+00 0.000000e+00 9.973050e-01 2.649212e-03 4.582509e-05 0.000000e+00
 0.000000e+00 0.000000e+00 0.000000e+00 9.925041e-01 7.495924e-03 0.000000e+00
 0.000000e+00 0.000000e+00 0.000000e+00 0.000000e+00 9.921160e-01 7.884030e-03
 0.000000e+00 0.000000e+00 0.000000e+00 0.000000e+00 0.000000e+00 0.000000e+00
<ENDHMM>
~h "tujuh"
<BEGINHMM>
<NUMSTATES> 6
<STATE> 2
<MEAN> 39
 -8.776103e+00 3.095228e+00 -1.263095e+00 1.618035e+00 4.151671e-01 -4.173700e+00 2.017306e+00 -2.204400e-02 -6.848067e-01 -4.384556e+00 2.519018e-01 -3.866034e-01 6.459573e+01 -7.761798e-03 1.209968e-02 7.942939e-03 1.168546e-02 2.952295e-03 1.701145e-03 4.294654e-03 2.988028e-04 -5.139696e-04 -5.047296e-03 -4.159361e-03 -2.317833e-03 7.224581e-02 1.269349e-03 -1.336948e-03 1.735854e-03 -1.545864e-03 5.736249e-05 -6.243204e-04 -7.262666e-04 -1.501489e-03 4.610851e-04 -9.849960e-04 6.374986e-04 -4.433159e-04 1.233850e-03
<VARIANCE> 39
 7.973793e+01 5.095772e+01 5.535636e+01 5.931656e+01 6.344811e+01 6.576635e+01 5.564516e+01 4.533898e+01 4.761836e+01 5.507915e+01 3.131747e+01 3.433294e+01 2.761857e+02 2.105354e+00 1.962194e+00 1.746064e+00 1.979979e+00 2.231631e+00 2.706139e+00 2.165498e+00 1.886374e+00 2.150968e+00 2.152167e+00 1.654944e+00 1.468782e+00 2.848783e+00 2.780423e-01 3.185168e-01 2.804802e-01 3.118615e-01 3.602351e-01 4.449254e-01 3.869159e-01 3.406396e-01 3.631703e-01 3.788788e-01 2.939025e-01 2.475259e-01 3.431542e-01
<GCONST> 1.196670e+02
<STATE> 3
<MEAN> 39
 -3.281110e+00 -2.621211e+00 4.646895e+00 -4.537005e+00 2.231001e+00 -8.618052e+00 1.891535e+00 -6.542963e+00 -2.808748e+00 -7.833105e+00 -1.748819e-01 -2.178046e+00 6.773743e+01 1.298681e-02 -2.804568e-03 2.605758e-03 -1.354508e-02 -4.668908e-03 -6.761315e-03 -3.957017e-03 -9.999408e-03 -5.681584e-03 -6.373131e-03 8.065060e-04 1.659686e-03 1.861340e-02 -1.631059e-03 1.739022e-03 -3.616479e-03 1.962824e-03 1.816680e-04 2.780927e-03 1.246361e-03 1.806983e-03 -9.244950e-05 2.160972e-03 -8.498976e-04 6.868977e-04 -5.808076e-03
<VARIANCE> 39
 8.167526e+01 9.697574e+01 7.605195e+01 1.186004e+02 1.230543e+02 1.067034e+02 1.530448e+02 1.245307e+02 9.726274e+01 7.085318e+01 1.238454e+02 5.274636e+01 1.593123e+02 2.530208e+00 3.465949e+00 3.234165e+00 4.554739e+00 4.283073e+00 5.741617e+00 5.443601e+00 5.104206e+00 4.953516e+00 4.083015e+00 3.786315e+00 3.002752e+00 3.276818e+00 3.421194e-01 5.360647e-01 5.004865e-01 7.114857e-01 6.611019e-01 9.940900e-01 9.422581e-01 8.849349e-01 8.683196e-01 7.364030e-01 6.697083e-01 5.124944e-01 4.426400e-01
<GCONST> 1.441441e+02
<STATE> 4
<MEAN> 39
 -8.096825e+00 -5.055269e+00 1.661083e+00 -1.537575e+00 2.022157e+00 -8.346587e-02 2.824716e+00 -1.950040e+00 3.373861e+00 -2.124377e+00 -2.340282e+00 9.346032e-01 6.084668e+01 -4.768457e-02 -2.207305e-03 -1.321587e-02 1.556959e-02 1.611731e-02 1.426841e-02 4.126907e-03 1.784337e-02 1.874228e-02 2.114924e-02 4.290250e-03 1.334651e-03 -5.431158e-02 3.178616e-03 2.238054e-04 2.223608e-03 -1.137597e-04 -1.615267e-03 -4.003638e-03 -6.672995e-04 4.983884e-04 -3.425568e-04 -1.752828e-03 6.229919e-05 -7.019400e-04 3.731108e-03
<VARIANCE> 39
 7.253213e+01 8.346233e+01 7.664436e+01 5.848197e+01 4.319399e+01 3.298040e+01 4.425302e+01 6.585337e+01 4.398727e+01 3.067871e+01 3.043237e+01 2.292216e+01 1.380806e+02 6.464307e-01 6.017782e-01 9.993569e-01 1.116171e+00 1.100068e+00 1.079231e+00 1.377475e+00 1.284510e+00 1.235036e+00 1.114474e+00 1.017598e+00 9.698400e-01 6.431782e-01 7.439683e-02 9.010494e-02 1.381397e-01 1.735990e-01 1.790583e-01 1.889310e-01 2.323567e-01 2.261911e-01 2.275505e-01 2.027036e-01 1.847914e-01 1.741113e-01 6.163649e-02
<GCONST> 9.812036e+01
<STATE> 5
<MEAN> 39
 -1.232167e+01 -2.919065e+00 6.695459e+00 -8.115664e+00 7.175406e+00 -1.315096e+01 1.069328e+01 -1.183416e+01 2.677139e+00 -6.716449e+00 2.696243e+00 -4.713066e+00 5.939366e+01 2.334756e-03 4.963785e-05 -8.909996e-04 4.926893e-03 -2.929782e-03 4.363639e-04 1.171384e-03 1.689500e-03 -2.335182e-03 -3.284774e-03 -5.174598e-03 -3.573383e-05 -3.549656e-03 2.680737e-04 -2.106485e-04 1.308036e-04 8.216390e-04 -3.850554e-04 1.793137e-03 -3.646924e-04 1.002822e-03 -5.643868e-04 4.436130e-04 -8.952405e-04 6.837095e-04 -6.085618e-04
<VARIANCE> 39
 6.680990e+01 2.985707e+01 3.875949e+01 2.972107e+01 3.659155e+01 5.572467e+01 2.742978e+01 4.344990e+01 5.695727e+01 2.732408e+01 3.653397e+01 3.225584e+01 5.742065e+01 1.409823e+00 1.525169e+00 1.552417e+00 1.535974e+00 1.608799e+00 2.288130e+00 1.598233e+00 1.844948e+00 2.649307e+00 1.779930e+00 2.130377e+00 1.734974e+00 1.259657e+00 1.607216e-01 2.520908e-01 2.370192e-01 2.730770e-01 2.736748e-01 3.660701e-01 2.711896e-01 3.162410e-01 4.418629e-01 3.260402e-01 3.756685e-01 2.900378e-01 1.618913e-01
<GCONST> 1.099330e+02
<TRANSP> 6
 0.000000e+00 9.888839e-01 1.111607e-02 0.000000e+00 0.000000e+00 0.000000e+00
 0.000000e+00 9.967692e-01 2.100718e-03 1.130046e-03 0.000000e+00 0.000000e+00
 0.000000e+00 0.000000e+00 9.973050e-01 2.649212e-03 4.582509e-05 0.000000e+00
 0.000000e+00 0.000000e+00 0.000000e+00 9.925041e-01 7.495924e-03 0.000000e+00
 0.000000e+00 0.000000e+00 0.000000e+00 0.000000e+00 9.921160e-01 7.884030e-03
 0.000000e+00 0.000000e+00 0.000000e+00 0.000000e+00 0.000000e+00 0.000000e+00
<ENDHMM>
