~o
<STREAMINFO> 1 39
<VECSIZE> 39<NULLD><MFCC_D_A_0><DIAGC>
~h "satu"
<BEGINHMM>
<NUMSTATES> 6
<STATE> 2
<MEAN> 39
 -2.321566e+01 -8.418595e+00 8.453774e+00 -1.631217e+01 5.526135e+00 -5.013238e+00 1.793914e+01 -1.564561e+01 8.179123e+00 -5.569392e+00 4.216090e+00 -5.174580e+00 7.692653e+01 2.222164e+00 -7.299104e-01 -2.123763e+00 8.585835e-02 -1.436820e+00 -7.449811e-03 4.157620e-01 4.156608e-01 -4.776236e-01 -1.162197e+00 -7.363366e-01 -3.279347e-01 6.168646e-01 2.407966e-01 -1.585523e-01 -2.229123e-01 2.888600e-01 -4.304639e-01 2.074935e-02 7.118017e-02 -1.311272e-01 3.047280e-01 -2.310175e-01 -8.993816e-02 1.522040e-02 7.853107e-02
<VARIANCE> 39
 1.328089e+02 3.763800e+01 1.126436e+02 9.564064e+01 8.336356e+01 1.449743e+01 9.422630e+01 8.105128e+01 5.788032e+01 5.157326e+01 2.026375e+01 1.523808e+01 2.573334e+02 1.033559e+01 1.462157e+00 3.426290e+00 1.166907e+00 7.949085e+00 6.743048e-01 1.980437e+00 1.357491e+00 8.858775e+00 3.047728e+00 1.448498e+00 6.389544e-01 1.001278e+00 1.496530e+00 2.091011e-01 2.892386e-01 1.553768e-01 4.922617e-01 2.003786e-01 3.421805e-01 3.746592e-01 2.692488e+00 3.130946e-01 2.242692e-01 1.663315e-01 2.115998e-01
<GCONST> 1.211431e+02
<STATE> 3
<MEAN> 39
 -2.467824e+01 4.651993e-02 -8.735635e+00 2.835481e+00 -5.856049e+00 3.180795e+00 2.608256e+00 2.046294e+00 -5.163007e-01 -9.284713e-01 6.488847e-01 -2.276523e+00 4.471769e+01 1.117524e-01 -1.995131e-01 1.520773e-02 5.887662e-01 -2.060756e-01 6.936876e-01 8.523932e-01 -1.586956e-01 5.805175e-01 -2.714280e-01 -1.202078e-01 -3.668104e-01 1.089000e-01 3.866181e-01 4.958751e-02 5.060560e-01 1.024610e-01 -1.506989e-01 -1.634958e-02 -2.410776e-01 -3.198180e-01 2.146848e-01 1.627109e-01 7.877095e-02 3.062435e-01 3.869793e-01
<VARIANCE> 39
 1.380504e+02 5.189807e+01 2.149885e+01 4.691247e+01 2.363969e+01 1.614672e+01 1.318595e+02 6.815735e+01 1.940600e+01 5.242393e+01 1.043795e+01 8.732690e+00 4.357010e+02 5.966775e-01 1.125558e+00 8.670541e-01 2.258550e+00 2.752782e+00 4.713624e-01 3.475546e-01 1.766916e+00 3.798519e+00 8.095249e-01 1.478410e-01 5.315771e-01 1.412764e-01 1.156007e+00 6.042704e-02 1.513603e-01 8.829807e-02 1.657483e-01 4.145865e-02 4.149663e-02 3.545292e-02 5.938741e-02 2.275163e-02 2.906864e-02 8.257074e-02 6.682611e-01
<GCONST> 8.518203e+01
<STATE> 4
<MEAN> 39
 -6.248984e+00 -4.605217e+00 1.616789e+00 2.168968e-01 -3.981187e+00 3.277643e-01 2.146389e+00 -3.969081e+00 1.281308e+00 -3.149682e+00 -5.620293e+00 2.682717e-04 6.713945e+01 5.240161e-03 4.070344e-03 6.272612e-03 3.644021e-03 1.373478e-02 5.313512e-03 -3.881905e-03 9.029196e-03 -5.461244e-03 5.965462e-03 -6.094115e-03 4.968896e-03 1.142012e-03 -2.070756e-03 1.405478e-03 -5.586399e-05 -1.568311e-03 3.019085e-03 -6.519314e-04 -1.996615e-03 2.478297e-03 -1.863190e-03 1.508721e-03 2.254188e-04 -1.124080e-05 -2.227545e-03
<VARIANCE> 39
 7.733703e+01 7.202357e+01 5.135748e+01 9.256349e+01 7.521484e+01 1.311365e+02 1.744484e+02 1.022650e+02 6.547322e+01 4.265435e+01 4.188847e+01 2.907148e+01 1.678475e+02 1.023962e+00 1.122498e+00 1.477585e+00 1.968969e+00 2.279180e+00 2.298144e+00 2.929824e+00 2.480819e+00 2.024343e+00 1.591518e+00 1.779019e+00 1.503664e+00 1.322816e+00 1.337686e-01 1.636029e-01 2.163104e-01 3.179279e-01 3.159512e-01 3.636987e-01 4.555160e-01 3.964840e-01 3.526506e-01 2.905342e-01 3.317607e-01 2.668355e-01 1.571750e-01
<GCONST> 1.182706e+02
<STATE> 5
<MEAN> 39
 -1.240295e+01 -2.051244e+00 -2.703670e+00 1.990538e+00 2.738830e+00 3.825718e+00 4.912439e+00 2.165655e+00 -1.909791e+00 8.829604e-01 -2.582973e+00 3.839466e-01 5.869734e+01 1.346568e-01 1.241930e-01 1.578567e-02 -2.680413e-01 3.692120e-01 2.503712e-01 -6.841221e-01 4.487754e-01 -4.497051e-01 1.377765e-01 6.039882e-01 3.415025e-01 -1.873976e-01 3.934824e-02 4.945576e-02 7.463114e-02 -2.933274e-01 -2.397050e-01 -1.550305e-02 1.729225e-01 1.360864e-01 1.726837e-02 -1.860733e-01 9.098159e-02 6.005441e-02 6.973553e-02
<VARIANCE> 39
 1.780762e+01 1.660389e+01 1.521085e-01 1.898459e+01 5.431431e+01 3.313025e+01 4.695115e+01 2.670577e+01 2.534612e+01 1.001955e+01 2.616555e+00 5.593808e+00 6.853883e+01 8.077760e-03 5.684625e-02 2.983167e-01 1.114799e+00 3.727641e-01 1.124311e+00 1.083041e+00 1.479625e+00 1.728349e+00 4.180081e-01 4.070542e-01 2.453777e-01 1.714304e-01 3.844110e-03 3.154345e-03 5.940716e-03 2.727767e-02 3.803875e-02 1.184897e-01 8.640442e-02 7.843047e-04 2.877119e-02 1.113242e-01 2.637761e-02 2.135305e-01 5.727229e-03
<GCONST> 4.079203e+01
<TRANSP> 6
 0.000000e+00 1.000000e+00 0.000000e+00 0.000000e+00 0.000000e+00 0.000000e+00
 0.000000e+00 7.692181e-01 2.307818e-01 0.000000e+00 0.000000e+00 0.000000e+00
 0.000000e+00 0.000000e+00 5.715519e-01 4.284481e-01 0.000000e+00 0.000000e+00
 0.000000e+00 0.000000e+00 0.000000e+00 9.985436e-01 1.456398e-03 0.000000e+00
 0.000000e+00 0.000000e+00 0.000000e+00 0.000000e+00 4.001094e-01 5.998906e-01
 0.000000e+00 0.000000e+00 0.000000e+00 0.000000e+00 0.000000e+00 0.000000e+00
<ENDHMM>
