~o
<STREAMINFO> 1 39
<VECSIZE> 39<NULLD><MFCC_D_A_0><DIAGC>
~h "nol"
<BEGINHMM>
<NUMSTATES> 6
<STATE> 2
<MEAN> 39
 -6.547580e+00 6.470777e+00 2.939485e+00 8.834566e+00 7.201473e-01 -1.189364e+00 1.813083e+00 4.206486e+00 -7.459437e-01 -4.353027e-02 9.305876e-01 -3.558660e+00 6.785400e+01 4.978201e-02 -2.560859e-02 1.898239e-02 -9.291049e-03 -5.559889e-03 6.259912e-03 2.239701e-02 -1.780086e-02 1.631332e-02 -8.338440e-03 -4.623061e-02 9.663309e-03 6.988824e-02 -3.501828e-03 4.698643e-03 3.813167e-03 4.685129e-04 9.779434e-04 -6.323678e-03 4.935754e-04 -2.511548e-03 9.044650e-03 4.683828e-03 3.888343e-03 7.302297e-03 2.012193e-03
<VARIANCE> 39
 8.772498e+01 6.552454e+01 4.660931e+01 4.584698e+01 7.359622e+01 5.339367e+01 5.222502e+01 2.978213e+01 3.716576e+01 2.900322e+01 3.401170e+01 2.900808e+01 9.219537e+01 2.844445e+00 3.004448e+00 2.390429e+00 3.664476e+00 3.659485e+00 4.520888e+00 3.835848e+00 2.037657e+00 2.885144e+00 1.565507e+00 2.134345e+00 2.118259e+00 3.001597e+00 3.616503e-01 4.357673e-01 4.092427e-01 6.376101e-01 4.997407e-01 7.654043e-01 6.939929e-01 3.513453e-01 5.522471e-01 2.918463e-01 3.643675e-01 3.517028e-01 4.468102e-01
<GCONST> 1.250723e+02
<STATE> 3
<MEAN> 39
 -2.246567e+01 -3.032008e+00 4.313697e+00 -4.115251e+00 -2.672271e+00 -2.221903e+00 6.869563e+00 -8.803659e+00 5.225080e+00 2.347735e+00 5.508000e-01 9.347600e-01 6.173714e+01 -7.148151e-01 5.065414e-01 3.950922e-01 2.067077e-02 1.413170e+00 3.458689e-01 1.604196e+00 -2.831281e-01 4.216067e-01 6.139460e-01 5.725358e-01 -1.219047e-01 4.610495e-01 1.347342e-01 2.439656e-01 -1.866484e-01 2.883720e-01 4.172748e-01 1.295486e-01 -7.186032e-02 2.268170e-01 1.668684e-01 -5.381161e-01 -2.096248e-01 -4.736555e-01 1.958278e-01
<VARIANCE> 39
 4.433558e+01 2.854309e+01 1.323793e+02 1.206089e+02 7.858201e+01 9.028267e+00 1.077015e+02 1.448748e+02 4.100892e+01 1.050022e+01 3.722123e+01 1.568191e+01 1.764324e+02 3.463815e-01 1.049914e+00 3.445837e-01 5.951161e-01 1.042838e+00 7.173061e-02 5.388347e-01 1.119204e-01 2.455463e-02 5.408612e-01 1.695896e+00 2.795334e-02 1.961376e-02 3.979721e-04 4.944056e-03 1.319443e-01 7.197143e-02 1.867780e-02 2.582037e-01 3.366721e-02 1.297380e-01 3.511596e-01 8.611937e-02 1.420105e-02 9.281519e-02 2.465940e-02
<GCONST> 6.063062e+01
<STATE> 4
<MEAN> 39
 -6.370111e+00 -6.466219e+00 1.401415e+00 -1.330577e+00 -4.704605e+00 5.457075e-01 2.327632e+00 -5.396823e+00 1.653153e+00 -3.689723e+00 -6.630737e+00 5.463955e-01 6.701929e+01 1.559464e-02 2.052220e-03 -1.208934e-02 8.698856e-03 3.150847e-03 7.227256e-03 -4.571058e-03 1.638135e-02 -1.099651e-02 -2.300220e-03 -6.127944e-03 5.041447e-04 -6.299674e-03 1.247558e-03 -5.359382e-04 -2.602257e-05 1.343713e-04 -1.110222e-03 1.758636e-04 -2.708147e-03 6.979561e-04 -8.825951e-04 8.242418e-04 -3.885072e-04 8.777378e-04 -1.152338e-03
<VARIANCE> 39
 7.924962e+01 4.905842e+01 5.274225e+01 8.736787e+01 7.185754e+01 1.430093e+02 1.961741e+02 1.020236e+02 6.953011e+01 4.320790e+01 3.557183e+01 2.673269e+01 1.847000e+02 8.213162e-01 8.141301e-01 1.371172e+00 1.684690e+00 2.107670e+00 1.914265e+00 2.767065e+00 2.551384e+00 1.944316e+00 1.615697e+00 1.715494e+00 1.395438e+00 1.038781e+00 1.107834e-01 1.184022e-01 1.857625e-01 2.633525e-01 2.877880e-01 2.944006e-01 4.144628e-01 4.037159e-01 3.361916e-01 2.899453e-01 3.251503e-01 2.516301e-01 1.119385e-01
<GCONST> 1.148151e+02
<STATE> 5
<MEAN> 39
 -1.240436e+01 -2.046708e+00 -2.703537e+00 1.989171e+00 2.751260e+00 3.829219e+00 4.927762e+00 2.177545e+00 -1.898635e+00 8.824579e-01 -2.580687e+00 3.884135e-01 5.870409e+01 1.345406e-01 1.247430e-01 1.623379e-02 -2.660773e-01 3.703296e-01 2.498549e-01 -6.831661e-01 4.514000e-01 -4.480603e-01 1.387713e-01 6.029519e-01 3.406920e-01 -1.878387e-01 3.924200e-02 4.955360e-02 7.449970e-02 -2.931662e-01 -2.397376e-01 -1.578085e-02 1.733297e-01 1.360763e-01 1.756986e-02 -1.853016e-01 9.126566e-02 5.954510e-02 6.965943e-02
<VARIANCE> 39
 1.783620e+01 1.664579e+01 1.518272e-01 1.897996e+01 5.425605e+01 3.318961e+01 4.694279e+01 2.674430e+01 2.538116e+01 1.000154e+01 2.612253e+00 5.588512e+00 6.851881e+01 8.079004e-03 5.686028e-02 2.989821e-01 1.113923e+00 3.726101e-01 1.124508e+00 1.085637e+00 1.478772e+00 1.732959e+00 4.178460e-01 4.078448e-01 2.452384e-01 1.713292e-01 3.839625e-03 3.156882e-03 5.933764e-03 2.731468e-02 3.806503e-02 1.184291e-01 8.631689e-02 7.843788e-04 2.880547e-02 1.114321e-01 2.635233e-02 2.133552e-01 5.740486e-03
<GCONST> 4.080099e+01
<TRANSP> 6
 0.000000e+00 1.000000e+00 0.000000e+00 0.000000e+00 0.000000e+00 0.000000e+00
 0.000000e+00 9.899534e-01 1.004661e-02 0.000000e+00 0.000000e+00 0.000000e+00
 0.000000e+00 0.000000e+00 0.000000e+00 1.000000e+00 0.000000e+00 0.000000e+00
 0.000000e+00 0.000000e+00 0.000000e+00 9.983103e-01 1.689715e-03 0.000000e+00
 0.000000e+00 0.000000e+00 0.000000e+00 0.000000e+00 3.997311e-01 6.002690e-01
 0.000000e+00 0.000000e+00 0.000000e+00 0.000000e+00 0.000000e+00 0.000000e+00
<ENDHMM>
