~o
<STREAMINFO> 1 39
<VECSIZE> 39<NULLD><MFCC_D_A_0><DIAGC>
~h "dua"
<BEGINHMM>
<NUMSTATES> 6
<STATE> 2
<MEAN> 39
 -5.689061e+00 -2.152215e-01 3.352408e+00 -8.924442e-01 -1.769706e+00 -1.038411e+01 1.310849e+01 -8.052662e+00 -2.599821e+00 -4.699306e+00 -5.587455e+00 -2.041324e+00 7.452287e+01 5.334679e-02 3.331681e-03 -1.553622e-02 1.513254e-02 1.195485e-03 1.155758e-02 6.900914e-03 1.533575e-02 -1.755026e-02 -1.104322e-02 -2.291728e-02 8.983205e-03 1.484102e-02 3.927153e-04 -2.307847e-03 -1.071001e-03 -1.021412e-03 -5.132579e-03 -1.215321e-03 -4.366437e-03 2.443528e-03 3.183502e-03 6.040579e-04 -4.025088e-03 1.247646e-03 -1.275326e-03
<VARIANCE> 39
 5.301831e+01 7.806726e+01 4.394920e+01 1.155249e+02 1.295152e+02 1.332914e+02 1.753492e+02 1.738831e+02 5.374649e+01 4.436286e+01 7.692573e+01 3.921257e+01 8.735376e+01 1.900346e+00 2.010288e+00 1.884159e+00 2.971798e+00 4.349483e+00 4.273044e+00 4.918456e+00 4.122497e+00 3.058883e+00 2.237318e+00 2.965513e+00 2.362739e+00 2.241187e+00 2.461183e-01 2.853690e-01 2.795306e-01 4.930202e-01 5.561885e-01 6.631477e-01 7.836687e-01 6.275869e-01 5.427366e-01 3.958534e-01 5.428388e-01 4.072291e-01 3.163032e-01
<GCONST> 1.320069e+02
<STATE> 3
<MEAN> 39
 -1.451330e+01 -2.384417e-01 -2.044901e+00 2.084956e+00 8.229467e-01 4.620743e+00 7.441464e+00 -2.351973e-01 5.751531e-01 -2.913105e+00 -3.010314e+00 -6.174658e-01 5.756638e+01 -2.983859e-01 -6.878231e-01 -2.684971e-01 -7.650297e-04 -7.989345e-01 3.808319e-01 3.875661e-01 9.026197e-01 1.855028e-01 -1.547774e-02 -9.223757e-01 -7.681711e-01 -2.566651e-01 3.558500e-01 1.732212e-01 -7.986201e-03 2.411549e-01 -3.130018e-01 -5.017219e-01 -1.220596e-01 5.497961e-03 2.104082e-01 -1.471562e-02 -2.008616e-01 -1.548428e-01 3.039312e-01
<VARIANCE> 39
 3.104740e+01 1.557391e+01 2.012004e+01 5.041375e+01 7.088982e+01 4.786679e+01 1.556946e+02 3.759115e+00 3.242779e+00 6.009799e+00 9.559282e+00 1.267147e-01 1.127608e+02 2.248327e-03 2.530116e-01 3.533304e-01 1.107638e-01 2.197705e-01 2.067060e+00 5.824296e-02 1.023533e+00 3.280314e-02 5.444111e-01 5.502319e-01 8.554483e-01 1.774851e-01 4.985055e-02 1.547704e-03 1.193150e-01 2.632152e-01 3.137869e-01 6.749672e-01 1.627312e-01 9.190765e-02 2.052990e-02 9.671138e-02 1.194853e-01 3.776836e-03 3.617528e-02
<GCONST> 5.040955e+01
<STATE> 4
<MEAN> 39
 -1.348542e+01 -2.798236e+00 -2.921150e+00 4.920915e+00 -6.843628e+00 6.360723e+00 -1.240717e+00 6.706825e-01 -1.919527e+00 1.002627e+00 -4.860878e+00 1.480653e+00 5.172308e+01 7.550882e-03 -1.491863e-02 1.041465e-02 -9.592310e-03 2.040030e-02 1.391554e-02 -2.227717e-03 1.136401e-02 3.053246e-02 9.139876e-03 -1.670505e-02 -3.050397e-03 2.376038e-02 4.384092e-04 7.768862e-04 2.402006e-03 1.565658e-03 1.378665e-03 -9.527280e-04 -9.167844e-03 -4.437108e-03 7.464643e-03 5.113960e-03 6.540077e-03 6.109487e-03 1.894731e-03
<VARIANCE> 39
 1.029421e+00 2.024554e+00 3.431981e+00 4.324690e+00 5.601081e+00 6.209472e+00 8.800018e+00 7.417824e+00 7.439660e+00 8.628759e+00 6.950105e+00 6.024211e+00 2.955142e+00 8.491167e-02 2.459435e-01 3.326482e-01 4.696234e-01 3.941189e-01 6.396706e-01 5.877816e-01 8.767594e-01 1.018060e+00 1.023754e+00 8.935627e-01 6.907778e-01 5.183882e-02 1.766359e-02 5.667136e-02 6.104479e-02 1.065895e-01 7.734601e-02 1.308131e-01 1.208891e-01 1.794236e-01 2.171936e-01 2.180886e-01 1.844814e-01 1.458654e-01 9.093690e-03
<GCONST> 4.891863e+01
<STATE> 5
<MEAN> 39
 -5.689299e+00 -7.793840e+00 1.263544e+00 -2.523501e-02 -4.821484e+00 6.263669e+00 -4.265381e+00 -2.164473e+00 4.422098e+00 -2.840842e+00 -5.610040e+00 1.010677e+00 6.490858e+01 6.805391e-04 5.319683e-04 -3.601101e-03 1.729894e-03 6.607359e-03 3.934854e-03 -5.150634e-03 7.655090e-03 -7.939058e-03 2.144765e-03 2.772305e-03 1.139704e-03 -4.118889e-03 2.816889e-04 2.169514e-03 1.102815e-03 -4.336974e-04 2.509777e-03 1.170263e-03 1.228456e-03 7.601785e-04 -2.403956e-03 -9.534701e-04 2.300977e-03 8.443817e-04 -7.350639e-04
<VARIANCE> 39
 1.030544e+02 5.646325e+01 6.039430e+01 9.071493e+01 4.719175e+01 3.265527e+01 8.154346e+01 5.516740e+01 6.181237e+01 4.302495e+01 2.571014e+01 2.229425e+01 1.739976e+02 7.685397e-01 6.995868e-01 1.475502e+00 1.566782e+00 1.335687e+00 1.259904e+00 2.011009e+00 1.664069e+00 1.618149e+00 1.291516e+00 1.143303e+00 1.062548e+00 9.317663e-01 1.029892e-01 1.022603e-01 2.035823e-01 2.366122e-01 2.018414e-01 2.015221e-01 2.940600e-01 2.799298e-01 2.771446e-01 2.333060e-01 2.150731e-01 1.944564e-01 8.278245e-02
<GCONST> 1.052193e+02
<TRANSP> 6
 0.000000e+00 1.000000e+00 0.000000e+00 0.000000e+00 0.000000e+00 0.000000e+00
 0.000000e+00 9.959747e-01 4.025323e-03 0.000000e+00 0.000000e+00 0.000000e+00
 0.000000e+00 0.000000e+00 0.000000e+00 1.000000e+00 0.000000e+00 0.000000e+00
 0.000000e+00 0.000000e+00 0.000000e+00 9.846392e-01 1.536083e-02 0.000000e+00
 0.000000e+00 0.000000e+00 0.000000e+00 0.000000e+00 9.973723e-01 2.627767e-03
 0.000000e+00 0.000000e+00 0.000000e+00 0.000000e+00 0.000000e+00 0.000000e+00
<ENDHMM>
