~o
<STREAMINFO> 1 39
<VECSIZE> 39<NULLD><MFCC_D_A_0><DIAGC>
~h "sil"
<BEGINHMM>
<NUMSTATES> 6
<STATE> 2
<MEAN> 39
 -4.669390e+00 -5.340051e+00 2.310506e+00 -1.364342e+00 -3.739342e+00 -9.996642e-01 2.805858e+00 -5.038112e+00 1.989986e+00 -4.173357e+00 -6.000199e+00 -3.766308e-01 7.049213e+01 2.849666e-02 -2.280645e-03 -4.472037e-03 6.158375e-03 1.127721e-03 6.744817e-03 4.023986e-04 6.586287e-03 -4.166806e-03 -2.377681e-03 -1.301306e-02 2.764878e-03 1.266524e-02 5.298176e-04 4.051684e-04 -8.170537e-04 1.998788e-03 -9.712171e-05 -1.710620e-03 -2.391558e-03 1.029290e-03 -1.316161e-03 3.950420e-04 5.493282e-04 1.603829e-03 -1.245134e-03
<VARIANCE> 39
 8.099545e+01 8.325497e+01 6.091837e+01 1.026238e+02 8.962475e+01 1.497939e+02 2.101484e+02 1.187463e+02 7.563218e+01 4.528344e+01 4.814659e+01 3.377201e+01 1.485096e+02 1.348053e+00 1.355231e+00 1.795710e+00 2.334923e+00 2.767168e+00 2.674912e+00 3.399312e+00 2.813429e+00 2.308329e+00 1.792366e+00 2.018457e+00 1.678636e+00 1.609025e+00 1.770910e-01 1.948649e-01 2.534725e-01 3.728472e-01 3.713531e-01 4.158365e-01 5.169047e-01 4.376348e-01 4.019392e-01 3.190850e-01 3.726037e-01 2.931730e-01 1.949275e-01
<GCONST> 1.238258e+02
<STATE> 3
<MEAN> 39
 -1.246238e+01 -3.858277e+00 -5.013270e-01 6.150543e+00 -6.199619e+00 6.641771e+00 -7.389672e-01 -6.596845e-01 -6.025504e-01 1.050472e+00 -5.211811e+00 2.112552e+00 5.407389e+01 -6.919093e-02 1.502390e-02 -5.383390e-02 6.650487e-02 2.932124e-02 -2.203662e-03 -1.961042e-02 7.822117e-02 -5.850686e-02 4.000666e-02 6.701738e-02 1.608646e-02 -1.071666e-01 7.514855e-04 2.861085e-03 2.260002e-02 -1.209652e-02 -2.416974e-02 -1.347847e-03 -1.654126e-02 -2.471343e-02 2.949245e-03 -2.966827e-02 -1.688249e-02 -1.534950e-03 6.629870e-03
<VARIANCE> 39
 2.795177e+00 2.690861e+00 3.034417e+00 4.199979e+00 8.350639e+00 3.401381e+00 9.159617e+00 8.984916e+00 6.793668e+00 5.893812e+00 7.195214e+00 6.630089e+00 6.206038e+00 1.317414e-01 1.676598e-01 3.517741e-01 3.678291e-01 4.623839e-01 3.195987e-01 9.961603e-01 1.008219e+00 8.107364e-01 5.471113e-01 8.099734e-01 8.489841e-01 1.107147e-01 2.409341e-02 3.222635e-02 6.767555e-02 6.651042e-02 8.632736e-02 7.195231e-02 2.061448e-01 2.247577e-01 1.574178e-01 1.035146e-01 1.698270e-01 1.733985e-01 9.726555e-03
<GCONST> 4.923144e+01
<STATE> 4
<MEAN> 39
 -1.350092e+01 -1.968851e+00 -1.578105e+00 6.528582e+00 -5.802433e+00 5.888339e+00 -1.460703e+00 1.184855e-01 -2.514798e+00 1.518510e+00 -4.156434e+00 1.285122e+00 5.160508e+01 -7.817776e-03 5.087268e-03 -5.435050e-03 2.585411e-03 7.606293e-03 -6.359295e-03 -1.365362e-02 -5.826547e-03 -3.795135e-02 -7.257100e-03 6.889955e-03 -4.338568e-03 -1.313626e-02 1.014143e-03 5.742401e-04 3.094983e-04 -7.310600e-03 -1.806635e-03 1.517895e-03 -1.140283e-03 -2.793232e-03 1.136602e-03 2.594186e-03 5.778161e-03 2.189413e-04 2.486562e-03
<VARIANCE> 39
 7.971303e-01 1.159800e+00 1.774775e+00 3.061033e+00 4.797858e+00 5.151065e+00 5.675401e+00 6.774544e+00 7.368014e+00 6.778954e+00 6.098874e+00 5.192793e+00 1.672886e+00 4.389436e-02 8.778721e-02 2.084560e-01 3.276710e-01 4.181708e-01 6.636199e-01 7.724782e-01 8.322901e-01 9.292578e-01 7.219406e-01 5.959581e-01 5.767672e-01 2.177903e-02 8.715631e-03 1.821448e-02 4.567877e-02 6.769912e-02 8.696804e-02 1.500535e-01 1.776918e-01 1.823823e-01 1.885842e-01 1.492490e-01 1.173466e-01 1.237265e-01 3.799936e-03
<GCONST> 3.709790e+01
<STATE> 5
<MEAN> 39
 -1.926468e+01 4.709766e+00 -1.921175e+00 7.783674e+00 2.608834e+00 5.271307e+00 7.215280e+00 3.476359e+00 4.673583e-01 8.270028e-01 1.865848e+00 1.125052e+00 5.338485e+01 1.136737e-03 -7.429134e-03 -2.687599e-02 -8.247387e-02 6.921810e-02 1.284380e-01 7.361582e-02 1.684991e-01 9.647179e-02 -2.070436e-02 -8.310685e-02 5.887047e-03 1.859471e-03 9.789233e-03 6.685731e-03 8.638534e-03 -1.455132e-02 1.456784e-02 2.356803e-02 2.781151e-02 4.725014e-02 6.020294e-02 2.171971e-02 -1.439034e-02 -8.015109e-04 8.127943e-03
<VARIANCE> 39
 3.584249e+00 4.741263e+00 5.015558e+00 7.713342e+00 6.375871e+00 8.855173e+00 1.052588e+01 1.353475e+01 1.771591e+01 9.838097e+00 9.525411e+00 6.894924e+00 4.319725e+00 5.892565e-02 2.517118e-01 4.876328e-01 4.144638e-01 2.976150e-01 5.014730e-01 7.788808e-01 1.628097e+00 1.991807e+00 1.388605e+00 1.060498e+00 9.937738e-01 2.678344e-02 9.482571e-03 5.441683e-02 1.062422e-01 8.257406e-02 5.887431e-02 7.552554e-02 1.250063e-01 3.062414e-01 3.829617e-01 3.028056e-01 2.196063e-01 2.185956e-01 4.973475e-03
<GCONST> 5.646368e+01
<TRANSP> 6
 0.000000e+00 1.000000e+00 0.000000e+00 0.000000e+00 0.000000e+00 0.000000e+00
 0.000000e+00 9.982300e-01 1.770009e-03 0.000000e+00 0.000000e+00 0.000000e+00
 0.000000e+00 0.000000e+00 9.604721e-01 3.952787e-02 0.000000e+00 0.000000e+00
 0.000000e+00 0.000000e+00 0.000000e+00 9.882057e-01 1.179436e-02 0.000000e+00
 0.000000e+00 0.000000e+00 0.000000e+00 0.000000e+00 9.473718e-01 5.262820e-02
 0.000000e+00 0.000000e+00 0.000000e+00 0.000000e+00 0.000000e+00 0.000000e+00
<ENDHMM>
