~o
<STREAMINFO> 1 39
<VECSIZE> 39<NULLD><MFCC_D_A_0><DIAGC>
~h "enam"
<BEGINHMM>
<NUMSTATES> 6
<STATE> 2
<MEAN> 39
 -4.652454e+00 -5.279447e+00 2.280726e+00 -1.312217e+00 -3.652478e+00 -1.092587e+00 2.898729e+00 -5.018279e+00 1.938093e+00 -4.146639e+00 -5.960780e+00 -3.535206e-01 7.053878e+01 3.331525e-02 -3.493701e-03 6.853139e-03 3.339572e-04 -1.512050e-03 2.761445e-03 -4.977447e-04 -2.019872e-03 1.844260e-03 -7.923208e-03 -1.209288e-02 6.597441e-04 2.421798e-02 2.117382e-04 -1.268384e-03 -1.021664e-03 -9.341231e-04 -9.374050e-04 8.172998e-04 -1.892164e-03 3.298922e-04 -4.957615e-04 1.089977e-03 -2.392035e-04 9.169272e-04 -8.048341e-04
<VARIANCE> 39
 8.210606e+01 8.390466e+01 6.144744e+01 1.038319e+02 8.949709e+01 1.511148e+02 2.104536e+02 1.203467e+02 7.646156e+01 4.578043e+01 4.852731e+01 3.416029e+01 1.502118e+02 1.366790e+00 1.365116e+00 1.792562e+00 2.358006e+00 2.794403e+00 2.695742e+00 3.423910e+00 2.838704e+00 2.322936e+00 1.806497e+00 2.028052e+00 1.696220e+00 1.624375e+00 1.793801e-01 1.967470e-01 2.538079e-01 3.762662e-01 3.732788e-01 4.193667e-01 5.217137e-01 4.421141e-01 4.044067e-01 3.223339e-01 3.730958e-01 2.956710e-01 1.976244e-01
<GCONST> 1.241497e+02
<STATE> 3
<MEAN> 39
 -8.398024e+00 -2.441659e+00 5.562525e+00 -2.055649e+00 -7.882469e-01 1.218077e+00 5.279010e+00 -7.340480e+00 4.043900e+00 -1.787095e+00 -2.332684e+00 -3.140590e-01 6.785249e+01 -4.003517e-01 -8.441421e-01 -8.456105e-01 -5.215323e-01 1.140603e-01 7.975637e-01 1.955950e-01 4.580292e-01 -9.572712e-01 2.026837e-01 -5.523776e-01 -4.307480e-01 -5.600125e-01 -2.125410e-02 1.636517e-01 -2.293866e-01 3.246706e-01 -4.973244e-01 -3.263631e-01 7.685915e-02 4.371118e-01 7.604229e-02 -2.681643e-01 -1.387217e-01 -1.829412e-01 -1.534589e-01
<VARIANCE> 39
 3.238716e+01 7.332208e+01 5.474691e+01 4.411117e+01 6.896044e+01 5.705244e+01 1.529712e+02 3.570642e+00 2.775072e+01 1.525363e+01 1.534740e+01 7.431759e-02 8.041232e+01 2.116859e-02 2.780976e-01 1.475689e+00 4.586748e-01 1.484257e-01 1.876177e+00 5.231941e-01 2.986121e+00 1.084437e+00 1.708345e+00 8.024299e-02 3.143472e-01 1.811138e-02 1.469218e-01 5.598246e-02 3.883104e-02 1.690019e-04 1.514232e-01 1.609043e-01 1.769048e-01 1.283232e-01 1.073290e-01 2.862097e-02 3.885668e-02 2.878510e-01 3.581557e-02
<GCONST> 6.111168e+01
<STATE> 4
<MEAN> 39
 -6.822885e+00 -8.399826e+00 2.643476e+00 -2.777634e+00 -8.280348e+00 4.923534e+00 -2.491492e+00 -4.934068e+00 3.479530e+00 -4.842896e+00 -8.463138e+00 -1.580099e+00 6.527203e+01 -3.209256e-01 1.263457e-01 -6.267532e-01 5.525889e-01 2.691123e-01 7.793490e-02 -7.261913e-02 5.506070e-01 -4.508194e-01 3.338849e-01 1.490010e-01 2.223767e-01 -7.433770e-01 1.566860e-02 9.987362e-02 8.500327e-02 1.128605e-01 5.660738e-02 -1.050105e-01 -3.534359e-02 3.938742e-03 1.707730e-02 -3.410109e-02 8.854569e-02 9.863253e-02 3.738767e-03
<VARIANCE> 39
 1.052851e+01 2.139877e+01 1.858497e+01 2.167982e+01 6.922324e+01 1.791314e+01 1.216278e+02 1.968111e+01 1.686967e+01 1.354822e+01 1.653044e+01 7.459618e+00 3.547787e+01 9.256615e-02 5.319409e-01 1.120180e+00 6.112158e-01 1.193909e+00 1.004380e+00 2.099582e+00 6.611367e-01 1.210636e+00 5.772441e-01 1.313814e+00 7.208162e-01 7.195630e-02 1.697953e-02 5.782353e-02 1.910909e-01 1.459736e-01 2.519982e-01 1.698061e-01 2.181902e-01 1.424825e-01 2.600948e-01 9.946539e-02 3.049567e-01 1.547101e-01 1.714946e-02
<GCONST> 7.798542e+01
<STATE> 5
<MEAN> 39
 -1.423871e+01 -1.273916e+00 -1.427244e+00 6.738155e+00 -4.677388e+00 5.998328e+00 -8.604155e-02 5.245586e-01 -1.705741e+00 1.380459e+00 -3.401025e+00 1.461049e+00 5.217505e+01 -8.026791e-03 6.548813e-03 -9.158315e-03 -1.375718e-02 9.543962e-03 1.981030e-02 6.594757e-03 2.549153e-02 -3.859282e-03 -5.483903e-03 -7.615299e-03 -4.686951e-03 -1.296992e-02 2.594878e-03 -3.484318e-04 1.537416e-03 -8.562635e-03 -9.988231e-04 4.487843e-03 1.113827e-04 -3.550142e-04 4.685157e-03 1.040591e-03 -4.531260e-03 -4.015368e-03 3.101602e-03
<VARIANCE> 39
 5.828820e+00 8.575998e+00 2.746682e+00 3.654135e+00 1.363313e+01 5.385158e+00 1.550368e+01 9.477854e+00 1.027539e+01 6.965550e+00 1.150790e+01 5.779481e+00 2.076960e+00 5.774772e-02 1.280938e-01 2.773369e-01 3.352951e-01 3.826803e-01 5.773104e-01 7.811053e-01 9.866812e-01 1.050528e+00 7.931098e-01 7.059528e-01 6.773716e-01 2.991787e-02 1.169488e-02 2.593204e-02 5.905083e-02 6.793762e-02 7.730244e-02 1.228500e-01 1.744344e-01 2.100371e-01 2.106951e-01 1.652857e-01 1.427399e-01 1.437100e-01 5.089677e-03
<GCONST> 4.879099e+01
<TRANSP> 6
 0.000000e+00 1.000000e+00 0.000000e+00 0.000000e+00 0.000000e+00 0.000000e+00
 0.000000e+00 9.982019e-01 1.798072e-03 0.000000e+00 0.000000e+00 0.000000e+00
 0.000000e+00 0.000000e+00 0.000000e+00 1.000000e+00 0.000000e+00 0.000000e+00
 0.000000e+00 0.000000e+00 0.000000e+00 9.060348e-01 9.396516e-02 0.000000e+00
 0.000000e+00 0.000000e+00 0.000000e+00 0.000000e+00 9.920661e-01 7.933887e-03
 0.000000e+00 0.000000e+00 0.000000e+00 0.000000e+00 0.000000e+00 0.000000e+00
<ENDHMM>
