~o
<STREAMINFO> 1 39
<VECSIZE> 39<NULLD><MFCC_D_A_0><DIAGC>
~h "lima"
<BEGINHMM>
<NUMSTATES> 6
<STATE> 2
<MEAN> 39
 -6.419280e+00 3.908504e+00 3.559094e+00 4.967413e+00 -1.364382e+00 -3.634469e+00 4.779768e+00 7.086303e-01 -8.360384e-01 -1.816598e+00 -2.133670e-01 -3.870854e+00 6.990512e+01 1.158021e-01 1.306501e-02 -7.700616e-03 3.276516e-02 -5.413058e-02 -3.375962e-02 1.345855e-02 -2.480202e-03 -3.148139e-02 -3.855061e-02 -1.010107e-01 -1.875509e-02 4.874346e-02 3.325948e-03 7.436824e-04 1.481781e-03 2.622895e-03 -2.639294e-02 -2.023770e-02 -4.911647e-03 -3.051467e-03 6.456234e-03 6.207399e-03 -6.677419e-03 -1.250732e-03 -1.426985e-03
<VARIANCE> 39
 8.044733e+01 8.426947e+01 5.310781e+01 9.603054e+01 1.194366e+02 9.992786e+01 8.290830e+01 9.459866e+01 4.324685e+01 4.463401e+01 4.100084e+01 2.731005e+01 9.390053e+01 2.913299e+00 2.689309e+00 2.479916e+00 3.425553e+00 4.452740e+00 4.869949e+00 3.822051e+00 3.336778e+00 3.256385e+00 2.281823e+00 2.629617e+00 2.104135e+00 3.046733e+00 3.672771e-01 3.848836e-01 3.741880e-01 6.063770e-01 5.464720e-01 7.560424e-01 6.673152e-01 5.236688e-01 6.393334e-01 4.157161e-01 4.845288e-01 3.457966e-01 4.455775e-01
<GCONST> 1.318748e+02
<STATE> 3
<MEAN> 39
 -3.475696e+00 2.937752e-01 1.071132e+01 -1.524072e+00 -1.969094e+01 -2.496053e+01 1.390058e+01 -1.501684e+01 -6.244957e+00 -3.715321e+00 -1.153479e+01 -6.549461e+00 7.538718e+01 1.505725e-01 -4.615138e-01 -3.093725e-01 -3.956230e-01 -6.710449e-01 -3.007752e-01 -1.894384e-01 3.234436e-01 -1.399093e-01 4.157200e-03 3.745849e-01 4.803405e-01 2.810092e-01 1.989750e-02 -1.361237e-01 -1.720716e-01 -1.652246e-01 3.143838e-01 1.916494e-01 3.970412e-02 -1.857617e-02 1.308303e-01 -2.338237e-01 -6.863129e-02 2.293402e-01 1.132448e-01
<VARIANCE> 39
 2.287898e+01 6.627007e+00 2.770699e+01 2.752501e+01 3.675338e+01 1.137880e+02 3.674777e+01 5.140704e+01 1.363475e+01 2.135421e+01 2.144419e+01 1.978098e+01 7.944129e+01 2.072599e-01 6.088144e-01 7.148188e-01 2.459174e+00 1.295269e+00 1.618501e+00 1.527664e+00 9.226131e-01 1.251999e+00 3.353197e+00 1.447159e+00 2.430614e+00 7.584801e-01 4.322450e-02 2.830018e-02 6.248900e-02 1.545722e-01 2.934697e-01 2.166443e-01 4.274991e-01 1.964349e-01 1.337561e-01 1.418798e-01 1.405265e-01 6.034847e-01 3.540453e-02
<GCONST> 9.095869e+01
<STATE> 4
<MEAN> 39
 -3.218723e+00 -1.255858e+01 -1.193731e+00 -1.434786e+01 -1.511475e+01 -1.786495e+01 2.673438e+01 -2.115213e+01 5.097438e+00 -1.228174e+01 -8.882099e+00 5.337373e+00 8.405920e+01 -5.771126e-02 -3.535360e-01 -4.323229e-01 -1.852927e-01 9.309484e-02 5.342064e-01 5.497292e-01 -4.551908e-01 6.845329e-01 -4.823639e-03 8.537532e-02 6.082880e-01 5.267597e-02 -5.606773e-02 1.092696e-01 1.670505e-01 9.739356e-02 3.768587e-02 8.300003e-02 -1.072035e-01 9.003036e-02 -8.171177e-02 1.168261e-01 8.111483e-02 -2.239315e-02 -1.108009e-01
<VARIANCE> 39
 1.227364e+01 2.161371e+01 8.215535e+00 3.320710e+01 1.624404e+01 4.659092e+01 9.855235e+01 6.864314e+01 1.838554e+01 1.628959e+01 4.753669e+00 1.914828e+01 8.984536e+01 2.341978e-02 4.912241e-01 3.685389e-01 2.527944e-01 1.208212e+00 7.315361e-01 1.283898e+00 7.179539e-01 3.295013e-01 1.005952e+00 5.235477e-01 3.916600e-01 3.321841e-01 4.808429e-02 5.934650e-02 7.238387e-02 4.564473e-02 1.669572e-01 9.986651e-02 1.643125e-01 7.162480e-02 1.764408e-02 1.641383e-01 1.217143e-01 1.079580e-01 3.520242e-02
<GCONST> 6.856144e+01
<STATE> 5
<MEAN> 39
 -6.515940e+00 -6.501719e+00 1.104759e+00 -7.607492e-01 -4.150061e+00 1.757444e+00 1.203417e+00 -4.725328e+00 1.830585e+00 -3.317583e+00 -6.637969e+00 8.385183e-01 6.612987e+01 -2.801677e-03 6.286706e-03 2.812726e-03 6.561401e-03 2.488900e-02 1.374055e-02 -8.937195e-03 1.866663e-02 -1.049690e-02 6.486161e-03 5.727138e-03 -6.910434e-03 -9.129621e-03 8.855347e-04 6.699763e-04 -2.440605e-04 -2.541177e-04 9.528504e-04 5.003732e-04 -1.893153e-04 7.285212e-04 -7.702102e-04 -2.505577e-04 1.332833e-03 -4.414877e-04 3.279533e-04
<VARIANCE> 39
 8.217126e+01 4.893820e+01 5.071041e+01 8.593033e+01 6.082465e+01 1.207574e+02 1.863934e+02 9.476027e+01 6.972295e+01 4.130762e+01 3.513620e+01 2.465545e+01 1.838805e+02 7.165623e-01 7.772784e-01 1.312488e+00 1.645466e+00 1.859301e+00 1.711693e+00 2.744694e+00 2.312659e+00 1.832164e+00 1.436931e+00 1.594825e+00 1.351273e+00 9.378698e-01 9.793866e-02 1.151203e-01 1.842618e-01 2.549069e-01 2.659547e-01 2.752777e-01 4.082602e-01 3.722199e-01 3.109771e-01 2.637169e-01 2.990738e-01 2.454153e-01 9.654678e-02
<GCONST> 1.123510e+02
<TRANSP> 6
 0.000000e+00 1.000000e+00 0.000000e+00 0.000000e+00 0.000000e+00 0.000000e+00
 0.000000e+00 9.921531e-01 7.846867e-03 0.000000e+00 0.000000e+00 0.000000e+00
 0.000000e+00 0.000000e+00 8.422554e-01 1.577446e-01 0.000000e+00 0.000000e+00
 0.000000e+00 0.000000e+00 0.000000e+00 8.751303e-01 1.248697e-01 0.000000e+00
 0.000000e+00 0.000000e+00 0.000000e+00 0.000000e+00 9.981894e-01 1.810528e-03
 0.000000e+00 0.000000e+00 0.000000e+00 0.000000e+00 0.000000e+00 0.000000e+00
<ENDHMM>
