~o
<STREAMINFO> 1 39
<VECSIZE> 39<NULLD><MFCC_D_A_0><DIAGC>
~h "sil"
<BEGINHMM>
<NUMSTATES> 6
<STATE> 2
<MEAN> 39
 0.000000e+00 0.000000e+00 0.000000e+00 0.000000e+00 0.000000e+00 0.000000e+00 0.000000e+00 0.000000e+00 0.000000e+00 0.000000e+00 0.000000e+00 0.000000e+00 0.000000e+00 0.000000e+00 0.000000e+00 0.000000e+00 0.000000e+00 0.000000e+00 0.000000e+00 0.000000e+00 0.000000e+00 0.000000e+00 0.000000e+00 0.000000e+00 0.000000e+00 0.000000e+00 0.000000e+00 0.000000e+00 0.000000e+00 0.000000e+00 0.000000e+00 0.000000e+00 0.000000e+00 0.000000e+00 0.000000e+00 0.000000e+00 0.000000e+00 0.000000e+00 0.000000e+00
<VARIANCE> 39
 8.073375e+01 7.181508e+01 5.220790e+01 9.399115e+01 7.574606e+01 1.300547e+02 1.750877e+02 1.029296e+02 6.550351e+01 4.275753e+01 4.232265e+01 2.905011e+01 1.715073e+02 1.109011e+00 1.126106e+00 1.513184e+00 1.964772e+00 2.325930e+00 2.281783e+00 2.916308e+00 2.471205e+00 2.075727e+00 1.604167e+00 1.772959e+00 1.493821e+00 1.316959e+00 1.462953e-01 1.634032e-01 2.172691e-01 3.163047e-01 3.173656e-01 3.611712e-01 4.529843e-01 3.947813e-01 3.663098e-01 2.899019e-01 3.295206e-01 2.658558e-01 1.594966e-01
<GCONST> 1.186285e+02
<STATE> 3
<MEAN> 39
 0.000000e+00 0.000000e+00 0.000000e+00 0.000000e+00 0.000000e+00 0.000000e+00 0.000000e+00 0.000000e+00 0.000000e+00 0.000000e+00 0.000000e+00 0.000000e+00 0.000000e+00 0.000000e+00 0.000000e+00 0.000000e+00 0.000000e+00 0.000000e+00 0.000000e+00 0.000000e+00 0.000000e+00 0.000000e+00 0.000000e+00 0.000000e+00 0.000000e+00 0.000000e+00 0.000000e+00 0.000000e+00 0.000000e+00 0.000000e+00 0.000000e+00 0.000000e+00 0.000000e+00 0.000000e+00 0.000000e+00 0.000000e+00 0.000000e+00 0.000000e+00 0.000000e+00
<VARIANCE> 39
 8.073375e+01 7.181508e+01 5.220790e+01 9.399115e+01 7.574606e+01 1.300547e+02 1.750877e+02 1.029296e+02 6.550351e+01 4.275753e+01 4.232265e+01 2.905011e+01 1.715073e+02 1.109011e+00 1.126106e+00 1.513184e+00 1.964772e+00 2.325930e+00 2.281783e+00 2.916308e+00 2.471205e+00 2.075727e+00 1.604167e+00 1.772959e+00 1.493821e+00 1.316959e+00 1.462953e-01 1.634032e-01 2.172691e-01 3.163047e-01 3.173656e-01 3.611712e-01 4.529843e-01 3.947813e-01 3.663098e-01 2.899019e-01 3.295206e-01 2.658558e-01 1.594966e-01
<GCONST> 1.186285e+02
<STATE> 4
<MEAN> 39
 0.000000e+00 0.000000e+00 0.000000e+00 0.000000e+00 0.000000e+00 0.000000e+00 0.000000e+00 0.000000e+00 0.000000e+00 0.000000e+00 0.000000e+00 0.000000e+00 0.000000e+00 0.000000e+00 0.000000e+00 0.000000e+00 0.000000e+00 0.000000e+00 0.000000e+00 0.000000e+00 0.000000e+00 0.000000e+00 0.000000e+00 0.000000e+00 0.000000e+00 0.000000e+00 0.000000e+00 0.000000e+00 0.000000e+00 0.000000e+00 0.000000e+00 0.000000e+00 0.000000e+00 0.000000e+00 0.000000e+00 0.000000e+00 0.000000e+00 0.000000e+00 0.000000e+00
<VARIANCE> 39
 8.073375e+01 7.181508e+01 5.220790e+01 9.399115e+01 7.574606e+01 1.300547e+02 1.750877e+02 1.029296e+02 6.550351e+01 4.275753e+01 4.232265e+01 2.905011e+01 1.715073e+02 1.109011e+00 1.126106e+00 1.513184e+00 1.964772e+00 2.325930e+00 2.281783e+00 2.916308e+00 2.471205e+00 2.075727e+00 1.604167e+00 1.772959e+00 1.493821e+00 1.316959e+00 1.462953e-01 1.634032e-01 2.172691e-01 3.163047e-01 3.173656e-01 3.611712e-01 4.529843e-01 3.947813e-01 3.663098e-01 2.899019e-01 3.295206e-01 2.658558e-01 1.594966e-01
<GCONST> 1.186285e+02
<STATE> 5
<MEAN> 39
 0.000000e+00 0.000000e+00 0.000000e+00 0.000000e+00 0.000000e+00 0.000000e+00 0.000000e+00 0.000000e+00 0.000000e+00 0.000000e+00 0.000000e+00 0.000000e+00 0.000000e+00 0.000000e+00 0.000000e+00 0.000000e+00 0.000000e+00 0.000000e+00 0.000000e+00 0.000000e+00 0.000000e+00 0.000000e+00 0.000000e+00 0.000000e+00 0.000000e+00 0.000000e+00 0.000000e+00 0.000000e+00 0.000000e+00 0.000000e+00 0.000000e+00 0.000000e+00 0.000000e+00 0.000000e+00 0.000000e+00 0.000000e+00 0.000000e+00 0.000000e+00 0.000000e+00
<VARIANCE> 39
 8.073375e+01 7.181508e+01 5.220790e+01 9.399115e+01 7.574606e+01 1.300547e+02 1.750877e+02 1.029296e+02 6.550351e+01 4.275753e+01 4.232265e+01 2.905011e+01 1.715073e+02 1.109011e+00 1.126106e+00 1.513184e+00 1.964772e+00 2.325930e+00 2.281783e+00 2.916308e+00 2.471205e+00 2.075727e+00 1.604167e+00 1.772959e+00 1.493821e+00 1.316959e+00 1.462953e-01 1.634032e-01 2.172691e-01 3.163047e-01 3.173656e-01 3.611712e-01 4.529843e-01 3.947813e-01 3.663098e-01 2.899019e-01 3.295206e-01 2.658558e-01 1.594966e-01
<GCONST> 1.186285e+02
<TRANSP> 6
 0.000000e+00 5.000000e-01 5.000000e-01 0.000000e+00 0.000000e+00 0.000000e+00
 0.000000e+00 4.000000e-01 3.000000e-01 3.000000e-01 0.000000e+00 0.000000e+00
 0.000000e+00 0.000000e+00 4.000000e-01 3.000000e-01 3.000000e-01 0.000000e+00
 0.000000e+00 0.000000e+00 0.000000e+00 4.000000e-01 3.000000e-01 3.000000e-01
 0.000000e+00 0.000000e+00 0.000000e+00 0.000000e+00 5.000000e-01 5.000000e-01
 0.000000e+00 0.000000e+00 0.000000e+00 0.000000e+00 0.000000e+00 0.000000e+00
<ENDHMM>
