~o
<STREAMINFO> 1 39
<VECSIZE> 39<NULLD><MFCC_D_A_0><DIAGC>
~h "dua"
<BEGINHMM>
<NUMSTATES> 6
<STATE> 2
<MEAN> 39
 -5.687581e+00 -2.189187e-01 3.353436e+00 -8.981205e-01 -1.770518e+00 -1.039010e+01 1.311578e+01 -8.059974e+00 -2.600691e+00 -4.702251e+00 -5.591263e+00 -2.040594e+00 7.452880e+01 5.323362e-02 3.370226e-03 -1.558372e-02 1.512581e-02 1.203095e-03 1.154431e-02 6.883006e-03 1.538029e-02 -1.755302e-02 -1.103564e-02 -2.289854e-02 8.992709e-03 1.470530e-02 3.969268e-04 -2.305659e-03 -1.072206e-03 -1.017710e-03 -5.122268e-03 -1.200738e-03 -4.363594e-03 2.451383e-03 3.179990e-03 6.084267e-04 -4.021400e-03 1.238686e-03 -1.275787e-03
<VARIANCE> 39
 5.297730e+01 7.805613e+01 4.394141e+01 1.155184e+02 1.295504e+02 1.332816e+02 1.753393e+02 1.738868e+02 5.375924e+01 4.435978e+01 7.693134e+01 3.922027e+01 8.723821e+01 1.899150e+00 2.009868e+00 1.883971e+00 2.971568e+00 4.350239e+00 4.273238e+00 4.919474e+00 4.123933e+00 3.059234e+00 2.237876e+00 2.966239e+00 2.363073e+00 2.240268e+00 2.459259e-01 2.853073e-01 2.794720e-01 4.929609e-01 5.562719e-01 6.631461e-01 7.837869e-01 6.277890e-01 5.427739e-01 3.959447e-01 5.429874e-01 4.072957e-01 3.161451e-01
<GCONST> 1.320047e+02
<STATE> 3
<MEAN> 39
 -1.450947e+01 -2.332325e-01 -2.033781e+00 2.074597e+00 8.436061e-01 4.614020e+00 7.470262e+00 -2.374697e-01 5.795692e-01 -2.918985e+00 -3.011133e+00 -6.170036e-01 5.758750e+01 -2.983486e-01 -6.886988e-01 -2.693571e-01 3.458303e-05 -7.994794e-01 3.838044e-01 3.870989e-01 9.042383e-01 1.853444e-01 -1.404863e-02 -9.231690e-01 -7.702298e-01 -2.576813e-01 3.556164e-01 1.731783e-01 -8.756822e-03 2.407600e-01 -3.139250e-01 -5.032369e-01 -1.230562e-01 5.038904e-03 2.105937e-01 -1.490031e-02 -2.007812e-01 -1.547860e-01 3.039021e-01
<VARIANCE> 39
 3.110181e+01 1.556809e+01 2.009659e+01 5.048784e+01 7.077185e+01 4.795040e+01 1.556577e+02 3.765419e+00 3.239755e+00 6.006049e+00 9.574425e+00 1.266718e-01 1.128358e+02 2.252289e-03 2.532953e-01 3.538538e-01 1.105708e-01 2.201401e-01 2.068061e+00 5.828822e-02 1.024879e+00 3.286088e-02 5.448332e-01 5.502472e-01 8.539937e-01 1.773623e-01 4.993667e-02 1.547700e-03 1.191116e-01 2.633412e-01 3.135014e-01 6.741443e-01 1.624702e-01 9.203758e-02 2.052307e-02 9.687892e-02 1.196720e-01 3.777787e-03 3.622983e-02
<GCONST> 5.042305e+01
<STATE> 4
<MEAN> 39
 -1.348541e+01 -2.798094e+00 -2.921001e+00 4.920605e+00 -6.843017e+00 6.360460e+00 -1.239870e+00 6.706311e-01 -1.919414e+00 1.002411e+00 -4.860768e+00 1.480623e+00 5.172371e+01 7.562436e-03 -1.495991e-02 1.035454e-02 -9.618710e-03 2.033061e-02 1.389612e-02 -2.285824e-03 1.144450e-02 3.060107e-02 9.180741e-03 -1.676232e-02 -3.084236e-03 2.376766e-02 4.482161e-04 7.818383e-04 2.397322e-03 1.573511e-03 1.383113e-03 -9.885080e-04 -9.204595e-03 -4.452333e-03 7.471020e-03 5.112424e-03 6.541146e-03 6.128296e-03 1.905543e-03
<VARIANCE> 39
 1.031661e+00 2.025903e+00 3.432245e+00 4.329162e+00 5.608326e+00 6.211525e+00 8.815715e+00 7.417970e+00 7.439555e+00 8.629329e+00 6.950317e+00 6.024128e+00 2.967263e+00 8.493782e-02 2.459690e-01 3.327014e-01 4.696263e-01 3.941993e-01 6.399043e-01 5.878269e-01 8.768464e-01 1.018108e+00 1.023747e+00 8.936672e-01 6.907680e-01 5.186537e-02 1.766537e-02 5.667061e-02 6.104355e-02 1.065964e-01 7.735455e-02 1.308331e-01 1.209096e-01 1.794209e-01 2.171853e-01 2.180805e-01 1.844777e-01 1.458652e-01 9.097961e-03
<GCONST> 4.893306e+01
<STATE> 5
<MEAN> 39
 -5.693851e+00 -7.789725e+00 1.262492e+00 -2.290753e-02 -4.818851e+00 6.263122e+00 -4.261209e+00 -2.162673e+00 4.421369e+00 -2.839550e+00 -5.607764e+00 1.010809e+00 6.490520e+01 6.846673e-04 5.282715e-04 -3.616375e-03 1.752718e-03 6.646081e-03 3.955817e-03 -5.188138e-03 7.700265e-03 -7.947868e-03 2.164392e-03 2.790171e-03 1.160870e-03 -4.135907e-03 2.807585e-04 2.179499e-03 1.110418e-03 -4.304266e-04 2.521726e-03 1.168982e-03 1.236570e-03 7.651639e-04 -2.409046e-03 -9.541116e-04 2.311462e-03 8.446957e-04 -7.382011e-04
<VARIANCE> 39
 1.030812e+02 5.649557e+01 6.037637e+01 9.070232e+01 4.719709e+01 3.264799e+01 8.156875e+01 5.516071e+01 6.179776e+01 4.301697e+01 2.572073e+01 2.228820e+01 1.739727e+02 7.683527e-01 6.994374e-01 1.475115e+00 1.566363e+00 1.335443e+00 1.259708e+00 2.010789e+00 1.664049e+00 1.618133e+00 1.291454e+00 1.143294e+00 1.062488e+00 9.314753e-01 1.029677e-01 1.022464e-01 2.035424e-01 2.365528e-01 2.018113e-01 2.014943e-01 2.940259e-01 2.799429e-01 2.771418e-01 2.333061e-01 2.150705e-01 1.944638e-01 8.275950e-02
<GCONST> 1.052160e+02
<TRANSP> 6
 0.000000e+00 1.000000e+00 0.000000e+00 0.000000e+00 0.000000e+00 0.000000e+00
 0.000000e+00 9.959819e-01 4.018099e-03 0.000000e+00 0.000000e+00 0.000000e+00
 0.000000e+00 0.000000e+00 0.000000e+00 1.000000e+00 0.000000e+00 0.000000e+00
 0.000000e+00 0.000000e+00 0.000000e+00 9.845871e-01 1.541287e-02 0.000000e+00
 0.000000e+00 0.000000e+00 0.000000e+00 0.000000e+00 9.973641e-01 2.635912e-03
 0.000000e+00 0.000000e+00 0.000000e+00 0.000000e+00 0.000000e+00 0.000000e+00
<ENDHMM>
