~o
<STREAMINFO> 1 39
<VECSIZE> 39<NULLD><MFCC_D_A_0><DIAGC>
~h "enam"
<BEGINHMM>
<NUMSTATES> 6
<STATE> 2
<MEAN> 39
 -4.651390e+00 -5.282185e+00 2.279362e+00 -1.308355e+00 -3.653572e+00 -1.078158e+00 2.882098e+00 -5.009415e+00 1.943838e+00 -4.143953e+00 -5.958265e+00 -3.523917e-01 7.053149e+01 3.330479e-02 -3.514003e-03 6.896084e-03 3.124163e-04 -1.512695e-03 2.769655e-03 -4.991636e-04 -2.050624e-03 1.866727e-03 -7.925349e-03 -1.208708e-02 6.471425e-04 2.425752e-02 2.103295e-04 -1.267363e-03 -1.021978e-03 -9.344324e-04 -9.367000e-04 8.143235e-04 -1.889877e-03 3.243288e-04 -4.962263e-04 1.089230e-03 -2.378386e-04 9.164565e-04 -8.037052e-04
<VARIANCE> 39
 8.215044e+01 8.392639e+01 6.146662e+01 1.038327e+02 8.942964e+01 1.509621e+02 2.102733e+02 1.202444e+02 7.644972e+01 4.578208e+01 4.849698e+01 3.414994e+01 1.502640e+02 1.366686e+00 1.364856e+00 1.792699e+00 2.357653e+00 2.792339e+00 2.694075e+00 3.421733e+00 2.836301e+00 2.322006e+00 1.805702e+00 2.026570e+00 1.695340e+00 1.624097e+00 1.793691e-01 1.967155e-01 2.538371e-01 3.762034e-01 3.730417e-01 4.191324e-01 5.213746e-01 4.417768e-01 4.042571e-01 3.222010e-01 3.728167e-01 2.955163e-01 1.975621e-01
<GCONST> 1.241360e+02
<STATE> 3
<MEAN> 39
 -8.397708e+00 -2.444363e+00 5.568966e+00 -2.051708e+00 -7.983077e-01 1.229202e+00 5.260886e+00 -7.340573e+00 4.050159e+00 -1.785234e+00 -2.334877e+00 -3.143210e-01 6.784934e+01 -4.003920e-01 -8.437403e-01 -8.463252e-01 -5.213175e-01 1.145294e-01 7.955785e-01 1.958520e-01 4.559732e-01 -9.586142e-01 2.010818e-01 -5.520775e-01 -4.315003e-01 -5.598312e-01 -2.120431e-02 1.636119e-01 -2.293616e-01 3.246836e-01 -4.967712e-01 -3.262524e-01 7.643892e-02 4.376404e-01 7.560592e-02 -2.682091e-01 -1.384315e-01 -1.822537e-01 -1.536829e-01
<VARIANCE> 39
 3.241287e+01 7.339413e+01 5.479810e+01 4.410929e+01 6.899124e+01 5.701872e+01 1.528929e+02 3.573455e+00 2.776453e+01 1.525568e+01 1.536349e+01 7.438075e-02 8.043776e+01 2.118894e-02 2.780124e-01 1.477236e+00 4.588407e-01 1.484900e-01 1.874365e+00 5.233558e-01 2.987595e+00 1.084709e+00 1.706702e+00 8.018212e-02 3.143759e-01 1.809251e-02 1.470480e-01 5.601346e-02 3.885445e-02 1.691386e-04 1.512694e-01 1.609714e-01 1.770473e-01 1.282173e-01 1.072177e-01 2.863332e-02 3.882318e-02 2.875605e-01 3.578274e-02
<GCONST> 6.111605e+01
<STATE> 4
<MEAN> 39
 -6.821952e+00 -8.402335e+00 2.645669e+00 -2.775666e+00 -8.290568e+00 4.927816e+00 -2.504827e+00 -4.936953e+00 3.480917e+00 -4.844564e+00 -8.466437e+00 -1.581233e+00 6.526837e+01 -3.210485e-01 1.268144e-01 -6.267070e-01 5.523687e-01 2.689664e-01 7.739955e-02 -7.133521e-02 5.501150e-01 -4.508139e-01 3.336847e-01 1.489597e-01 2.223000e-01 -7.433710e-01 1.563562e-02 9.975605e-02 8.503181e-02 1.127925e-01 5.649716e-02 -1.046942e-01 -3.520459e-02 4.068672e-03 1.727396e-02 -3.396350e-02 8.847629e-02 9.867066e-02 3.744290e-03
<VARIANCE> 39
 1.053100e+01 2.139985e+01 1.858871e+01 2.168014e+01 6.911237e+01 1.789330e+01 1.214357e+02 1.967877e+01 1.687572e+01 1.354642e+01 1.652178e+01 7.459798e+00 3.547315e+01 9.256124e-02 5.317044e-01 1.120891e+00 6.113136e-01 1.193505e+00 1.003917e+00 2.097444e+00 6.609480e-01 1.210782e+00 5.773557e-01 1.314581e+00 7.208046e-01 7.197178e-02 1.698661e-02 5.783476e-02 1.912143e-01 1.459685e-01 2.519737e-01 1.697740e-01 2.181224e-01 1.424898e-01 2.601593e-01 9.950083e-02 3.051538e-01 1.547043e-01 1.715527e-02
<GCONST> 7.798263e+01
<STATE> 5
<MEAN> 39
 -1.423803e+01 -1.274758e+00 -1.427166e+00 6.738054e+00 -4.678547e+00 5.998504e+00 -8.715153e-02 5.241098e-01 -1.706054e+00 1.380556e+00 -3.401809e+00 1.461094e+00 5.217476e+01 -8.026758e-03 6.548648e-03 -9.153144e-03 -1.375329e-02 9.536090e-03 1.980857e-02 6.593980e-03 2.546187e-02 -3.864192e-03 -5.482716e-03 -7.610455e-03 -4.685050e-03 -1.296729e-02 2.594264e-03 -3.496652e-04 1.536477e-03 -8.559511e-03 -9.978402e-04 4.487903e-03 1.053580e-04 -3.600844e-04 4.675949e-03 1.035972e-03 -4.531041e-03 -4.011744e-03 3.099609e-03
<VARIANCE> 39
 5.825311e+00 8.571365e+00 2.746353e+00 3.652915e+00 1.362510e+01 5.384088e+00 1.549658e+01 9.476151e+00 1.027389e+01 6.965158e+00 1.150424e+01 5.779386e+00 2.074703e+00 5.774817e-02 1.280774e-01 2.773086e-01 3.352925e-01 3.826915e-01 5.773194e-01 7.811035e-01 9.865891e-01 1.050394e+00 7.930349e-01 7.059052e-01 6.773353e-01 2.991694e-02 1.169533e-02 2.592828e-02 5.904485e-02 6.793542e-02 7.730439e-02 1.228578e-01 1.744420e-01 2.100240e-01 2.106727e-01 1.652690e-01 1.427311e-01 1.437002e-01 5.089555e-03
<GCONST> 4.878518e+01
<TRANSP> 6
 0.000000e+00 1.000000e+00 0.000000e+00 0.000000e+00 0.000000e+00 0.000000e+00
 0.000000e+00 9.982026e-01 1.797435e-03 0.000000e+00 0.000000e+00 0.000000e+00
 0.000000e+00 0.000000e+00 0.000000e+00 1.000000e+00 0.000000e+00 0.000000e+00
 0.000000e+00 0.000000e+00 0.000000e+00 9.061095e-01 9.389050e-02 0.000000e+00
 0.000000e+00 0.000000e+00 0.000000e+00 0.000000e+00 9.920767e-01 7.923320e-03
 0.000000e+00 0.000000e+00 0.000000e+00 0.000000e+00 0.000000e+00 0.000000e+00
<ENDHMM>
