~o
<STREAMINFO> 1 39
<VECSIZE> 39<NULLD><MFCC_D_A_0><DIAGC>
~h "sil"
<BEGINHMM>
<NUMSTATES> 6
<STATE> 2
<MEAN> 39
 -4.668563e+00 -5.341249e+00 2.309269e+00 -1.358876e+00 -3.739963e+00 -9.846419e-01 2.788329e+00 -5.027687e+00 1.995670e+00 -4.170023e+00 -5.996675e+00 -3.759036e-01 7.048421e+01 2.848072e-02 -2.287582e-03 -4.432030e-03 6.138441e-03 1.133084e-03 6.740093e-03 4.186086e-04 6.545213e-03 -4.153526e-03 -2.385881e-03 -1.300534e-02 2.752173e-03 1.269877e-02 5.280752e-04 4.049838e-04 -8.166424e-04 1.996632e-03 -9.748011e-05 -1.710803e-03 -2.386010e-03 1.027091e-03 -1.316258e-03 3.963122e-04 5.509572e-04 1.603875e-03 -1.244155e-03
<VARIANCE> 39
 8.103671e+01 8.329044e+01 6.093157e+01 1.026250e+02 8.955059e+01 1.496111e+02 2.099226e+02 1.186327e+02 7.561026e+01 4.528266e+01 4.811753e+01 3.376004e+01 1.485410e+02 1.348008e+00 1.355103e+00 1.795830e+00 2.334584e+00 2.765000e+00 2.673256e+00 3.396896e+00 2.810667e+00 2.307329e+00 1.791394e+00 2.016850e+00 1.677688e+00 1.608787e+00 1.770834e-01 1.948533e-01 2.535119e-01 3.727933e-01 3.711029e-01 4.156167e-01 5.165488e-01 4.372515e-01 4.017812e-01 3.189267e-01 3.722968e-01 2.930041e-01 1.948767e-01
<GCONST> 1.238107e+02
<STATE> 3
<MEAN> 39
 -1.246258e+01 -3.858183e+00 -5.013947e-01 6.150959e+00 -6.200522e+00 6.641940e+00 -7.396559e-01 -6.595930e-01 -6.025703e-01 1.050760e+00 -5.211827e+00 2.112434e+00 5.407308e+01 -6.919698e-02 1.500450e-02 -5.381325e-02 6.642724e-02 2.919320e-02 -2.202815e-03 -1.946114e-02 7.813626e-02 -5.847735e-02 3.995550e-02 6.698366e-02 1.601489e-02 -1.071180e-01 7.510689e-04 2.850342e-03 2.260741e-02 -1.208178e-02 -2.415515e-02 -1.304183e-03 -1.655936e-02 -2.473065e-02 2.959596e-03 -2.965905e-02 -1.688488e-02 -1.503732e-03 6.631951e-03
<VARIANCE> 39
 2.794142e+00 2.690558e+00 3.034594e+00 4.195967e+00 8.337518e+00 3.400585e+00 9.151349e+00 8.985238e+00 6.794111e+00 5.892345e+00 7.195514e+00 6.630420e+00 6.193395e+00 1.317420e-01 1.676619e-01 3.517816e-01 3.677189e-01 4.621367e-01 3.196153e-01 9.956788e-01 1.008291e+00 8.107313e-01 5.471613e-01 8.100199e-01 8.489433e-01 1.106637e-01 2.409376e-02 3.222341e-02 6.767920e-02 6.651092e-02 8.633416e-02 7.193439e-02 2.061424e-01 2.247687e-01 1.574240e-01 1.035247e-01 1.698341e-01 1.734048e-01 9.726735e-03
<GCONST> 4.922381e+01
<STATE> 4
<MEAN> 39
 -1.350102e+01 -1.968776e+00 -1.578078e+00 6.528725e+00 -5.802629e+00 5.888446e+00 -1.460879e+00 1.184610e-01 -2.514859e+00 1.518508e+00 -4.156463e+00 1.285118e+00 5.160480e+01 -7.819252e-03 5.086338e-03 -5.427186e-03 2.567941e-03 7.593025e-03 -6.347123e-03 -1.362262e-02 -5.833288e-03 -3.790918e-02 -7.246276e-03 6.882288e-03 -4.341700e-03 -1.312244e-02 1.013404e-03 5.710917e-04 3.065910e-04 -7.306369e-03 -1.804292e-03 1.522814e-03 -1.147402e-03 -2.792915e-03 1.141920e-03 2.596887e-03 5.773548e-03 2.214869e-04 2.484280e-03
<VARIANCE> 39
 7.965741e-01 1.159471e+00 1.774771e+00 3.059852e+00 4.794519e+00 5.150422e+00 5.673402e+00 6.774525e+00 7.367913e+00 6.778934e+00 6.098721e+00 5.192824e+00 1.668407e+00 4.389392e-02 8.778729e-02 2.084522e-01 3.276573e-01 4.181491e-01 6.636205e-01 7.724285e-01 8.322546e-01 9.291934e-01 7.219390e-01 5.959452e-01 5.767701e-01 2.176970e-02 8.715704e-03 1.821422e-02 4.567876e-02 6.769751e-02 8.696561e-02 1.500511e-01 1.776900e-01 1.823809e-01 1.885838e-01 1.492483e-01 1.173465e-01 1.237228e-01 3.799764e-03
<GCONST> 3.709172e+01
<STATE> 5
<MEAN> 39
 -1.926536e+01 4.710348e+00 -1.921127e+00 7.784293e+00 2.608290e+00 5.271829e+00 7.215241e+00 3.476333e+00 4.675704e-01 8.271669e-01 1.866020e+00 1.125035e+00 5.338394e+01 1.137691e-03 -7.446465e-03 -2.684770e-02 -8.248831e-02 6.920265e-02 1.285283e-01 7.369900e-02 1.684244e-01 9.653558e-02 -2.072131e-02 -8.316258e-02 5.917036e-03 1.891537e-03 9.791889e-03 6.686158e-03 8.639353e-03 -1.452713e-02 1.459991e-02 2.358745e-02 2.778486e-02 4.724778e-02 6.019444e-02 2.172073e-02 -1.439894e-02 -7.749222e-04 8.118982e-03
<VARIANCE> 39
 3.576450e+00 4.735701e+00 5.015814e+00 7.707221e+00 6.372253e+00 8.851392e+00 1.052686e+01 1.353569e+01 1.771624e+01 9.838209e+00 9.525532e+00 6.895339e+00 4.306496e+00 5.892934e-02 2.517218e-01 4.876495e-01 4.144941e-01 2.976303e-01 5.013847e-01 7.788090e-01 1.628114e+00 1.991852e+00 1.388686e+00 1.060508e+00 9.938229e-01 2.676919e-02 9.483053e-03 5.442002e-02 1.062484e-01 8.256903e-02 5.886045e-02 7.552404e-02 1.250023e-01 3.062592e-01 3.829835e-01 3.028244e-01 2.196183e-01 2.185983e-01 4.972430e-03
<GCONST> 5.645524e+01
<TRANSP> 6
 0.000000e+00 1.000000e+00 0.000000e+00 0.000000e+00 0.000000e+00 0.000000e+00
 0.000000e+00 9.982305e-01 1.769557e-03 0.000000e+00 0.000000e+00 0.000000e+00
 0.000000e+00 0.000000e+00 9.605225e-01 3.947749e-02 0.000000e+00 0.000000e+00
 0.000000e+00 0.000000e+00 0.000000e+00 9.882205e-01 1.177949e-02 0.000000e+00
 0.000000e+00 0.000000e+00 0.000000e+00 0.000000e+00 9.474266e-01 5.257341e-02
 0.000000e+00 0.000000e+00 0.000000e+00 0.000000e+00 0.000000e+00 0.000000e+00
<ENDHMM>
