~o
<STREAMINFO> 1 39
<VECSIZE> 39<NULLD><MFCC_D_A_0><DIAGC>
~h "nol"
<BEGINHMM>
<NUMSTATES> 6
<STATE> 2
<MEAN> 39
 -6.553374e+00 6.468790e+00 2.935497e+00 8.833446e+00 7.168042e-01 -1.186467e+00 1.810582e+00 4.206052e+00 -7.465392e-01 -4.287386e-02 9.298805e-01 -3.557539e+00 6.784377e+01 5.025936e-02 -2.575033e-02 1.910661e-02 -9.246281e-03 -5.617403e-03 6.251587e-03 2.246726e-02 -1.790865e-02 1.631066e-02 -8.350630e-03 -4.630081e-02 9.658692e-03 7.038137e-02 -3.503967e-03 4.694137e-03 3.825936e-03 4.713018e-04 9.456233e-04 -6.360138e-03 4.958994e-04 -2.524664e-03 9.056339e-03 4.662603e-03 3.868787e-03 7.326093e-03 2.019559e-03
<VARIANCE> 39
 8.782576e+01 6.551619e+01 4.664562e+01 4.584127e+01 7.360359e+01 5.340063e+01 5.222955e+01 2.977874e+01 3.715546e+01 2.899642e+01 3.400239e+01 2.900226e+01 9.249716e+01 2.847400e+00 3.003673e+00 2.389962e+00 3.663757e+00 3.658334e+00 4.519700e+00 3.834570e+00 2.037135e+00 2.884273e+00 1.565043e+00 2.133681e+00 2.117619e+00 3.003680e+00 3.622280e-01 4.356535e-01 4.091713e-01 6.375143e-01 4.995829e-01 7.652041e-01 6.937630e-01 3.512384e-01 5.520873e-01 2.917490e-01 3.642490e-01 3.515918e-01 4.471855e-01
<GCONST> 1.250745e+02
<STATE> 3
<MEAN> 39
 -2.245029e+01 -3.035136e+00 4.295686e+00 -4.099953e+00 -2.693989e+00 -2.213361e+00 6.847212e+00 -8.799883e+00 5.203691e+00 2.347704e+00 5.496873e-01 9.329450e-01 6.171470e+01 -7.128070e-01 5.039544e-01 3.949640e-01 2.016555e-02 1.409848e+00 3.449548e-01 1.602508e+00 -2.827556e-01 4.213358e-01 6.117839e-01 5.680451e-01 -1.224794e-01 4.609503e-01 1.347088e-01 2.437349e-01 -1.854379e-01 2.887687e-01 4.174469e-01 1.305059e-01 -7.138727e-02 2.270184e-01 1.664656e-01 -5.371194e-01 -2.096880e-01 -4.731524e-01 1.953904e-01
<VARIANCE> 39
 4.440372e+01 2.848033e+01 1.324296e+02 1.206224e+02 7.871870e+01 9.048384e+00 1.078417e+02 1.446745e+02 4.110509e+01 1.048204e+01 3.716424e+01 1.564875e+01 1.765339e+02 3.471273e-01 1.048245e+00 3.439200e-01 5.937833e-01 1.045368e+00 7.181417e-02 5.378117e-01 1.118856e-01 2.449697e-02 5.404559e-01 1.698708e+00 2.800887e-02 1.959640e-02 3.979424e-04 4.945963e-03 1.322552e-01 7.198904e-02 1.867606e-02 2.584314e-01 3.373166e-02 1.294548e-01 3.508352e-01 8.620834e-02 1.417032e-02 9.259448e-02 2.471284e-02
<GCONST> 6.063042e+01
<STATE> 4
<MEAN> 39
 -6.367132e+00 -6.473160e+00 1.399333e+00 -1.324800e+00 -4.709296e+00 5.696800e-01 2.298012e+00 -5.383776e+00 1.661266e+00 -3.685257e+00 -6.628738e+00 5.484704e-01 6.700613e+01 1.552510e-02 2.045240e-03 -1.202632e-02 8.661889e-03 3.155329e-03 7.189161e-03 -4.548539e-03 1.630577e-02 -1.095509e-02 -2.288871e-03 -6.112966e-03 4.934771e-04 -6.264346e-03 1.240739e-03 -5.326350e-04 -2.870829e-05 1.304064e-04 -1.105164e-03 1.775100e-04 -2.699031e-03 6.888154e-04 -8.808064e-04 8.246247e-04 -3.785814e-04 8.754294e-04 -1.148017e-03
<VARIANCE> 39
 7.928637e+01 4.904050e+01 5.276658e+01 8.735958e+01 7.172653e+01 1.426898e+02 1.958467e+02 1.018538e+02 6.951646e+01 4.320646e+01 3.550604e+01 2.671121e+01 1.847146e+02 8.208443e-01 8.135222e-01 1.371239e+00 1.683921e+00 2.104164e+00 1.911347e+00 2.763303e+00 2.547200e+00 1.942563e+00 1.614230e+00 1.712954e+00 1.393873e+00 1.038074e+00 1.107171e-01 1.183214e-01 1.857802e-01 2.632187e-01 2.873870e-01 2.940018e-01 4.138881e-01 4.031180e-01 3.359056e-01 2.896933e-01 3.246784e-01 2.513506e-01 1.117944e-01
<GCONST> 1.147795e+02
<STATE> 5
<MEAN> 39
 -1.240627e+01 -2.049746e+00 -2.703606e+00 1.994558e+00 2.729374e+00 3.829329e+00 4.904846e+00 2.161817e+00 -1.913279e+00 8.836415e-01 -2.584548e+00 3.813350e-01 5.868757e+01 1.347119e-01 1.239483e-01 1.607949e-02 -2.693022e-01 3.685733e-01 2.515102e-01 -6.836292e-01 4.473293e-01 -4.493597e-01 1.375099e-01 6.040424e-01 3.420261e-01 -1.868986e-01 3.942093e-02 4.941960e-02 7.472654e-02 -2.932740e-01 -2.395162e-01 -1.512071e-02 1.725538e-01 1.360942e-01 1.717630e-02 -1.863595e-01 9.084900e-02 6.061088e-02 6.970417e-02
<VARIANCE> 39
 1.779472e+01 1.659351e+01 1.522931e-01 1.898377e+01 5.433035e+01 3.310945e+01 4.697622e+01 2.671398e+01 2.535282e+01 1.002837e+01 2.618824e+00 5.597171e+00 6.851974e+01 8.073736e-03 5.687625e-02 2.981095e-01 1.115113e+00 3.728079e-01 1.123813e+00 1.082217e+00 1.480451e+00 1.727178e+00 4.183695e-01 4.070440e-01 2.453769e-01 1.714005e-01 3.846030e-03 3.153255e-03 5.943290e-03 2.727436e-02 3.801706e-02 1.184732e-01 8.641728e-02 7.836270e-04 2.876109e-02 1.113677e-01 2.640147e-02 2.135345e-01 5.723707e-03
<GCONST> 4.079312e+01
<TRANSP> 6
 0.000000e+00 1.000000e+00 0.000000e+00 0.000000e+00 0.000000e+00 0.000000e+00
 0.000000e+00 9.899223e-01 1.007764e-02 0.000000e+00 0.000000e+00 0.000000e+00
 0.000000e+00 0.000000e+00 0.000000e+00 1.000000e+00 0.000000e+00 0.000000e+00
 0.000000e+00 0.000000e+00 0.000000e+00 9.983150e-01 1.684939e-03 0.000000e+00
 0.000000e+00 0.000000e+00 0.000000e+00 0.000000e+00 4.001450e-01 5.998550e-01
 0.000000e+00 0.000000e+00 0.000000e+00 0.000000e+00 0.000000e+00 0.000000e+00
<ENDHMM>
