~o
<STREAMINFO> 1 39
<VECSIZE> 39<NULLD><MFCC_D_A_0><DIAGC>
~h "lima"
<BEGINHMM>
<NUMSTATES> 6
<STATE> 2
<MEAN> 39
 -6.422031e+00 3.910473e+00 3.556575e+00 4.971056e+00 -1.363734e+00 -3.630587e+00 4.775473e+00 7.122668e-01 -8.363623e-01 -1.814335e+00 -2.123640e-01 -3.870111e+00 6.989812e+01 1.160307e-01 1.297483e-02 -7.592878e-03 3.279309e-02 -5.407722e-02 -3.366429e-02 1.350153e-02 -2.536625e-03 -3.144892e-02 -3.852500e-02 -1.009883e-01 -1.874810e-02 4.902896e-02 3.304035e-03 7.370253e-04 1.475649e-03 2.601527e-03 -2.640020e-02 -2.026713e-02 -4.928554e-03 -3.065982e-03 6.454520e-03 6.191235e-03 -6.686627e-03 -1.223680e-03 -1.432550e-03
<VARIANCE> 39
 8.050893e+01 8.424795e+01 5.312070e+01 9.598630e+01 1.193904e+02 9.989835e+01 8.289330e+01 9.454008e+01 4.323492e+01 4.462036e+01 4.098960e+01 2.730910e+01 9.407964e+01 2.914972e+00 2.689349e+00 2.479685e+00 3.425540e+00 4.451421e+00 4.869047e+00 3.821528e+00 3.335247e+00 3.255648e+00 2.280877e+00 2.628813e+00 2.103881e+00 3.048023e+00 3.676014e-01 3.848910e-01 3.741998e-01 6.063790e-01 5.463527e-01 7.559667e-01 6.672401e-01 5.234500e-01 6.391792e-01 4.155494e-01 4.843498e-01 3.457532e-01 4.458068e-01
<GCONST> 1.318729e+02
<STATE> 3
<MEAN> 39
 -3.480549e+00 2.936244e-01 1.070427e+01 -1.520697e+00 -1.968654e+01 -2.494840e+01 1.389303e+01 -1.501000e+01 -6.244026e+00 -3.714662e+00 -1.153115e+01 -6.546027e+00 7.537578e+01 1.504762e-01 -4.616192e-01 -3.095874e-01 -3.960505e-01 -6.714212e-01 -3.015421e-01 -1.896096e-01 3.229572e-01 -1.398835e-01 3.963368e-03 3.742064e-01 4.800242e-01 2.810777e-01 2.011172e-02 -1.361182e-01 -1.719062e-01 -1.650309e-01 3.142331e-01 1.917306e-01 3.984475e-02 -1.851949e-02 1.309447e-01 -2.336857e-01 -6.856980e-02 2.292407e-01 1.133896e-01
<VARIANCE> 39
 2.292624e+01 6.627215e+00 2.781368e+01 2.754020e+01 3.679440e+01 1.140860e+02 3.687682e+01 5.149636e+01 1.363387e+01 2.134618e+01 2.146645e+01 1.980073e+01 7.971494e+01 2.073064e-01 6.085817e-01 7.146235e-01 2.458563e+00 1.295101e+00 1.619293e+00 1.527091e+00 9.228816e-01 1.251682e+00 3.351915e+00 1.447213e+00 2.429823e+00 7.582332e-01 4.335119e-02 2.828934e-02 6.252782e-02 1.546075e-01 2.933986e-01 2.165749e-01 4.273882e-01 1.963728e-01 1.337318e-01 1.418643e-01 1.404842e-01 6.032997e-01 3.544669e-02
<GCONST> 9.098006e+01
<STATE> 4
<MEAN> 39
 -3.222651e+00 -1.255537e+01 -1.195959e+00 -1.434121e+01 -1.511305e+01 -1.785721e+01 2.672337e+01 -2.114462e+01 5.095514e+00 -1.227770e+01 -8.880603e+00 5.335263e+00 8.404751e+01 -5.777492e-02 -3.535642e-01 -4.321724e-01 -1.853908e-01 9.284315e-02 5.336530e-01 5.496608e-01 -4.549883e-01 6.844523e-01 -5.013210e-03 8.517805e-02 6.082305e-01 5.277974e-02 -5.596301e-02 1.092932e-01 1.671559e-01 9.754671e-02 3.779554e-02 8.316059e-02 -1.070198e-01 9.003220e-02 -8.167245e-02 1.167969e-01 8.109351e-02 -2.241096e-02 -1.107061e-01
<VARIANCE> 39
 1.231532e+01 2.163963e+01 8.227661e+00 3.332796e+01 1.624914e+01 4.675640e+01 9.888129e+01 6.878845e+01 1.839314e+01 1.633295e+01 4.760504e+00 1.915499e+01 9.022520e+01 2.343054e-02 4.910915e-01 3.684845e-01 2.527370e-01 1.207994e+00 7.322109e-01 1.283614e+00 7.178542e-01 3.295158e-01 1.005738e+00 5.235937e-01 3.915454e-01 3.321170e-01 4.815945e-02 5.932986e-02 7.239290e-02 4.570646e-02 1.669393e-01 9.991479e-02 1.643571e-01 7.161725e-02 1.764520e-02 1.640882e-01 1.217254e-01 1.079578e-01 3.523430e-02
<GCONST> 6.859316e+01
<STATE> 5
<MEAN> 39
 -6.513798e+00 -6.508223e+00 1.103132e+00 -7.549224e-01 -4.157669e+00 1.781827e+00 1.173157e+00 -4.711122e+00 1.839765e+00 -3.313078e+00 -6.633983e+00 8.396931e-01 6.611571e+01 -2.784949e-03 6.254382e-03 2.813189e-03 6.514188e-03 2.478486e-02 1.368699e-02 -8.875985e-03 1.856064e-02 -1.045981e-02 6.445962e-03 5.694404e-03 -6.883513e-03 -9.070428e-03 8.824014e-04 6.679008e-04 -2.420805e-04 -2.572494e-04 9.491736e-04 5.075596e-04 -1.917750e-04 7.227864e-04 -7.681207e-04 -2.493449e-04 1.331579e-03 -4.348402e-04 3.255149e-04
<VARIANCE> 39
 8.222201e+01 4.893157e+01 5.074427e+01 8.592094e+01 6.072467e+01 1.203908e+02 1.859372e+02 9.456317e+01 6.969448e+01 4.131076e+01 3.506473e+01 2.463541e+01 1.838783e+02 7.164329e-01 7.766270e-01 1.312741e+00 1.644532e+00 1.855980e+00 1.708932e+00 2.739860e+00 2.308601e+00 1.830547e+00 1.435994e+00 1.592222e+00 1.349497e+00 9.373686e-01 9.791343e-02 1.150274e-01 1.842810e-01 2.547553e-01 2.655403e-01 2.748525e-01 4.075446e-01 3.716383e-01 3.107516e-01 2.635429e-01 2.986068e-01 2.450987e-01 9.643339e-02
<GCONST> 1.123129e+02
<TRANSP> 6
 0.000000e+00 1.000000e+00 0.000000e+00 0.000000e+00 0.000000e+00 0.000000e+00
 0.000000e+00 9.921399e-01 7.860049e-03 0.000000e+00 0.000000e+00 0.000000e+00
 0.000000e+00 0.000000e+00 8.418971e-01 1.581029e-01 0.000000e+00 0.000000e+00
 0.000000e+00 0.000000e+00 0.000000e+00 8.748355e-01 1.251645e-01 0.000000e+00
 0.000000e+00 0.000000e+00 0.000000e+00 0.000000e+00 9.981942e-01 1.805829e-03
 0.000000e+00 0.000000e+00 0.000000e+00 0.000000e+00 0.000000e+00 0.000000e+00
<ENDHMM>
