~o
<STREAMINFO> 1 39
<VECSIZE> 39<NULLD><MFCC_D_A_0><DIAGC>
~h "satu"
<BEGINHMM>
<NUMSTATES> 6
<STATE> 2
<MEAN> 39
 -2.321243e+01 -8.419098e+00 8.456926e+00 -1.631307e+01 5.528963e+00 -5.014588e+00 1.794278e+01 -1.564701e+01 8.181386e+00 -5.569172e+00 4.217275e+00 -5.174894e+00 7.693436e+01 2.222229e+00 -7.299756e-01 -2.123796e+00 8.608879e-02 -1.437063e+00 -7.487095e-03 4.160310e-01 4.156959e-01 -4.776763e-01 -1.162513e+00 -7.364306e-01 -3.277966e-01 6.168657e-01 2.408002e-01 -1.585801e-01 -2.229183e-01 2.888195e-01 -4.304790e-01 2.076956e-02 7.112639e-02 -1.311975e-01 3.047124e-01 -2.309789e-01 -8.995368e-02 1.515714e-02 7.854491e-02
<VARIANCE> 39
 1.327962e+02 3.763836e+01 1.125712e+02 9.564133e+01 8.331578e+01 1.448292e+01 9.410776e+01 8.102792e+01 5.785389e+01 5.158617e+01 2.026172e+01 1.523847e+01 2.568729e+02 1.033638e+01 1.462208e+00 3.426651e+00 1.166930e+00 7.948912e+00 6.743309e-01 1.980912e+00 1.357580e+00 8.859408e+00 3.047492e+00 1.448510e+00 6.388150e-01 1.001372e+00 1.496637e+00 2.091073e-01 2.892617e-01 1.554163e-01 4.922952e-01 2.003898e-01 3.422116e-01 3.746665e-01 2.692683e+00 3.131528e-01 2.242824e-01 1.663365e-01 2.116119e-01
<GCONST> 1.211387e+02
<STATE> 3
<MEAN> 39
 -2.465954e+01 4.408352e-02 -8.724530e+00 2.838357e+00 -5.848908e+00 3.174394e+00 2.627607e+00 2.041900e+00 -5.079030e-01 -9.312627e-01 6.534868e-01 -2.275975e+00 4.475286e+01 1.105481e-01 -2.007640e-01 1.507141e-02 5.896725e-01 -2.066156e-01 6.945050e-01 8.535764e-01 -1.597329e-01 5.802666e-01 -2.722273e-01 -1.201871e-01 -3.675373e-01 1.086474e-01 3.852465e-01 4.957315e-02 5.060055e-01 1.019463e-01 -1.503771e-01 -1.663127e-02 -2.415306e-01 -3.200591e-01 2.143695e-01 1.629604e-01 7.894670e-02 3.060170e-01 3.860615e-01
<VARIANCE> 39
 1.380925e+02 5.195554e+01 2.153823e+01 4.699299e+01 2.369390e+01 1.615082e+01 1.318949e+02 6.821896e+01 1.941065e+01 5.246915e+01 1.045831e+01 8.745000e+00 4.358249e+02 5.968042e-01 1.125583e+00 8.671339e-01 2.260546e+00 2.755469e+00 4.717263e-01 3.478957e-01 1.768221e+00 3.803902e+00 8.097957e-01 1.479472e-01 5.320950e-01 1.413016e-01 1.155279e+00 6.040046e-02 1.514862e-01 8.824994e-02 1.658891e-01 4.148752e-02 4.151843e-02 3.541590e-02 5.952049e-02 2.274223e-02 2.910449e-02 8.270777e-02 6.675367e-01
<GCONST> 8.520763e+01
<STATE> 4
<MEAN> 39
 -6.250421e+00 -4.594229e+00 1.618767e+00 2.202684e-01 -3.975512e+00 3.154426e-01 2.160417e+00 -3.969571e+00 1.276165e+00 -3.149656e+00 -5.616860e+00 -2.936843e-03 6.714636e+01 5.225415e-03 4.088969e-03 6.267511e-03 3.642375e-03 1.375767e-02 5.334332e-03 -3.889816e-03 9.058995e-03 -5.463200e-03 5.974608e-03 -6.101328e-03 4.982730e-03 1.111529e-03 -2.067069e-03 1.408889e-03 -5.322111e-05 -1.567367e-03 3.024245e-03 -6.521504e-04 -1.998881e-03 2.486052e-03 -1.861092e-03 1.511774e-03 2.236254e-04 -9.742832e-06 -2.226310e-03
<VARIANCE> 39
 7.731976e+01 7.210056e+01 5.133921e+01 9.259156e+01 7.528730e+01 1.312337e+02 1.745235e+02 1.023587e+02 6.546093e+01 4.265459e+01 4.194584e+01 2.908919e+01 1.677665e+02 1.024820e+00 1.124021e+00 1.478069e+00 1.970426e+00 2.281667e+00 2.301030e+00 2.932273e+00 2.482587e+00 2.025687e+00 1.592212e+00 1.780523e+00 1.504858e+00 1.323966e+00 1.338655e-01 1.638210e-01 2.164266e-01 3.181978e-01 3.162627e-01 3.641597e-01 4.559585e-01 3.967552e-01 3.528982e-01 2.906684e-01 3.320176e-01 2.670366e-01 1.573865e-01
<GCONST> 1.182978e+02
<STATE> 5
<MEAN> 39
 -1.240331e+01 -2.047851e+00 -2.703575e+00 1.988424e+00 2.751438e+00 3.827737e+00 4.926990e+00 2.176444e+00 -1.899696e+00 8.823777e-01 -2.580694e+00 3.882855e-01 5.870532e+01 1.345470e-01 1.247085e-01 1.608528e-02 -2.661061e-01 3.702939e-01 2.496654e-01 -6.834503e-01 4.513032e-01 -4.484265e-01 1.386659e-01 6.031163e-01 3.407032e-01 -1.878849e-01 3.924246e-02 4.954566e-02 7.449894e-02 -2.932069e-01 -2.397781e-01 -1.582658e-02 1.733499e-01 1.360762e-01 1.754067e-02 -1.853640e-01 9.124933e-02 5.949657e-02 6.968013e-02
<VARIANCE> 39
 1.783445e+01 1.664115e+01 1.518303e-01 1.898095e+01 5.426207e+01 3.318452e+01 4.693807e+01 2.673569e+01 2.537351e+01 1.000247e+01 2.612435e+00 5.588594e+00 6.852685e+01 8.079772e-03 5.685051e-02 2.989188e-01 1.113996e+00 3.726256e-01 1.124595e+00 1.085394e+00 1.478715e+00 1.732456e+00 4.177856e-01 4.077119e-01 2.452623e-01 1.713537e-01 3.839923e-03 3.156712e-03 5.934323e-03 2.730915e-02 3.806581e-02 1.184434e-01 8.632866e-02 7.845316e-04 2.880206e-02 1.114029e-01 2.635083e-02 2.133841e-01 5.739075e-03
<GCONST> 4.079916e+01
<TRANSP> 6
 0.000000e+00 1.000000e+00 0.000000e+00 0.000000e+00 0.000000e+00 0.000000e+00
 0.000000e+00 7.692706e-01 2.307294e-01 0.000000e+00 0.000000e+00 0.000000e+00
 0.000000e+00 0.000000e+00 5.711690e-01 4.288311e-01 0.000000e+00 0.000000e+00
 0.000000e+00 0.000000e+00 0.000000e+00 9.985418e-01 1.458275e-03 0.000000e+00
 0.000000e+00 0.000000e+00 0.000000e+00 0.000000e+00 3.997872e-01 6.002128e-01
 0.000000e+00 0.000000e+00 0.000000e+00 0.000000e+00 0.000000e+00 0.000000e+00
<ENDHMM>
