~o
<STREAMINFO> 1 39
<VECSIZE> 39<NULLD><MFCC_D_A_0><DIAGC>
~h "dua"
<BEGINHMM>
<NUMSTATES> 6
<STATE> 2
<MEAN> 39
 -5.687292e+00 -2.202313e-01 3.353636e+00 -9.000762e-01 -1.770911e+00 -1.039202e+01 1.311816e+01 -8.062445e+00 -2.601006e+00 -4.703219e+00 -5.592575e+00 -2.040305e+00 7.453043e+01 5.321405e-02 3.378113e-03 -1.559513e-02 1.512565e-02 1.203651e-03 1.153993e-02 6.878914e-03 1.539114e-02 -1.755378e-02 -1.103299e-02 -2.289514e-02 8.995300e-03 1.467817e-02 3.977932e-04 -2.305275e-03 -1.072521e-03 -1.016917e-03 -5.120376e-03 -1.197599e-03 -4.362911e-03 2.453277e-03 3.179044e-03 6.092419e-04 -4.020633e-03 1.236858e-03 -1.275966e-03
<VARIANCE> 39
 5.296529e+01 7.804779e+01 4.393818e+01 1.155099e+02 1.295561e+02 1.332746e+02 1.753295e+02 1.738800e+02 5.376067e+01 4.435684e+01 7.692919e+01 3.922079e+01 8.721138e+01 1.898778e+00 2.009608e+00 1.883806e+00 2.971330e+00 4.350253e+00 4.273073e+00 4.919545e+00 4.124221e+00 3.059185e+00 2.237948e+00 2.966336e+00 2.363058e+00 2.239948e+00 2.458722e-01 2.852688e-01 2.794370e-01 4.929148e-01 5.562688e-01 6.631097e-01 7.837839e-01 6.278236e-01 5.427554e-01 3.959540e-01 5.430086e-01 4.072960e-01 3.160924e-01
<GCONST> 1.320024e+02
<STATE> 3
<MEAN> 39
 -1.450821e+01 -2.325053e-01 -2.031535e+00 2.072011e+00 8.475806e-01 4.612099e+00 7.476412e+00 -2.380784e-01 5.804747e-01 -2.920213e+00 -3.011579e+00 -6.169397e-01 5.759229e+01 -2.983371e-01 -6.889058e-01 -2.695725e-01 1.854217e-04 -7.996258e-01 3.844685e-01 3.869922e-01 9.046311e-01 1.852974e-01 -1.372211e-02 -9.232649e-01 -7.706007e-01 -2.578927e-01 3.555514e-01 1.731731e-01 -8.895823e-03 2.407265e-01 -3.140698e-01 -5.034872e-01 -1.232497e-01 4.925586e-03 2.106192e-01 -1.496476e-02 -2.007336e-01 -1.547800e-01 3.038788e-01
<VARIANCE> 39
 3.111240e+01 1.556594e+01 2.009288e+01 5.050435e+01 7.074983e+01 4.796741e+01 1.556603e+02 3.766746e+00 3.239328e+00 6.005662e+00 9.577160e+00 1.266552e-01 1.128574e+02 2.253072e-03 2.533641e-01 3.539701e-01 1.105333e-01 2.202177e-01 2.068388e+00 5.830057e-02 1.025191e+00 3.287246e-02 5.449483e-01 5.502145e-01 8.536898e-01 1.773483e-01 4.995441e-02 1.547599e-03 1.190692e-01 2.633498e-01 3.134271e-01 6.739489e-01 1.624225e-01 9.206691e-02 2.052041e-02 9.691105e-02 1.197056e-01 3.777733e-03 3.623946e-02
<GCONST> 5.042587e+01
<STATE> 4
<MEAN> 39
 -1.348540e+01 -2.798072e+00 -2.920972e+00 4.920537e+00 -6.842896e+00 6.360405e+00 -1.239700e+00 6.706178e-01 -1.919393e+00 1.002367e+00 -4.860750e+00 1.480614e+00 5.172384e+01 7.563786e-03 -1.496819e-02 1.034323e-02 -9.623160e-03 2.031777e-02 1.389506e-02 -2.297443e-03 1.146031e-02 3.061371e-02 9.189144e-03 -1.677175e-02 -3.090460e-03 2.376817e-02 4.499339e-04 7.829964e-04 2.396606e-03 1.575563e-03 1.384538e-03 -9.951057e-04 -9.211769e-03 -4.455431e-03 7.472051e-03 5.111843e-03 6.541735e-03 6.131948e-03 1.907335e-03
<VARIANCE> 39
 1.032078e+00 2.026127e+00 3.432303e+00 4.330104e+00 5.609793e+00 6.211972e+00 8.818976e+00 7.418016e+00 7.439541e+00 8.629448e+00 6.950356e+00 6.024125e+00 2.969825e+00 8.494235e-02 2.459748e-01 3.327115e-01 4.696272e-01 3.942142e-01 6.399462e-01 5.878378e-01 8.768646e-01 1.018116e+00 1.023749e+00 8.936842e-01 6.907665e-01 5.187007e-02 1.766567e-02 5.667053e-02 6.104331e-02 1.065979e-01 7.735612e-02 1.308369e-01 1.209140e-01 1.794205e-01 2.171839e-01 2.180792e-01 1.844771e-01 1.458652e-01 9.098664e-03
<GCONST> 4.893591e+01
<STATE> 5
<MEAN> 39
 -5.694605e+00 -7.789042e+00 1.262314e+00 -2.252964e-02 -4.818402e+00 6.263023e+00 -4.260498e+00 -2.162372e+00 4.421245e+00 -2.839335e+00 -5.607385e+00 1.010830e+00 6.490465e+01 6.853458e-04 5.274977e-04 -3.619521e-03 1.757708e-03 6.653814e-03 3.959271e-03 -5.197225e-03 7.708828e-03 -7.950351e-03 2.168147e-03 2.793736e-03 1.165087e-03 -4.139573e-03 2.806735e-04 2.181435e-03 1.111749e-03 -4.299571e-04 2.523851e-03 1.168133e-03 1.237993e-03 7.659873e-04 -2.410245e-03 -9.543975e-04 2.313394e-03 8.446570e-04 -7.387119e-04
<VARIANCE> 39
 1.030920e+02 5.650432e+01 6.037706e+01 9.070571e+01 4.720102e+01 3.264890e+01 8.157817e+01 5.516309e+01 6.179911e+01 4.301822e+01 2.572408e+01 2.228861e+01 1.739790e+02 7.683693e-01 6.994532e-01 1.475138e+00 1.566393e+00 1.335486e+00 1.259754e+00 2.010883e+00 1.664147e+00 1.618232e+00 1.291525e+00 1.143362e+00 1.062545e+00 9.314873e-01 1.029705e-01 1.022503e-01 2.035481e-01 2.365577e-01 2.018196e-01 2.015022e-01 2.940386e-01 2.799621e-01 2.771580e-01 2.333206e-01 2.150842e-01 1.944770e-01 8.276086e-02
<GCONST> 1.052179e+02
<TRANSP> 6
 0.000000e+00 1.000000e+00 0.000000e+00 0.000000e+00 0.000000e+00 0.000000e+00
 0.000000e+00 9.959834e-01 4.016615e-03 0.000000e+00 0.000000e+00 0.000000e+00
 0.000000e+00 0.000000e+00 0.000000e+00 1.000000e+00 0.000000e+00 0.000000e+00
 0.000000e+00 0.000000e+00 0.000000e+00 9.845772e-01 1.542281e-02 0.000000e+00
 0.000000e+00 0.000000e+00 0.000000e+00 0.000000e+00 9.973626e-01 2.637487e-03
 0.000000e+00 0.000000e+00 0.000000e+00 0.000000e+00 0.000000e+00 0.000000e+00
<ENDHMM>
~h "enam"
<BEGINHMM>
<NUMSTATES> 6
<STATE> 2
<MEAN> 39
 -4.650869e+00 -5.285790e+00 2.279275e+00 -1.312340e+00 -3.655051e+00 -1.080220e+00 2.884624e+00 -5.013778e+00 1.943743e+00 -4.145731e+00 -5.960962e+00 -3.515562e-01 7.053328e+01 3.331432e-02 -3.514362e-03 6.892664e-03 3.163510e-04 -1.515837e-03 2.764360e-03 -5.002607e-04 -2.041016e-03 1.867309e-03 -7.926724e-03 -1.208970e-02 6.507532e-04 2.425831e-02 2.098166e-04 -1.268354e-03 -1.022569e-03 -9.343345e-04 -9.366011e-04 8.159494e-04 -1.889386e-03 3.254535e-04 -4.966572e-04 1.088911e-03 -2.388729e-04 9.160078e-04 -8.042380e-04
<VARIANCE> 39
 8.214229e+01 8.388267e+01 6.147075e+01 1.038180e+02 8.943831e+01 1.510175e+02 2.103530e+02 1.202618e+02 7.646218e+01 4.578180e+01 4.849005e+01 3.414979e+01 1.502856e+02 1.366367e+00 1.364364e+00 1.792490e+00 2.357302e+00 2.792346e+00 2.693722e+00 3.421893e+00 2.836882e+00 2.321971e+00 1.805890e+00 2.026736e+00 1.695325e+00 1.623818e+00 1.793375e-01 1.966433e-01 2.537838e-01 3.761331e-01 3.730331e-01 4.190539e-01 5.213619e-01 4.418481e-01 4.042323e-01 3.222284e-01 3.728580e-01 2.955177e-01 1.975103e-01
<GCONST> 1.241346e+02
<STATE> 3
<MEAN> 39
 -8.393018e+00 -2.450598e+00 5.572087e+00 -2.057994e+00 -7.993292e-01 1.226472e+00 5.264866e+00 -7.342134e+00 4.050941e+00 -1.788896e+00 -2.337277e+00 -3.144176e-01 6.785760e+01 -4.005003e-01 -8.442397e-01 -8.470507e-01 -5.219377e-01 1.145742e-01 7.963963e-01 1.951852e-01 4.557198e-01 -9.586444e-01 2.021720e-01 -5.523327e-01 -4.314755e-01 -5.599316e-01 -2.089790e-02 1.638214e-01 -2.295342e-01 3.246878e-01 -4.970254e-01 -3.266167e-01 7.630271e-02 4.374641e-01 7.585502e-02 -2.680558e-01 -1.385333e-01 -1.826828e-01 -1.535210e-01
<VARIANCE> 39
 3.239272e+01 7.335767e+01 5.479783e+01 4.408370e+01 6.901937e+01 5.705672e+01 1.529955e+02 3.571227e+00 2.777503e+01 1.524610e+01 1.535866e+01 7.438813e-02 8.038474e+01 2.117793e-02 2.778800e-01 1.476807e+00 4.585362e-01 1.485516e-01 1.875326e+00 5.230114e-01 2.988732e+00 1.085257e+00 1.706795e+00 8.016748e-02 3.145543e-01 1.809745e-02 1.469607e-01 5.597609e-02 3.882868e-02 1.691624e-04 1.513356e-01 1.608640e-01 1.770729e-01 1.282955e-01 1.072437e-01 2.861419e-02 3.884616e-02 2.876033e-01 3.578232e-02
<GCONST> 6.111333e+01
<STATE> 4
<MEAN> 39
 -6.821404e+00 -8.402695e+00 2.645628e+00 -2.776547e+00 -8.289751e+00 4.927022e+00 -2.503617e+00 -4.937244e+00 3.480738e+00 -4.844858e+00 -8.466631e+00 -1.581310e+00 6.526958e+01 -3.209957e-01 1.267783e-01 -6.267536e-01 5.523847e-01 2.689966e-01 7.744917e-02 -7.161034e-02 5.501235e-01 -4.507766e-01 3.338028e-01 1.489453e-01 2.222919e-01 -7.433644e-01 1.565136e-02 9.977394e-02 8.502689e-02 1.127966e-01 5.653746e-02 -1.047207e-01 -3.519324e-02 4.098839e-03 1.727655e-02 -3.396394e-02 8.850274e-02 9.866931e-02 3.745664e-03
<VARIANCE> 39
 1.052322e+01 2.139192e+01 1.858792e+01 2.167517e+01 6.912485e+01 1.789664e+01 1.214614e+02 1.967158e+01 1.687577e+01 1.354254e+01 1.651620e+01 7.459189e+00 3.546805e+01 9.254593e-02 5.317512e-01 1.120824e+00 6.113299e-01 1.193628e+00 1.004027e+00 2.097733e+00 6.609454e-01 1.210802e+00 5.772341e-01 1.314536e+00 7.208391e-01 7.197259e-02 1.698440e-02 5.783639e-02 1.912072e-01 1.459769e-01 2.519812e-01 1.697818e-01 2.181274e-01 1.424552e-01 2.601477e-01 9.949481e-02 3.051377e-01 1.547134e-01 1.715530e-02
<GCONST> 7.798036e+01
<STATE> 5
<MEAN> 39
 -1.423668e+01 -1.276363e+00 -1.427050e+00 6.737699e+00 -4.680372e+00 5.998658e+00 -8.903503e-02 5.233485e-01 -1.706655e+00 1.380668e+00 -3.403198e+00 1.461174e+00 5.217453e+01 -8.026664e-03 6.553164e-03 -9.152146e-03 -1.374441e-02 9.527216e-03 1.978188e-02 6.568638e-03 2.543202e-02 -3.890814e-03 -5.476573e-03 -7.585627e-03 -4.688827e-03 -1.297161e-02 2.592605e-03 -3.518791e-04 1.534776e-03 -8.561242e-03 -1.005445e-03 4.482693e-03 1.027419e-04 -3.676164e-04 4.662617e-03 1.027104e-03 -4.528422e-03 -4.012568e-03 3.098798e-03
<VARIANCE> 39
 5.819509e+00 8.562943e+00 2.745696e+00 3.652176e+00 1.361443e+01 5.383468e+00 1.548411e+01 9.472863e+00 1.027083e+01 6.964390e+00 1.149731e+01 5.779039e+00 2.075219e+00 5.774717e-02 1.280449e-01 2.772528e-01 3.352775e-01 3.826998e-01 5.773457e-01 7.811065e-01 9.864193e-01 1.050131e+00 7.928712e-01 7.058107e-01 6.772503e-01 2.991873e-02 1.169581e-02 2.592066e-02 5.903215e-02 6.793208e-02 7.731001e-02 1.228691e-01 1.744531e-01 2.099938e-01 2.106255e-01 1.652328e-01 1.427098e-01 1.436810e-01 5.089599e-03
<GCONST> 4.877743e+01
<TRANSP> 6
 0.000000e+00 1.000000e+00 0.000000e+00 0.000000e+00 0.000000e+00 0.000000e+00
 0.000000e+00 9.982030e-01 1.797019e-03 0.000000e+00 0.000000e+00 0.000000e+00
 0.000000e+00 0.000000e+00 0.000000e+00 1.000000e+00 0.000000e+00 0.000000e+00
 0.000000e+00 0.000000e+00 0.000000e+00 9.061511e-01 9.384889e-02 0.000000e+00
 0.000000e+00 0.000000e+00 0.000000e+00 0.000000e+00 9.920779e-01 7.922126e-03
 0.000000e+00 0.000000e+00 0.000000e+00 0.000000e+00 0.000000e+00 0.000000e+00
<ENDHMM>
~h "lima"
<BEGINHMM>
<NUMSTATES> 6
<STATE> 2
<MEAN> 39
 -6.419410e+00 3.912938e+00 3.557915e+00 4.974106e+00 -1.361010e+00 -3.630263e+00 4.774507e+00 7.146767e-01 -8.361734e-01 -1.813484e+00 -2.112454e-01 -3.870429e+00 6.990133e+01 1.157640e-01 1.301266e-02 -7.643607e-03 3.273207e-02 -5.403184e-02 -3.364971e-02 1.347516e-02 -2.502385e-03 -3.143781e-02 -3.852325e-02 -1.009164e-01 -1.873849e-02 4.881220e-02 3.316852e-03 7.382695e-04 1.474139e-03 2.604950e-03 -2.637256e-02 -2.023934e-02 -4.923758e-03 -3.054545e-03 6.458012e-03 6.197363e-03 -6.682540e-03 -1.235559e-03 -1.423418e-03
<VARIANCE> 39
 8.046443e+01 8.424896e+01 5.309888e+01 9.596954e+01 1.193675e+02 9.986230e+01 8.287196e+01 9.450838e+01 4.323488e+01 4.461396e+01 4.099009e+01 2.731219e+01 9.392677e+01 2.913534e+00 2.689879e+00 2.479815e+00 3.426025e+00 4.451405e+00 4.869338e+00 3.822096e+00 3.334624e+00 3.255756e+00 2.280599e+00 2.628748e+00 2.104153e+00 3.046977e+00 3.673263e-01 3.849696e-01 3.742533e-01 6.064422e-01 5.463868e-01 7.560588e-01 6.673561e-01 5.233833e-01 6.391931e-01 4.155096e-01 4.843138e-01 3.458004e-01 4.456298e-01
<GCONST> 1.318681e+02
<STATE> 3
<MEAN> 39
 -3.479303e+00 2.942556e-01 1.070713e+01 -1.521737e+00 -1.968693e+01 -2.495229e+01 1.389675e+01 -1.501198e+01 -6.243776e+00 -3.714833e+00 -1.153257e+01 -6.547439e+00 7.538013e+01 1.506224e-01 -4.615849e-01 -3.095157e-01 -3.958791e-01 -6.713663e-01 -3.013824e-01 -1.895803e-01 3.232341e-01 -1.397365e-01 4.110050e-03 3.741432e-01 4.801634e-01 2.811395e-01 1.997284e-02 -1.361313e-01 -1.719743e-01 -1.651357e-01 3.142895e-01 1.916737e-01 3.974344e-02 -1.857865e-02 1.308910e-01 -2.337320e-01 -6.855994e-02 2.293491e-01 1.133097e-01
<VARIANCE> 39
 2.292150e+01 6.629949e+00 2.776446e+01 2.753711e+01 3.681564e+01 1.140008e+02 3.680467e+01 5.147928e+01 1.363979e+01 2.134916e+01 2.145614e+01 1.979075e+01 7.959994e+01 2.073613e-01 6.086633e-01 7.146940e-01 2.458732e+00 1.295345e+00 1.619505e+00 1.527323e+00 9.226536e-01 1.252043e+00 3.352346e+00 1.447899e+00 2.430061e+00 7.584159e-01 4.328240e-02 2.829402e-02 6.250705e-02 1.545746e-01 2.934204e-01 2.165959e-01 4.274183e-01 1.963987e-01 1.337345e-01 1.418705e-01 1.405171e-01 6.033816e-01 3.542032e-02
<GCONST> 9.097418e+01
<STATE> 4
<MEAN> 39
 -3.221259e+00 -1.255599e+01 -1.195075e+00 -1.434378e+01 -1.511321e+01 -1.786041e+01 2.672764e+01 -2.114692e+01 5.096679e+00 -1.227928e+01 -8.881519e+00 5.336010e+00 8.405219e+01 -5.772767e-02 -3.536074e-01 -4.322427e-01 -1.853597e-01 9.291810e-02 5.338030e-01 5.495750e-01 -4.551028e-01 6.845778e-01 -4.906972e-03 8.514810e-02 6.082231e-01 5.278194e-02 -5.607159e-02 1.092726e-01 1.671255e-01 9.746786e-02 3.777257e-02 8.312713e-02 -1.070862e-01 8.999296e-02 -8.170097e-02 1.168230e-01 8.116843e-02 -2.234894e-02 -1.107778e-01
<VARIANCE> 39
 1.230013e+01 2.164291e+01 8.222126e+00 3.327636e+01 1.625384e+01 4.667833e+01 9.873959e+01 6.875220e+01 1.838784e+01 1.631402e+01 4.756524e+00 1.915240e+01 9.005431e+01 2.342431e-02 4.911793e-01 3.684896e-01 2.527575e-01 1.208088e+00 7.321252e-01 1.283904e+00 7.178570e-01 3.295792e-01 1.005786e+00 5.238080e-01 3.916025e-01 3.321768e-01 4.815212e-02 5.933575e-02 7.239405e-02 4.566967e-02 1.669581e-01 9.992494e-02 1.643384e-01 7.163738e-02 1.764402e-02 1.641057e-01 1.217679e-01 1.079900e-01 3.521974e-02
<GCONST> 6.858319e+01
<STATE> 5
<MEAN> 39
 -6.516040e+00 -6.503731e+00 1.103800e+00 -7.574542e-01 -4.152950e+00 1.768671e+00 1.190317e+00 -4.718312e+00 1.834755e+00 -3.315198e+00 -6.635529e+00 8.391007e-01 6.612253e+01 -2.794149e-03 6.273525e-03 2.813154e-03 6.540524e-03 2.484654e-02 1.372613e-02 -8.900625e-03 1.862369e-02 -1.048002e-02 6.469391e-03 5.718110e-03 -6.896452e-03 -9.104401e-03 8.844768e-04 6.703722e-04 -2.422140e-04 -2.543588e-04 9.529258e-04 5.059284e-04 -1.889281e-04 7.279888e-04 -7.688465e-04 -2.495913e-04 1.332498e-03 -4.394265e-04 3.261990e-04
<VARIANCE> 39
 8.219599e+01 4.893846e+01 5.071893e+01 8.591927e+01 6.077419e+01 1.205758e+02 1.861641e+02 9.466347e+01 6.970116e+01 4.130511e+01 3.510496e+01 2.464328e+01 1.838637e+02 7.164186e-01 7.768909e-01 1.312438e+00 1.644828e+00 1.857571e+00 1.710242e+00 2.742190e+00 2.310627e+00 1.831292e+00 1.436394e+00 1.593504e+00 1.350349e+00 9.375085e-01 9.791613e-02 1.150666e-01 1.842515e-01 2.548057e-01 2.657366e-01 2.750535e-01 4.078938e-01 3.719303e-01 3.108524e-01 2.636214e-01 2.988366e-01 2.452536e-01 9.648285e-02
<GCONST> 1.123301e+02
<TRANSP> 6
 0.000000e+00 1.000000e+00 0.000000e+00 0.000000e+00 0.000000e+00 0.000000e+00
 0.000000e+00 9.921524e-01 7.847585e-03 0.000000e+00 0.000000e+00 0.000000e+00
 0.000000e+00 0.000000e+00 8.420208e-01 1.579792e-01 0.000000e+00 0.000000e+00
 0.000000e+00 0.000000e+00 0.000000e+00 8.749372e-01 1.250628e-01 0.000000e+00
 0.000000e+00 0.000000e+00 0.000000e+00 0.000000e+00 9.981907e-01 1.809278e-03
 0.000000e+00 0.000000e+00 0.000000e+00 0.000000e+00 0.000000e+00 0.000000e+00
<ENDHMM>
~h "nol"
<BEGINHMM>
<NUMSTATES> 6
<STATE> 2
<MEAN> 39
 -6.550935e+00 6.469600e+00 2.937296e+00 8.833833e+00 7.182918e-01 -1.187746e+00 1.811750e+00 4.206140e+00 -7.462394e-01 -4.317915e-02 9.302059e-01 -3.558042e+00 6.784827e+01 5.004722e-02 -2.569048e-02 1.905310e-02 -9.267805e-03 -5.588168e-03 6.259716e-03 2.243948e-02 -1.786412e-02 1.631020e-02 -8.340873e-03 -4.626670e-02 9.662089e-03 7.016671e-02 -3.502970e-03 4.696935e-03 3.819691e-03 4.696529e-04 9.612548e-04 -6.345692e-03 4.948268e-04 -2.517915e-03 9.053652e-03 4.670671e-03 3.877258e-03 7.314998e-03 2.017360e-03
<VARIANCE> 39
 8.778174e+01 6.551911e+01 4.662981e+01 4.584538e+01 7.359901e+01 5.339653e+01 5.222799e+01 2.978222e+01 3.715955e+01 2.899885e+01 3.400574e+01 2.900420e+01 9.236429e+01 2.846057e+00 3.003942e+00 2.390113e+00 3.663987e+00 3.658758e+00 4.520123e+00 3.835040e+00 2.037318e+00 2.884589e+00 1.565215e+00 2.133925e+00 2.117851e+00 3.002707e+00 3.619682e-01 4.356931e-01 4.091931e-01 6.375415e-01 4.996412e-01 7.652749e-01 6.938472e-01 3.512773e-01 5.521464e-01 2.917852e-01 3.642925e-01 3.516327e-01 4.470121e-01
<GCONST> 1.250729e+02
<STATE> 3
<MEAN> 39
 -2.246020e+01 -3.036411e+00 4.309630e+00 -4.112498e+00 -2.680388e+00 -2.218316e+00 6.862094e+00 -8.807967e+00 5.214701e+00 2.346019e+00 5.534125e-01 9.317489e-01 6.173145e+01 -7.138071e-01 5.048183e-01 3.947176e-01 2.000844e-02 1.411605e+00 3.453692e-01 1.603024e+00 -2.830989e-01 4.213935e-01 6.126103e-01 5.701670e-01 -1.221989e-01 4.610694e-01 1.347306e-01 2.438332e-01 -1.860627e-01 2.884529e-01 4.172983e-01 1.298274e-01 -7.167617e-02 2.271091e-01 1.669620e-01 -5.375665e-01 -2.097197e-01 -4.732513e-01 1.956470e-01
<VARIANCE> 39
 4.438417e+01 2.851472e+01 1.324543e+02 1.206608e+02 7.867429e+01 9.040204e+00 1.078090e+02 1.448140e+02 4.105528e+01 1.049342e+01 3.720208e+01 1.566740e+01 1.765494e+02 3.467132e-01 1.048745e+00 3.443137e-01 5.945036e-01 1.044126e+00 7.175125e-02 5.381737e-01 1.119434e-01 2.452200e-02 5.404588e-01 1.696914e+00 2.797653e-02 1.961144e-02 3.981044e-04 4.943258e-03 1.320950e-01 7.200731e-02 1.868383e-02 2.584129e-01 3.370883e-02 1.296108e-01 3.511100e-01 8.613732e-02 1.418734e-02 9.269216e-02 2.469168e-02
<GCONST> 6.063453e+01
<STATE> 4
<MEAN> 39
 -6.368114e+00 -6.469570e+00 1.400845e+00 -1.329033e+00 -4.706843e+00 5.543327e-01 2.316234e+00 -5.392516e+00 1.656162e+00 -3.688379e+00 -6.630559e+00 5.471169e-01 6.701526e+01 1.556546e-02 2.049617e-03 -1.206353e-02 8.685240e-03 3.150558e-03 7.205810e-03 -4.565006e-03 1.634961e-02 -1.097576e-02 -2.292001e-03 -6.124989e-03 5.032431e-04 -6.285154e-03 1.243934e-03 -5.338340e-04 -2.749282e-05 1.333469e-04 -1.107360e-03 1.764464e-04 -2.704096e-03 6.930753e-04 -8.830152e-04 8.243939e-04 -3.827482e-04 8.766384e-04 -1.150630e-03
<VARIANCE> 39
 7.925537e+01 4.904530e+01 5.275329e+01 8.736330e+01 7.180848e+01 1.428959e+02 1.960606e+02 1.019605e+02 6.952738e+01 4.320765e+01 3.554369e+01 2.672567e+01 1.847042e+02 8.211717e-01 8.139313e-01 1.371240e+00 1.684467e+00 2.106448e+00 1.913242e+00 2.765745e+00 2.549838e+00 1.943660e+00 1.615155e+00 1.714562e+00 1.394866e+00 1.038568e+00 1.107618e-01 1.183750e-01 1.857722e-01 2.633127e-01 2.876489e-01 2.942615e-01 4.142562e-01 4.034883e-01 3.360825e-01 2.898481e-01 3.249784e-01 2.515256e-01 1.118896e-01
<GCONST> 1.148022e+02
<STATE> 5
<MEAN> 39
 -1.240321e+01 -2.050127e+00 -2.703638e+00 1.990064e+00 2.742306e+00 3.826506e+00 4.916600e+00 2.168821e+00 -1.906824e+00 8.828108e-01 -2.582339e+00 3.851718e-01 5.869937e+01 1.346253e-01 1.243415e-01 1.589162e-02 -2.674991e-01 3.695181e-01 2.502041e-01 -6.838920e-01 4.494926e-01 -4.492939e-01 1.380397e-01 6.037208e-01 3.412787e-01 -1.875260e-01 3.931878e-02 4.948195e-02 7.459452e-02 -2.932877e-01 -2.397191e-01 -1.558596e-02 1.730382e-01 1.360836e-01 1.734850e-02 -1.858667e-01 9.105848e-02 5.990682e-02 6.971698e-02
<VARIANCE> 39
 1.781534e+01 1.661496e+01 1.520307e-01 1.898343e+01 5.429892e+01 3.314611e+01 4.694828e+01 2.671543e+01 2.535492e+01 1.001466e+01 2.615383e+00 5.592351e+00 6.853427e+01 8.078204e-03 5.684899e-02 2.984937e-01 1.114566e+00 3.727235e-01 1.124376e+00 1.083732e+00 1.479382e+00 1.729568e+00 4.179556e-01 4.072575e-01 2.453421e-01 1.714054e-01 3.842903e-03 3.155030e-03 5.938858e-03 2.728726e-02 3.804615e-02 1.184746e-01 8.638159e-02 7.843443e-04 2.878030e-02 1.113506e-01 2.637042e-02 2.134855e-01 5.730738e-03
<GCONST> 4.079431e+01
<TRANSP> 6
 0.000000e+00 1.000000e+00 0.000000e+00 0.000000e+00 0.000000e+00 0.000000e+00
 0.000000e+00 9.899321e-01 1.006796e-02 0.000000e+00 0.000000e+00 0.000000e+00
 0.000000e+00 0.000000e+00 0.000000e+00 1.000000e+00 0.000000e+00 0.000000e+00
 0.000000e+00 0.000000e+00 0.000000e+00 9.983128e-01 1.687157e-03 0.000000e+00
 0.000000e+00 0.000000e+00 0.000000e+00 0.000000e+00 4.000112e-01 5.999888e-01
 0.000000e+00 0.000000e+00 0.000000e+00 0.000000e+00 0.000000e+00 0.000000e+00
<ENDHMM>
~h "satu"
<BEGINHMM>
<NUMSTATES> 6
<STATE> 2
<MEAN> 39
 -2.321542e+01 -8.417210e+00 8.452548e+00 -1.630958e+01 5.525377e+00 -5.012658e+00 1.793724e+01 -1.564351e+01 8.178658e+00 -5.568241e+00 4.216150e+00 -5.173652e+00 7.692368e+01 2.221880e+00 -7.298616e-01 -2.123530e+00 8.589062e-02 -1.436613e+00 -7.377250e-03 4.158904e-01 4.156615e-01 -4.776636e-01 -1.162167e+00 -7.362831e-01 -3.280092e-01 6.167870e-01 2.407587e-01 -1.585349e-01 -2.228731e-01 2.888162e-01 -4.304127e-01 2.074488e-02 7.116048e-02 -1.311245e-01 3.046972e-01 -2.309648e-01 -8.993109e-02 1.521364e-02 7.851981e-02
<VARIANCE> 39
 1.327972e+02 3.765146e+01 1.126462e+02 9.569167e+01 8.336087e+01 1.449912e+01 9.425037e+01 8.108278e+01 5.787677e+01 5.157990e+01 2.026189e+01 1.524429e+01 2.573875e+02 1.033519e+01 1.462018e+00 3.426411e+00 1.166802e+00 7.948611e+00 6.742788e-01 1.980397e+00 1.357342e+00 8.857819e+00 3.047421e+00 1.448366e+00 6.389369e-01 1.001224e+00 1.496379e+00 2.090810e-01 2.892210e-01 1.553783e-01 4.922318e-01 2.003568e-01 3.421474e-01 3.746192e-01 2.692202e+00 3.130869e-01 2.242451e-01 1.663146e-01 2.115777e-01
<GCONST> 1.211434e+02
<STATE> 3
<MEAN> 39
 -2.467765e+01 4.805895e-02 -8.733479e+00 2.837770e+00 -5.853833e+00 3.180552e+00 2.609120e+00 2.047751e+00 -5.156655e-01 -9.270560e-01 6.502815e-01 -2.275659e+00 4.471923e+01 1.114788e-01 -1.994909e-01 1.537925e-02 5.885207e-01 -2.057275e-01 6.936722e-01 8.525633e-01 -1.585331e-01 5.799537e-01 -2.713571e-01 -1.202959e-01 -3.670633e-01 1.087896e-01 3.865660e-01 4.954425e-02 5.059527e-01 1.024031e-01 -1.507433e-01 -1.641890e-02 -2.411309e-01 -3.198358e-01 2.145813e-01 1.627512e-01 7.877113e-02 3.061380e-01 3.869311e-01
<VARIANCE> 39
 1.380011e+02 5.187960e+01 2.150850e+01 4.690543e+01 2.364533e+01 1.614148e+01 1.318158e+02 6.813094e+01 1.940161e+01 5.240525e+01 1.044027e+01 8.730825e+00 4.355555e+02 5.967460e-01 1.125122e+00 8.668249e-01 2.257667e+00 2.751818e+00 4.712379e-01 3.476363e-01 1.766247e+00 3.797581e+00 8.092439e-01 1.478027e-01 5.316092e-01 1.412613e-01 1.155644e+00 6.041437e-02 1.513228e-01 8.828690e-02 1.656975e-01 4.146608e-02 4.149716e-02 3.544373e-02 5.940079e-02 2.275216e-02 2.906932e-02 8.256969e-02 6.680719e-01
<GCONST> 8.517605e+01
<STATE> 4
<MEAN> 39
 -6.249463e+00 -4.603222e+00 1.616855e+00 2.187410e-01 -3.980223e+00 3.283543e-01 2.145849e+00 -3.967148e+00 1.281261e+00 -3.148901e+00 -5.618880e+00 -1.803333e-04 6.713879e+01 5.241827e-03 4.069162e-03 6.269640e-03 3.641104e-03 1.373196e-02 5.316628e-03 -3.878201e-03 9.027886e-03 -5.458831e-03 5.960614e-03 -6.096177e-03 4.968542e-03 1.143990e-03 -2.070130e-03 1.405469e-03 -5.585200e-05 -1.567720e-03 3.018653e-03 -6.513589e-04 -1.995959e-03 2.478637e-03 -1.861051e-03 1.508599e-03 2.249441e-04 -1.074269e-05 -2.227148e-03
<VARIANCE> 39
 7.734731e+01 7.204745e+01 5.135825e+01 9.257132e+01 7.521785e+01 1.311197e+02 1.744238e+02 1.022626e+02 6.547105e+01 4.265529e+01 4.189583e+01 2.907379e+01 1.678411e+02 1.024204e+00 1.122807e+00 1.477782e+00 1.969254e+00 2.279366e+00 2.298482e+00 2.929960e+00 2.480767e+00 2.024549e+00 1.591561e+00 1.779091e+00 1.503784e+00 1.323032e+00 1.337948e-01 1.636482e-01 2.163490e-01 3.179811e-01 3.159786e-01 3.637616e-01 4.555547e-01 3.964838e-01 3.526967e-01 2.905465e-01 3.317688e-01 2.668559e-01 1.572110e-01
<GCONST> 1.182742e+02
<STATE> 5
<MEAN> 39
 -1.240455e+01 -2.049447e+00 -2.703610e+00 1.991627e+00 2.738809e+00 3.828000e+00 4.913895e+00 2.167534e+00 -1.907987e+00 8.830701e-01 -2.582917e+00 3.842259e-01 5.869564e+01 1.346449e-01 1.242554e-01 1.601639e-02 -2.679596e-01 3.692873e-01 2.506442e-01 -6.836787e-01 4.489717e-01 -4.491256e-01 1.379536e-01 6.037222e-01 3.414700e-01 -1.873373e-01 3.934545e-02 4.946955e-02 7.462969e-02 -2.932635e-01 -2.396451e-01 -1.544022e-02 1.729003e-01 1.360865e-01 1.731792e-02 -1.859649e-01 9.101156e-02 6.011694e-02 6.970311e-02
<VARIANCE> 39
 1.781080e+01 1.661166e+01 1.520983e-01 1.898302e+01 5.430417e+01 3.313903e+01 4.695807e+01 2.671942e+01 2.535826e+01 1.001780e+01 2.616199e+00 5.593582e+00 6.852640e+01 8.076640e-03 5.686116e-02 2.984247e-01 1.114674e+00 3.727381e-01 1.124184e+00 1.083456e+00 1.479693e+00 1.729194e+00 4.180955e-01 4.072687e-01 2.453393e-01 1.713918e-01 3.843579e-03 3.154650e-03 5.939746e-03 2.728667e-02 3.803810e-02 1.184670e-01 8.638507e-02 7.840780e-04 2.877698e-02 1.113700e-01 2.637937e-02 2.134838e-01 5.729601e-03
<GCONST> 4.079494e+01
<TRANSP> 6
 0.000000e+00 1.000000e+00 0.000000e+00 0.000000e+00 0.000000e+00 0.000000e+00
 0.000000e+00 7.691340e-01 2.308659e-01 0.000000e+00 0.000000e+00 0.000000e+00
 0.000000e+00 0.000000e+00 5.715458e-01 4.284543e-01 0.000000e+00 0.000000e+00
 0.000000e+00 0.000000e+00 0.000000e+00 9.985434e-01 1.456613e-03 0.000000e+00
 0.000000e+00 0.000000e+00 0.000000e+00 0.000000e+00 4.000181e-01 5.999820e-01
 0.000000e+00 0.000000e+00 0.000000e+00 0.000000e+00 0.000000e+00 0.000000e+00
<ENDHMM>
~h "sil"
<BEGINHMM>
<NUMSTATES> 6
<STATE> 2
<MEAN> 39
 -4.667819e+00 -5.345441e+00 2.308920e+00 -1.362088e+00 -3.741710e+00 -9.837171e-01 2.787413e+00 -5.030238e+00 1.996771e+00 -4.171268e+00 -5.998876e+00 -3.748496e-01 7.048450e+01 2.848661e-02 -2.290795e-03 -4.431250e-03 6.139627e-03 1.131062e-03 6.737064e-03 4.171471e-04 6.549474e-03 -4.150236e-03 -2.384851e-03 -1.300681e-02 2.754333e-03 1.270395e-02 5.279520e-04 4.048742e-04 -8.172473e-04 1.997195e-03 -9.676388e-05 -1.710719e-03 -2.385465e-03 1.026858e-03 -1.316776e-03 3.962848e-04 5.505139e-04 1.603185e-03 -1.244216e-03
<VARIANCE> 39
 8.104093e+01 8.325398e+01 6.094231e+01 1.026141e+02 8.954922e+01 1.496410e+02 2.099739e+02 1.186337e+02 7.562325e+01 4.528440e+01 4.810609e+01 3.375919e+01 1.485792e+02 1.347723e+00 1.354615e+00 1.795739e+00 2.334260e+00 2.764687e+00 2.672674e+00 3.396756e+00 2.810877e+00 2.307197e+00 1.791494e+00 2.016798e+00 1.677560e+00 1.608514e+00 1.770567e-01 1.947824e-01 2.534760e-01 3.727251e-01 3.710617e-01 4.155088e-01 5.164885e-01 4.372699e-01 4.017439e-01 3.189392e-01 3.722973e-01 2.929855e-01 1.948198e-01
<GCONST> 1.238079e+02
<STATE> 3
<MEAN> 39
 -1.246244e+01 -3.858380e+00 -5.013388e-01 6.150955e+00 -6.200786e+00 6.641927e+00 -7.399653e-01 -6.598346e-01 -6.027031e-01 1.050657e+00 -5.212066e+00 2.112435e+00 5.407305e+01 -6.917322e-02 1.501753e-02 -5.381049e-02 6.640767e-02 2.919536e-02 -2.210556e-03 -1.949489e-02 7.809373e-02 -5.844657e-02 3.999176e-02 6.697980e-02 1.600806e-02 -1.070941e-01 7.551053e-04 2.847509e-03 2.260346e-02 -1.208817e-02 -2.414819e-02 -1.290833e-03 -1.654465e-02 -2.470423e-02 2.981183e-03 -2.964485e-02 -1.687859e-02 -1.506717e-03 6.632842e-03
<VARIANCE> 39
 2.793234e+00 2.689028e+00 3.034606e+00 4.195834e+00 8.334834e+00 3.400605e+00 9.148280e+00 8.983773e+00 6.793904e+00 5.892114e+00 7.193942e+00 6.630623e+00 6.192880e+00 1.317278e-01 1.676622e-01 3.517930e-01 3.677106e-01 4.621269e-01 3.196151e-01 9.956287e-01 1.008267e+00 8.107296e-01 5.471355e-01 8.100336e-01 8.489555e-01 1.106497e-01 2.409380e-02 3.222406e-02 6.768101e-02 6.651188e-02 8.633418e-02 7.193125e-02 2.061407e-01 2.247560e-01 1.574173e-01 1.035240e-01 1.698400e-01 1.734099e-01 9.727051e-03
<GCONST> 4.922141e+01
<STATE> 4
<MEAN> 39
 -1.350099e+01 -1.968832e+00 -1.578072e+00 6.528717e+00 -5.802701e+00 5.888472e+00 -1.460947e+00 1.184649e-01 -2.514854e+00 1.518533e+00 -4.156519e+00 1.285121e+00 5.160477e+01 -7.818053e-03 5.085459e-03 -5.431543e-03 2.562096e-03 7.600019e-03 -6.343177e-03 -1.361548e-02 -5.828158e-03 -3.789435e-02 -7.238930e-03 6.876629e-03 -4.350125e-03 -1.312033e-02 1.013562e-03 5.702910e-04 3.064697e-04 -7.306003e-03 -1.803288e-03 1.524587e-03 -1.144850e-03 -2.788958e-03 1.140680e-03 2.593811e-03 5.773239e-03 2.242987e-04 2.483281e-03
<VARIANCE> 39
 7.964181e-01 1.159087e+00 1.774789e+00 3.059800e+00 4.794031e+00 5.150393e+00 5.672891e+00 6.774640e+00 7.368068e+00 6.778992e+00 6.098329e+00 5.192893e+00 1.668116e+00 4.389400e-02 8.778862e-02 2.084537e-01 3.276583e-01 4.181397e-01 6.636261e-01 7.724339e-01 8.322593e-01 9.291787e-01 7.219396e-01 5.959544e-01 5.767761e-01 2.176899e-02 8.715839e-03 1.821443e-02 4.567947e-02 6.769823e-02 8.696666e-02 1.500524e-01 1.776908e-01 1.823797e-01 1.885878e-01 1.492506e-01 1.173479e-01 1.237242e-01 3.799680e-03
<GCONST> 3.709092e+01
<STATE> 5
<MEAN> 39
 -1.926484e+01 4.709784e+00 -1.921198e+00 7.783769e+00 2.608218e+00 5.271657e+00 7.214894e+00 3.476115e+00 4.671706e-01 8.269527e-01 1.865667e+00 1.124975e+00 5.338432e+01 1.145502e-03 -7.442864e-03 -2.685178e-02 -8.253380e-02 6.919326e-02 1.285254e-01 7.363407e-02 1.684228e-01 9.647635e-02 -2.074680e-02 -8.311719e-02 5.936703e-03 1.884062e-03 9.792821e-03 6.685696e-03 8.643256e-03 -1.454412e-02 1.457827e-02 2.358159e-02 2.779485e-02 4.725175e-02 6.019199e-02 2.170065e-02 -1.440182e-02 -7.758659e-04 8.124445e-03
<VARIANCE> 39
 3.581115e+00 4.740441e+00 5.015559e+00 7.711301e+00 6.377042e+00 8.853113e+00 1.052976e+01 1.353621e+01 1.771786e+01 9.838285e+00 9.527152e+00 6.895003e+00 4.312983e+00 5.892722e-02 2.517080e-01 4.876254e-01 4.145415e-01 2.976195e-01 5.014575e-01 7.788310e-01 1.628084e+00 1.991776e+00 1.388625e+00 1.060472e+00 9.937943e-01 2.677713e-02 9.482592e-03 5.441634e-02 1.062418e-01 8.256911e-02 5.886604e-02 7.552227e-02 1.249998e-01 3.062391e-01 3.829593e-01 3.028145e-01 2.196055e-01 2.185927e-01 4.972788e-03
<GCONST> 5.646098e+01
<TRANSP> 6
 0.000000e+00 1.000000e+00 0.000000e+00 0.000000e+00 0.000000e+00 0.000000e+00
 0.000000e+00 9.982310e-01 1.769004e-03 0.000000e+00 0.000000e+00 0.000000e+00
 0.000000e+00 0.000000e+00 9.605492e-01 3.945081e-02 0.000000e+00 0.000000e+00
 0.000000e+00 0.000000e+00 0.000000e+00 9.882289e-01 1.177114e-02 0.000000e+00
 0.000000e+00 0.000000e+00 0.000000e+00 0.000000e+00 9.473661e-01 5.263392e-02
 0.000000e+00 0.000000e+00 0.000000e+00 0.000000e+00 0.000000e+00 0.000000e+00
<ENDHMM>