~o
<STREAMINFO> 1 39
<VECSIZE> 39<NULLD><MFCC_D_A_0><DIAGC>
~h "sil"
<BEGINHMM>
<NUMSTATES> 6
<STATE> 2
<MEAN> 39
 -4.667562e+00 -5.346561e+00 2.308718e+00 -1.362335e+00 -3.742187e+00 -9.820607e-01 2.785525e+00 -5.029855e+00 1.997575e+00 -4.171249e+00 -5.999066e+00 -3.745275e-01 7.048382e+01 2.848650e-02 -2.292222e-03 -4.427223e-03 6.137985e-03 1.131093e-03 6.735865e-03 4.183750e-04 6.546587e-03 -4.148180e-03 -2.385386e-03 -1.300642e-02 2.753654e-03 1.270836e-02 5.277534e-04 4.048313e-04 -8.173531e-04 1.997123e-03 -9.662957e-05 -1.710708e-03 -2.384817e-03 1.026598e-03 -1.316920e-03 3.964026e-04 5.505587e-04 1.603017e-03 -1.244134e-03
<VARIANCE> 39
 8.104243e+01 8.324502e+01 6.094358e+01 1.026076e+02 8.953793e+01 1.496250e+02 2.099561e+02 1.186182e+02 7.562121e+01 4.528291e+01 4.809874e+01 3.375645e+01 1.485851e+02 1.347597e+00 1.354431e+00 1.795657e+00 2.334058e+00 2.764300e+00 2.672265e+00 3.396345e+00 2.810548e+00 2.306972e+00 1.791352e+00 2.016547e+00 1.677369e+00 1.608359e+00 1.770421e-01 1.947569e-01 2.534600e-01 3.726885e-01 3.710133e-01 4.154437e-01 5.164181e-01 4.372195e-01 4.017026e-01 3.189135e-01 3.722537e-01 2.929534e-01 1.947930e-01
<GCONST> 1.238043e+02
<STATE> 3
<MEAN> 39
 -1.246242e+01 -3.858420e+00 -5.012933e-01 6.151013e+00 -6.200883e+00 6.641963e+00 -7.400720e-01 -6.598487e-01 -6.026777e-01 1.050741e+00 -5.212061e+00 2.112489e+00 5.407299e+01 -6.916914e-02 1.502027e-02 -5.381946e-02 6.638843e-02 2.917682e-02 -2.220046e-03 -1.947569e-02 7.812103e-02 -5.839646e-02 4.002290e-02 6.699055e-02 1.599303e-02 -1.070833e-01 7.538775e-04 2.840726e-03 2.259765e-02 -1.209284e-02 -2.415622e-02 -1.293865e-03 -1.654549e-02 -2.470387e-02 2.985446e-03 -2.965155e-02 -1.688939e-02 -1.516248e-03 6.632197e-03
<VARIANCE> 39
 2.792967e+00 2.688679e+00 3.034600e+00 4.195476e+00 8.332961e+00 3.400563e+00 9.146851e+00 8.983486e+00 6.793804e+00 5.891654e+00 7.193476e+00 6.630626e+00 6.191643e+00 1.317265e-01 1.676626e-01 3.517953e-01 3.677015e-01 4.621040e-01 3.196166e-01 9.955772e-01 1.008183e+00 8.106650e-01 5.470984e-01 8.100388e-01 8.489643e-01 1.106435e-01 2.409406e-02 3.222335e-02 6.768119e-02 6.651229e-02 8.633065e-02 7.192466e-02 2.061422e-01 2.247521e-01 1.574155e-01 1.035195e-01 1.698371e-01 1.734082e-01 9.727268e-03
<GCONST> 4.921973e+01
<STATE> 4
<MEAN> 39
 -1.350098e+01 -1.968850e+00 -1.578072e+00 6.528720e+00 -5.802755e+00 5.888487e+00 -1.460985e+00 1.184480e-01 -2.514864e+00 1.518512e+00 -4.156561e+00 1.285107e+00 5.160474e+01 -7.818010e-03 5.084782e-03 -5.428706e-03 2.561595e-03 7.602605e-03 -6.338753e-03 -1.361472e-02 -5.840632e-03 -3.789880e-02 -7.244010e-03 6.870526e-03 -4.350322e-03 -1.311925e-02 1.014171e-03 5.713358e-04 3.079726e-04 -7.304189e-03 -1.799663e-03 1.528562e-03 -1.144231e-03 -2.786841e-03 1.141464e-03 2.596393e-03 5.776186e-03 2.287242e-04 2.483168e-03
<VARIANCE> 39
 7.963298e-01 1.158978e+00 1.774787e+00 3.059662e+00 4.793615e+00 5.150287e+00 5.672550e+00 6.774682e+00 7.368068e+00 6.779092e+00 6.098308e+00 5.192907e+00 1.667621e+00 4.389381e-02 8.778925e-02 2.084540e-01 3.276564e-01 4.181343e-01 6.636247e-01 7.724288e-01 8.322804e-01 9.291852e-01 7.219480e-01 5.959561e-01 5.767764e-01 2.176789e-02 8.715881e-03 1.821468e-02 4.567998e-02 6.769812e-02 8.696762e-02 1.500532e-01 1.776900e-01 1.823798e-01 1.885882e-01 1.492519e-01 1.173496e-01 1.237252e-01 3.799635e-03
<GCONST> 3.709023e+01
<STATE> 5
<MEAN> 39
 -1.926478e+01 4.709704e+00 -1.921211e+00 7.783702e+00 2.608149e+00 5.271665e+00 7.214807e+00 3.476061e+00 4.670954e-01 8.269170e-01 1.865598e+00 1.124959e+00 5.338432e+01 1.147471e-03 -7.443642e-03 -2.685005e-02 -8.254609e-02 6.918952e-02 1.285333e-01 7.362645e-02 1.684153e-01 9.646823e-02 -2.075454e-02 -8.311162e-02 5.944289e-03 1.885326e-03 9.793296e-03 6.685620e-03 8.644260e-03 -1.454589e-02 1.457614e-02 2.358203e-02 2.779469e-02 4.725247e-02 6.019059e-02 2.169591e-02 -1.440334e-02 -7.735513e-04 8.124899e-03
<VARIANCE> 39
 3.581503e+00 4.741064e+00 5.015543e+00 7.711720e+00 6.377869e+00 8.853204e+00 1.053059e+01 1.353648e+01 1.771835e+01 9.838344e+00 9.527590e+00 6.894988e+00 4.313293e+00 5.892731e-02 2.517067e-01 4.876229e-01 4.145572e-01 2.976196e-01 5.014687e-01 7.788320e-01 1.628085e+00 1.991769e+00 1.388623e+00 1.060468e+00 9.937960e-01 2.677777e-02 9.482565e-03 5.441601e-02 1.062412e-01 8.256893e-02 5.886624e-02 7.552199e-02 1.249993e-01 3.062371e-01 3.829571e-01 3.028150e-01 2.196044e-01 2.185925e-01 4.972789e-03
<GCONST> 5.646167e+01
<TRANSP> 6
 0.000000e+00 1.000000e+00 0.000000e+00 0.000000e+00 0.000000e+00 0.000000e+00
 0.000000e+00 9.982312e-01 1.768829e-03 0.000000e+00 0.000000e+00 0.000000e+00
 0.000000e+00 0.000000e+00 9.605595e-01 3.944048e-02 0.000000e+00 0.000000e+00
 0.000000e+00 0.000000e+00 0.000000e+00 9.882324e-01 1.176765e-02 0.000000e+00
 0.000000e+00 0.000000e+00 0.000000e+00 0.000000e+00 9.473568e-01 5.264319e-02
 0.000000e+00 0.000000e+00 0.000000e+00 0.000000e+00 0.000000e+00 0.000000e+00
<ENDHMM>
