~o
<STREAMINFO> 1 39
<VECSIZE> 39<NULLD><MFCC_D_A_0><DIAGC>
~h "nol"
<BEGINHMM>
<NUMSTATES> 6
<STATE> 2
<MEAN> 39
 -6.548941e+00 6.470301e+00 2.938593e+00 8.834273e+00 7.193912e-01 -1.188705e+00 1.812537e+00 4.206350e+00 -7.460654e-01 -4.338653e-02 9.304315e-01 -3.558408e+00 6.785167e+01 4.989002e-02 -2.564177e-02 1.901111e-02 -9.281505e-03 -5.571598e-03 6.259598e-03 2.241412e-02 -1.782644e-02 1.631211e-02 -8.339636e-03 -4.624544e-02 9.662757e-03 7.000143e-02 -3.502307e-03 4.697909e-03 3.815855e-03 4.689906e-04 9.710841e-04 -6.332546e-03 4.940850e-04 -2.514181e-03 9.048194e-03 4.678548e-03 3.883843e-03 7.307497e-03 2.014239e-03
<VARIANCE> 39
 8.774853e+01 6.552271e+01 4.661792e+01 4.584644e+01 7.359783e+01 5.339520e+01 5.222651e+01 2.978221e+01 3.716344e+01 2.900160e+01 3.400948e+01 2.900669e+01 9.226460e+01 2.845121e+00 3.004263e+00 2.390315e+00 3.664303e+00 3.659211e+00 4.520607e+00 3.835543e+00 2.037533e+00 2.884938e+00 1.565398e+00 2.134189e+00 2.118108e+00 3.002065e+00 3.617812e-01 4.357398e-01 4.092247e-01 6.375859e-01 4.997036e-01 7.653581e-01 6.939383e-01 3.513201e-01 5.522096e-01 2.918232e-01 3.643399e-01 3.516766e-01 4.468946e-01
<GCONST> 1.250728e+02
<STATE> 3
<MEAN> 39
 -2.246328e+01 -3.033669e+00 4.311739e+00 -4.113839e+00 -2.675780e+00 -2.220381e+00 6.866267e+00 -8.805094e+00 5.220771e+00 2.347121e+00 5.517030e-01 9.336327e-01 6.173448e+01 -7.143986e-01 5.058530e-01 3.949547e-01 2.041985e-02 1.412518e+00 3.456647e-01 1.603730e+00 -2.831073e-01 4.215229e-01 6.134080e-01 5.715634e-01 -1.220259e-01 4.610539e-01 1.347322e-01 2.439118e-01 -1.864052e-01 2.884121e-01 4.172880e-01 1.296751e-01 -7.178126e-02 2.269270e-01 1.668905e-01 -5.378917e-01 -2.096605e-01 -4.734969e-01 1.957509e-01
<VARIANCE> 39
 4.435487e+01 2.853120e+01 1.324075e+02 1.206278e+02 7.861885e+01 9.033102e+00 1.077439e+02 1.448474e+02 4.102822e+01 1.049729e+01 3.721280e+01 1.567580e+01 1.764771e+02 3.465212e-01 1.049450e+00 3.444687e-01 5.948600e-01 1.043370e+00 7.174040e-02 5.385701e-01 1.119277e-01 2.454136e-02 5.407066e-01 1.696340e+00 2.796321e-02 1.961245e-02 3.980186e-04 4.943829e-03 1.320069e-01 7.198475e-02 1.867991e-02 2.582850e-01 3.368390e-02 1.296846e-01 3.511328e-01 8.612837e-02 1.419529e-02 9.276509e-02 2.467245e-02
<GCONST> 6.063202e+01
<STATE> 4
<MEAN> 39
 -6.369310e+00 -6.467614e+00 1.401153e+00 -1.329864e+00 -4.705537e+00 5.494683e-01 2.322724e+00 -5.394915e+00 1.654455e+00 -3.689117e+00 -6.630618e+00 5.467115e-01 6.701748e+01 1.558226e-02 2.051094e-03 -1.207831e-02 8.692924e-03 3.150865e-03 7.218507e-03 -4.568244e-03 1.636789e-02 -1.098795e-02 -2.296966e-03 -6.126466e-03 5.035269e-04 -6.293436e-03 1.246069e-03 -5.350914e-04 -2.662466e-05 1.338943e-04 -1.109057e-03 1.761231e-04 -2.706437e-03 6.959462e-04 -8.826955e-04 8.243070e-04 -3.861634e-04 8.772736e-04 -1.151604e-03
<VARIANCE> 39
 7.924966e+01 4.905149e+01 5.274505e+01 8.736285e+01 7.183361e+01 1.429548e+02 1.961170e+02 1.019926e+02 6.952628e+01 4.320612e+01 3.555851e+01 2.672861e+01 1.846955e+02 8.212209e-01 8.140109e-01 1.371148e+00 1.684526e+00 2.107059e+00 1.913738e+00 2.766377e+00 2.550615e+00 1.943959e+00 1.615404e+00 1.715027e+00 1.395137e+00 1.038647e+00 1.107696e-01 1.183857e-01 1.857594e-01 2.633245e-01 2.877155e-01 2.943299e-01 4.143572e-01 4.036017e-01 3.361315e-01 2.898932e-01 3.250635e-01 2.515752e-01 1.119127e-01
<GCONST> 1.148081e+02
<STATE> 5
<MEAN> 39
 -1.240400e+01 -2.048016e+00 -2.703575e+00 1.989641e+00 2.747445e+00 3.828252e+00 4.923129e+00 2.173985e+00 -1.901974e+00 8.826172e-01 -2.581386e+00 3.870561e-01 5.870194e+01 1.345757e-01 1.245772e-01 1.610712e-02 -2.666760e-01 3.699902e-01 2.500261e-01 -6.834387e-01 4.506040e-01 -4.485378e-01 1.384744e-01 6.032574e-01 3.409392e-01 -1.877005e-01 3.927446e-02 4.952423e-02 7.453996e-02 -2.932127e-01 -2.397248e-01 -1.569269e-02 1.732037e-01 1.360794e-01 1.747968e-02 -1.855333e-01 9.117991e-02 5.970428e-02 6.968126e-02
<VARIANCE> 39
 1.782758e+01 1.663330e+01 1.519130e-01 1.898131e+01 5.427348e+01 3.317181e+01 4.694571e+01 2.673315e+01 2.537099e+01 1.000698e+01 2.613557e+00 5.590131e+00 6.852438e+01 8.078573e-03 5.685672e-02 2.987831e-01 1.114187e+00 3.726563e-01 1.124441e+00 1.084860e+00 1.479038e+00 1.731585e+00 4.179000e-01 4.076124e-01 2.452794e-01 1.713585e-01 3.840978e-03 3.156119e-03 5.935855e-03 2.730375e-02 3.805693e-02 1.184466e-01 8.634284e-02 7.843454e-04 2.879523e-02 1.114013e-01 2.636018e-02 2.134068e-01 5.736531e-03
<GCONST> 4.079836e+01
<TRANSP> 6
 0.000000e+00 1.000000e+00 0.000000e+00 0.000000e+00 0.000000e+00 0.000000e+00
 0.000000e+00 9.899449e-01 1.005510e-02 0.000000e+00 0.000000e+00 0.000000e+00
 0.000000e+00 0.000000e+00 0.000000e+00 1.000000e+00 0.000000e+00 0.000000e+00
 0.000000e+00 0.000000e+00 0.000000e+00 9.983113e-01 1.688666e-03 0.000000e+00
 0.000000e+00 0.000000e+00 0.000000e+00 0.000000e+00 3.998429e-01 6.001571e-01
 0.000000e+00 0.000000e+00 0.000000e+00 0.000000e+00 0.000000e+00 0.000000e+00
<ENDHMM>
