~o
<STREAMINFO> 1 39
<VECSIZE> 39<NULLD><MFCC_D_A_0><DIAGC>
~h "satu"
<BEGINHMM>
<NUMSTATES> 6
<STATE> 2
<MEAN> 39
 -2.321375e+01 -8.421552e+00 8.458364e+00 -1.631767e+01 5.529615e+00 -5.015306e+00 1.794535e+01 -1.565056e+01 8.181644e+00 -5.571383e+00 4.216842e+00 -5.176543e+00 7.693758e+01 2.222741e+00 -7.300491e-01 -2.124222e+00 8.596621e-02 -1.437385e+00 -7.612545e-03 4.157183e-01 4.156851e-01 -4.775871e-01 -1.162482e+00 -7.365051e-01 -3.276948e-01 6.170105e-01 2.408700e-01 -1.586051e-01 -2.229899e-01 2.889124e-01 -4.305707e-01 2.077240e-02 7.117775e-02 -1.311836e-01 3.047741e-01 -2.310879e-01 -8.996273e-02 1.518690e-02 7.856221e-02
<VARIANCE> 39
 1.328214e+02 3.761309e+01 1.125859e+02 9.554570e+01 8.333376e+01 1.448368e+01 9.409486e+01 8.097536e+01 5.786767e+01 5.157024e+01 2.026577e+01 1.522675e+01 2.568965e+02 1.033690e+01 1.462453e+00 3.426326e+00 1.167120e+00 7.949847e+00 6.743723e-01 1.980860e+00 1.357834e+00 8.861022e+00 3.048130e+00 1.448753e+00 6.388854e-01 1.001449e+00 1.496890e+00 2.091433e-01 2.892884e-01 1.554027e-01 4.923420e-01 2.004273e-01 3.422650e-01 3.747393e-01 2.693165e+00 3.131517e-01 2.243239e-01 1.663666e-01 2.116498e-01
<GCONST> 1.211394e+02
<STATE> 3
<MEAN> 39
 -2.466570e+01 4.186118e-02 -8.731567e+00 2.833295e+00 -5.854988e+00 3.176579e+00 2.620759e+00 2.040360e+00 -5.113622e-01 -9.331580e-01 6.496274e-01 -2.277739e+00 4.474047e+01 1.113858e-01 -2.004673e-01 1.478711e-02 5.898870e-01 -2.071213e-01 6.943128e-01 8.529379e-01 -1.597567e-01 5.813899e-01 -2.721438e-01 -1.200276e-01 -3.668674e-01 1.089225e-01 3.857148e-01 4.965807e-02 5.062125e-01 1.021938e-01 -1.503808e-01 -1.642533e-02 -2.413083e-01 -3.199606e-01 2.146484e-01 1.628176e-01 7.889885e-02 3.062758e-01 3.863998e-01
<VARIANCE> 39
 1.381736e+02 5.197458e+01 2.150959e+01 4.698441e+01 2.366871e+01 1.615955e+01 1.319673e+02 6.825175e+01 1.941765e+01 5.249189e+01 1.044847e+01 8.745164e+00 4.360645e+02 5.966428e-01 1.126393e+00 8.675414e-01 2.261660e+00 2.756549e+00 4.718613e-01 3.476514e-01 1.769120e+00 3.804204e+00 8.102486e-01 1.479903e-01 5.318949e-01 1.413233e-01 1.156157e+00 6.043139e-02 1.515224e-01 8.828408e-02 1.659462e-01 4.146586e-02 4.151163e-02 3.544314e-02 5.945950e-02 2.274380e-02 2.909353e-02 8.267274e-02 6.680870e-01
<GCONST> 8.521200e+01
<STATE> 4
<MEAN> 39
 -6.249137e+00 -4.600931e+00 1.618110e+00 2.159026e-01 -3.978857e+00 3.176808e-01 2.157650e+00 -3.973056e+00 1.277639e+00 -3.151124e+00 -5.620434e+00 -1.232340e-03 6.714572e+01 5.226315e-03 4.086087e-03 6.274392e-03 3.648257e-03 1.375672e-02 5.322844e-03 -3.894625e-03 9.053377e-03 -5.467238e-03 5.981152e-03 -6.095545e-03 4.979630e-03 1.115984e-03 -2.069227e-03 1.407974e-03 -5.394852e-05 -1.568734e-03 3.023667e-03 -6.531620e-04 -1.999493e-03 2.483323e-03 -1.865691e-03 1.511201e-03 2.249874e-04 -1.107535e-05 -2.227387e-03
<VARIANCE> 39
 7.731082e+01 7.203951e+01 5.134626e+01 9.257597e+01 7.526693e+01 1.312490e+02 1.745610e+02 1.023449e+02 6.547272e+01 4.265577e+01 4.191974e+01 2.908201e+01 1.678123e+02 1.024204e+00 1.123101e+00 1.477681e+00 1.969628e+00 2.280794e+00 2.299784e+00 2.931560e+00 2.482397e+00 2.025079e+00 1.592058e+00 1.780105e+00 1.504412e+00 1.323342e+00 1.337981e-01 1.636877e-01 2.163375e-01 3.180469e-01 3.161484e-01 3.639422e-01 4.557967e-01 3.967068e-01 3.527701e-01 2.906308e-01 3.319570e-01 2.669622e-01 1.572737e-01
<GCONST> 1.182864e+02
<STATE> 5
<MEAN> 39
 -1.240022e+01 -2.052131e+00 -2.703713e+00 1.986958e+00 2.748067e+00 3.822922e+00 4.920330e+00 2.170010e+00 -1.905802e+00 8.823298e-01 -2.581415e+00 3.865897e-01 5.870634e+01 1.345991e-01 1.244523e-01 1.557255e-02 -2.667824e-01 3.698606e-01 2.493455e-01 -6.844615e-01 4.502523e-01 -4.498566e-01 1.380940e-01 6.038499e-01 3.409802e-01 -1.878661e-01 3.927629e-02 4.949555e-02 7.453740e-02 -2.933591e-01 -2.398703e-01 -1.585665e-02 1.732759e-01 1.360789e-01 1.737433e-02 -1.857587e-01 9.112085e-02 5.953046e-02 6.975577e-02
<VARIANCE> 39
 1.782124e+01 1.661654e+01 1.519247e-01 1.898487e+01 5.429521e+01 3.315340e+01 4.692875e+01 2.670211e+01 2.534345e+01 1.001037e+01 2.614219e+00 5.590435e+00 6.855334e+01 8.081330e-03 5.682161e-02 2.985541e-01 1.114449e+00 3.727121e-01 1.124754e+00 1.083980e+00 1.478835e+00 1.729766e+00 4.176827e-01 4.071332e-01 2.453657e-01 1.714470e-01 3.842054e-03 3.155507e-03 5.937872e-03 2.728380e-02 3.805969e-02 1.184983e-01 8.638540e-02 7.848947e-04 2.878291e-02 1.112962e-01 2.635482e-02 2.135111e-01 5.731436e-03
<GCONST> 4.079184e+01
<TRANSP> 6
 0.000000e+00 1.000000e+00 0.000000e+00 0.000000e+00 0.000000e+00 0.000000e+00
 0.000000e+00 7.694137e-01 2.305864e-01 0.000000e+00 0.000000e+00 0.000000e+00
 0.000000e+00 0.000000e+00 5.712841e-01 4.287159e-01 0.000000e+00 0.000000e+00
 0.000000e+00 0.000000e+00 0.000000e+00 9.985426e-01 1.457365e-03 0.000000e+00
 0.000000e+00 0.000000e+00 0.000000e+00 0.000000e+00 4.000452e-01 5.999548e-01
 0.000000e+00 0.000000e+00 0.000000e+00 0.000000e+00 0.000000e+00 0.000000e+00
<ENDHMM>
