~o
<STREAMINFO> 1 39
<VECSIZE> 39<NULLD><MFCC_D_A_0><DIAGC>
~h "enam"
<BEGINHMM>
<NUMSTATES> 6
<STATE> 2
<MEAN> 39
 -4.651071e+00 -5.286378e+00 2.279814e+00 -1.315924e+00 -3.655304e+00 -1.087372e+00 2.892958e+00 -5.019679e+00 1.941245e+00 -4.147742e+00 -5.963345e+00 -3.516322e-01 7.053726e+01 3.332340e-02 -3.505858e-03 6.872735e-03 3.274446e-04 -1.517101e-03 2.758260e-03 -5.001865e-04 -2.023237e-03 1.857986e-03 -7.926510e-03 -1.209346e-02 6.578844e-04 2.424183e-02 2.101659e-04 -1.269265e-03 -1.022730e-03 -9.341576e-04 -9.368579e-04 8.180041e-04 -1.890124e-03 3.283733e-04 -4.966484e-04 1.089081e-03 -2.399587e-04 9.159828e-04 -8.049756e-04
<VARIANCE> 39
 8.211498e+01 8.384729e+01 6.146127e+01 1.038048e+02 8.946635e+01 1.511006e+02 2.104572e+02 1.203067e+02 7.646889e+01 4.577843e+01 4.849672e+01 3.415232e+01 1.502654e+02 1.366179e+00 1.364161e+00 1.792240e+00 2.357153e+00 2.793074e+00 2.694114e+00 3.422709e+00 2.838032e+00 2.322211e+00 1.806226e+00 2.027326e+00 1.695599e+00 1.623706e+00 1.793171e-01 1.966102e-01 2.537307e-01 3.761049e-01 3.731084e-01 4.190930e-01 5.214710e-01 4.420011e-01 4.042620e-01 3.222799e-01 3.729763e-01 2.955675e-01 1.975011e-01
<GCONST> 1.241375e+02
<STATE> 3
<MEAN> 39
 -8.390873e+00 -2.452475e+00 5.570857e+00 -2.062730e+00 -7.955341e-01 1.220400e+00 5.274533e+00 -7.342853e+00 4.048652e+00 -1.791469e+00 -2.337507e+00 -3.143528e-01 6.786295e+01 -4.005357e-01 -8.446537e-01 -8.470984e-01 -5.223306e-01 1.143959e-01 7.976404e-01 1.947515e-01 4.564737e-01 -9.580862e-01 2.033852e-01 -5.525848e-01 -4.311425e-01 -5.600578e-01 -2.077023e-02 1.639402e-01 -2.296287e-01 3.246844e-01 -4.973849e-01 -3.268410e-01 7.641579e-02 4.371529e-01 7.616224e-02 -2.679622e-01 -1.387065e-01 -1.831847e-01 -1.533468e-01
<VARIANCE> 39
 3.237195e+01 7.330925e+01 5.477589e+01 4.407202e+01 6.901994e+01 5.708956e+01 1.530787e+02 3.568943e+00 2.777427e+01 1.524055e+01 1.534945e+01 7.436483e-02 8.034806e+01 2.116389e-02 2.778516e-01 1.475940e+00 4.583170e-01 1.485543e-01 1.876564e+00 5.227746e-01 2.988657e+00 1.085408e+00 1.707538e+00 8.018621e-02 3.146287e-01 1.810787e-02 1.468645e-01 5.594467e-02 3.880614e-02 1.691158e-04 1.514332e-01 1.607830e-01 1.770246e-01 1.283786e-01 1.073037e-01 2.859960e-02 3.887158e-02 2.877476e-01 3.579605e-02
<GCONST> 6.111008e+01
<STATE> 4
<MEAN> 39
 -6.821531e+00 -8.401802e+00 2.644677e+00 -2.777821e+00 -8.284998e+00 4.924813e+00 -2.497348e+00 -4.936155e+00 3.480067e+00 -4.844294e+00 -8.465320e+00 -1.580864e+00 6.527173e+01 -3.209174e-01 1.265608e-01 -6.267967e-01 5.524857e-01 2.690725e-01 7.770070e-02 -7.229255e-02 5.503364e-01 -4.507619e-01 3.339451e-01 1.489543e-01 2.223185e-01 -7.433641e-01 1.567286e-02 9.983266e-02 8.501232e-02 1.128275e-01 5.660394e-02 -1.048686e-01 -3.524707e-02 4.057767e-03 1.719363e-02 -3.402288e-02 8.854494e-02 9.865191e-02 3.743817e-03
<VARIANCE> 39
 1.051839e+01 2.138766e+01 1.858598e+01 2.167265e+01 6.917832e+01 1.790677e+01 1.215562e+02 1.966913e+01 1.687321e+01 1.354142e+01 1.651723e+01 7.458835e+00 3.546759e+01 9.254084e-02 5.318760e-01 1.120491e+00 6.112968e-01 1.193863e+00 1.004280e+00 2.098788e+00 6.610257e-01 1.210752e+00 5.771289e-01 1.314189e+00 7.208579e-01 7.196653e-02 1.698030e-02 5.783254e-02 1.911518e-01 1.459836e-01 2.519958e-01 1.697997e-01 2.181593e-01 1.424355e-01 2.601155e-01 9.947702e-02 3.050468e-01 1.547206e-01 1.715286e-02
<GCONST> 7.798051e+01
<STATE> 5
<MEAN> 39
 -1.423631e+01 -1.276786e+00 -1.427027e+00 6.737569e+00 -4.680766e+00 5.998658e+00 -8.947887e-02 5.231689e-01 -1.706814e+00 1.380681e+00 -3.403540e+00 1.461194e+00 5.217453e+01 -8.026674e-03 6.555464e-03 -9.153847e-03 -1.374165e-02 9.526351e-03 1.976969e-02 6.556756e-03 2.543024e-02 -3.901654e-03 -5.474071e-03 -7.575472e-03 -4.691280e-03 -1.297487e-02 2.592076e-03 -3.524195e-04 1.534358e-03 -8.563411e-03 -1.009552e-03 4.480155e-03 1.040368e-04 -3.690806e-04 4.660080e-03 1.024769e-03 -4.527214e-03 -4.014469e-03 3.099269e-03
<VARIANCE> 39
 5.818349e+00 8.561081e+00 2.745602e+00 3.652454e+00 1.361310e+01 5.383791e+00 1.548155e+01 9.472314e+00 1.027030e+01 6.964417e+00 1.149586e+01 5.779087e+00 2.076499e+00 5.774829e-02 1.280398e-01 2.772457e-01 3.352813e-01 3.827113e-01 5.773730e-01 7.811325e-01 9.864077e-01 1.050094e+00 7.928487e-01 7.058064e-01 6.772461e-01 2.992094e-02 1.169623e-02 2.591934e-02 5.903034e-02 6.793346e-02 7.731418e-02 1.228752e-01 1.744607e-01 2.099910e-01 2.106188e-01 1.652275e-01 1.427080e-01 1.436803e-01 5.089827e-03
<GCONST> 4.877740e+01
<TRANSP> 6
 0.000000e+00 1.000000e+00 0.000000e+00 0.000000e+00 0.000000e+00 0.000000e+00
 0.000000e+00 9.982029e-01 1.797088e-03 0.000000e+00 0.000000e+00 0.000000e+00
 0.000000e+00 0.000000e+00 0.000000e+00 1.000000e+00 0.000000e+00 0.000000e+00
 0.000000e+00 0.000000e+00 0.000000e+00 9.061394e-01 9.386057e-02 0.000000e+00
 0.000000e+00 0.000000e+00 0.000000e+00 0.000000e+00 9.920740e-01 7.926049e-03
 0.000000e+00 0.000000e+00 0.000000e+00 0.000000e+00 0.000000e+00 0.000000e+00
<ENDHMM>
