~o
<STREAMINFO> 1 39
<VECSIZE> 39<NULLD><MFCC_D_A_0><DIAGC>
~h "lima"
<BEGINHMM>
<NUMSTATES> 6
<STATE> 2
<MEAN> 39
 -6.422416e+00 3.905403e+00 3.557528e+00 4.963536e+00 -1.367759e+00 -3.635001e+00 4.781106e+00 7.055381e-01 -8.362609e-01 -1.817723e+00 -2.147789e-01 -3.870487e+00 6.990141e+01 1.161230e-01 1.302142e-02 -7.641738e-03 3.283934e-02 -5.418829e-02 -3.378081e-02 1.348953e-02 -2.520497e-03 -3.149622e-02 -3.855356e-02 -1.011001e-01 -1.876717e-02 4.900098e-02 3.310911e-03 7.424046e-04 1.483875e-03 2.619416e-03 -2.642674e-02 -2.027095e-02 -4.916952e-03 -3.065065e-03 6.452009e-03 6.200394e-03 -6.682146e-03 -1.237014e-03 -1.438042e-03
<VARIANCE> 39
 8.050028e+01 8.426920e+01 5.313428e+01 9.605255e+01 1.194664e+02 9.997345e+01 8.293519e+01 9.463999e+01 4.324742e+01 4.464240e+01 4.100065e+01 2.730629e+01 9.408290e+01 2.915015e+00 2.688657e+00 2.479761e+00 3.424967e+00 4.452811e+00 4.869631e+00 3.821380e+00 3.337600e+00 3.256282e+00 2.282206e+00 2.629728e+00 2.103817e+00 3.047991e+00 3.676051e-01 3.847872e-01 3.741231e-01 6.062996e-01 5.464352e-01 7.559332e-01 6.671748e-01 5.237588e-01 6.393225e-01 4.157716e-01 4.845797e-01 3.457402e-01 4.457887e-01
<GCONST> 1.318808e+02
<STATE> 3
<MEAN> 39
 -3.477069e+00 2.930036e-01 1.070803e+01 -1.522905e+00 -1.969060e+01 -2.495614e+01 1.389626e+01 -1.501463e+01 -6.245293e+00 -3.715132e+00 -1.153315e+01 -6.547840e+00 7.538221e+01 1.503960e-01 -4.615522e-01 -3.094533e-01 -3.958195e-01 -6.710999e-01 -3.009461e-01 -1.894686e-01 3.231196e-01 -1.400906e-01 3.983169e-03 3.746749e-01 4.801800e-01 2.809310e-01 2.006110e-02 -1.361077e-01 -1.719933e-01 -1.651021e-01 3.143195e-01 1.917167e-01 3.982398e-02 -1.850533e-02 1.308925e-01 -2.337713e-01 -6.864547e-02 2.292102e-01 1.133382e-01
<VARIANCE> 39
 2.288330e+01 6.623645e+00 2.776403e+01 2.752834e+01 3.672597e+01 1.138832e+02 3.683226e+01 5.142518e+01 1.362752e+01 2.135081e+01 2.145614e+01 1.979258e+01 7.957378e+01 2.071909e-01 6.087217e-01 7.147391e-01 2.458987e+00 1.294973e+00 1.618215e+00 1.527400e+00 9.228846e-01 1.251566e+00 3.352709e+00 1.446315e+00 2.430349e+00 7.582639e-01 4.330490e-02 2.829482e-02 6.251335e-02 1.546116e-01 2.934454e-01 2.166209e-01 4.274657e-01 1.964051e-01 1.337536e-01 1.418727e-01 1.404876e-01 6.033900e-01 3.543554e-02
<GCONST> 9.096522e+01
<STATE> 4
<MEAN> 39
 -3.220305e+00 -1.255792e+01 -1.194743e+00 -1.434492e+01 -1.511460e+01 -1.786127e+01 2.672949e+01 -2.114954e+01 5.096062e+00 -1.227994e+01 -8.881024e+00 5.336516e+00 8.405383e+01 -5.776590e-02 -3.534831e-01 -4.322440e-01 -1.853292e-01 9.300984e-02 5.340372e-01 5.498379e-01 -4.550596e-01 6.843815e-01 -4.949310e-03 8.541796e-02 6.082976e-01 5.267273e-02 -5.593715e-02 1.092946e-01 1.670842e-01 9.748490e-02 3.771000e-02 8.303593e-02 -1.071276e-01 9.007829e-02 -8.167761e-02 1.167957e-01 8.102384e-02 -2.246939e-02 -1.107156e-01
<VARIANCE> 39
 1.229098e+01 2.160886e+01 8.221954e+00 3.326661e+01 1.623811e+01 4.668146e+01 9.871587e+01 6.868302e+01 1.839181e+01 1.631148e+01 4.758343e+00 1.915122e+01 9.004309e+01 2.342594e-02 4.911208e-01 3.685301e-01 2.527696e-01 1.208104e+00 7.316137e-01 1.283554e+00 7.179490e-01 3.294232e-01 1.005900e+00 5.232832e-01 3.915933e-01 3.321077e-01 4.809060e-02 5.933972e-02 7.238220e-02 4.568778e-02 1.669347e-01 9.985262e-02 1.643340e-01 7.160036e-02 1.764540e-02 1.641183e-01 1.216618e-01 1.079183e-01 3.521924e-02
<GCONST> 6.857260e+01
<STATE> 5
<MEAN> 39
 -6.513251e+00 -6.507046e+00 1.103986e+00 -7.578136e-01 -4.155632e+00 1.772865e+00 1.183243e+00 -4.716918e+00 1.836466e+00 -3.315113e+00 -6.636188e+00 8.392113e-01 6.612192e+01 -2.790868e-03 6.264173e-03 2.812751e-03 6.530456e-03 2.481638e-02 1.369412e-02 -8.908750e-03 1.859234e-02 -1.047316e-02 6.458597e-03 5.699025e-03 -6.895294e-03 -9.089659e-03 8.830685e-04 6.670009e-04 -2.439445e-04 -2.575650e-04 9.483585e-04 5.021656e-04 -1.927539e-04 7.223043e-04 -7.693880e-04 -2.502807e-04 1.331753e-03 -4.360515e-04 3.271746e-04
<VARIANCE> 39
 8.219144e+01 4.892379e+01 5.073456e+01 8.592247e+01 6.075912e+01 1.205269e+02 1.861063e+02 9.463194e+01 6.970718e+01 4.130960e+01 3.508471e+01 2.464345e+01 1.838764e+02 7.164984e-01 7.768800e-01 1.312689e+00 1.644930e+00 1.857226e+00 1.709964e+00 2.741639e+00 2.310016e+00 1.831077e+00 1.436295e+00 1.593134e+00 1.350119e+00 9.375985e-01 9.792436e-02 1.150613e-01 1.842761e-01 2.548180e-01 2.656936e-01 2.750107e-01 4.078034e-01 3.718330e-01 3.108233e-01 2.635954e-01 2.987696e-01 2.452053e-01 9.647784e-02
<GCONST> 1.123262e+02
<TRANSP> 6
 0.000000e+00 1.000000e+00 0.000000e+00 0.000000e+00 0.000000e+00 0.000000e+00
 0.000000e+00 9.921382e-01 7.861773e-03 0.000000e+00 0.000000e+00 0.000000e+00
 0.000000e+00 0.000000e+00 8.421151e-01 1.578849e-01 0.000000e+00 0.000000e+00
 0.000000e+00 0.000000e+00 0.000000e+00 8.750148e-01 1.249852e-01 0.000000e+00
 0.000000e+00 0.000000e+00 0.000000e+00 0.000000e+00 9.981936e-01 1.806431e-03
 0.000000e+00 0.000000e+00 0.000000e+00 0.000000e+00 0.000000e+00 0.000000e+00
<ENDHMM>
