~o
<STREAMINFO> 1 39
<VECSIZE> 39<NULLD><MFCC_D_A_0><DIAGC>
~h "dua"
<BEGINHMM>
<NUMSTATES> 6
<STATE> 2
<MEAN> 39
 -5.687999e+00 -2.253701e-01 3.353149e+00 -9.072534e-01 -1.773255e+00 -1.039792e+01 1.312579e+01 -8.071236e+00 -2.602304e+00 -4.706429e+00 -5.597414e+00 -2.038936e+00 7.453309e+01 5.329800e-02 3.363898e-03 -1.559738e-02 1.514272e-02 1.189173e-03 1.152518e-02 6.880125e-03 1.539510e-02 -1.755484e-02 -1.102278e-02 -2.290736e-02 8.998954e-03 1.473498e-02 3.962854e-04 -2.306799e-03 -1.072786e-03 -1.017870e-03 -5.126611e-03 -1.201258e-03 -4.362834e-03 2.453767e-03 3.177648e-03 6.068465e-04 -4.021787e-03 1.240374e-03 -1.276904e-03
<VARIANCE> 39
 5.296340e+01 7.801742e+01 4.394343e+01 1.154862e+02 1.295890e+02 1.332837e+02 1.753354e+02 1.738724e+02 5.376864e+01 4.435165e+01 7.692535e+01 3.922475e+01 8.726040e+01 1.898636e+00 2.008734e+00 1.883338e+00 2.970669e+00 4.350510e+00 4.272680e+00 4.920039e+00 4.125590e+00 3.059148e+00 2.238336e+00 2.966841e+00 2.363121e+00 2.239765e+00 2.458954e-01 2.851395e-01 2.793270e-01 4.927888e-01 5.562835e-01 6.630031e-01 7.838017e-01 6.279971e-01 5.427148e-01 3.960083e-01 5.431193e-01 4.073161e-01 3.160653e-01
<GCONST> 1.320020e+02
<STATE> 3
<MEAN> 39
 -1.450413e+01 -2.384038e-01 -2.036001e+00 2.070375e+00 8.369619e-01 4.608198e+00 7.468763e+00 -2.389205e-01 5.788620e-01 -2.918328e+00 -3.014530e+00 -6.174704e-01 5.758986e+01 -2.983050e-01 -6.889074e-01 -2.697148e-01 -2.603550e-04 -7.998324e-01 3.840220e-01 3.870345e-01 9.047532e-01 1.851844e-01 -1.385222e-02 -9.221941e-01 -7.692482e-01 -2.575572e-01 3.554360e-01 1.732301e-01 -8.391477e-03 2.414260e-01 -3.132110e-01 -5.022255e-01 -1.227580e-01 4.868536e-03 2.104057e-01 -1.520878e-02 -2.003982e-01 -1.548665e-01 3.036872e-01
<VARIANCE> 39
 3.108589e+01 1.555693e+01 2.011474e+01 5.049292e+01 7.081953e+01 4.793546e+01 1.557943e+02 3.764850e+00 3.242762e+00 6.011606e+00 9.567295e+00 1.265796e-01 1.129041e+02 2.251284e-03 2.533881e-01 3.538855e-01 1.106304e-01 2.201051e-01 2.069463e+00 5.832051e-02 1.025117e+00 3.284828e-02 5.451355e-01 5.497892e-01 8.541651e-01 1.775270e-01 4.992402e-02 1.546423e-03 1.191365e-01 2.631015e-01 3.133489e-01 6.739424e-01 1.625890e-01 9.205152e-02 2.050808e-02 9.682360e-02 1.195812e-01 3.774469e-03 3.620115e-02
<GCONST> 5.042181e+01
<STATE> 4
<MEAN> 39
 -1.348532e+01 -2.798211e+00 -2.921046e+00 4.920601e+00 -6.843186e+00 6.360485e+00 -1.240060e+00 6.706043e-01 -1.919463e+00 1.002465e+00 -4.860845e+00 1.480604e+00 5.172364e+01 7.547391e-03 -1.495044e-02 1.037786e-02 -9.601898e-03 2.036090e-02 1.393645e-02 -2.272338e-03 1.142190e-02 3.057153e-02 9.173718e-03 -1.672292e-02 -3.069061e-03 2.375404e-02 4.429174e-04 7.826919e-04 2.401379e-03 1.577703e-03 1.388740e-03 -9.728733e-04 -9.193826e-03 -4.449671e-03 7.466174e-03 5.109537e-03 6.545603e-03 6.122346e-03 1.898457e-03
<VARIANCE> 39
 1.030743e+00 2.024985e+00 3.432192e+00 4.328693e+00 5.606789e+00 6.211403e+00 8.813434e+00 7.417976e+00 7.439549e+00 8.629295e+00 6.950060e+00 6.024178e+00 2.966110e+00 8.492181e-02 2.459671e-01 3.326775e-01 4.696164e-01 3.941551e-01 6.397781e-01 5.878253e-01 8.768320e-01 1.018076e+00 1.023759e+00 8.935826e-01 6.907668e-01 5.185092e-02 1.766400e-02 5.667118e-02 6.104347e-02 1.065951e-01 7.735179e-02 1.308216e-01 1.209053e-01 1.794233e-01 2.171873e-01 2.180833e-01 1.844787e-01 1.458657e-01 9.094922e-03
<GCONST> 4.892909e+01
<STATE> 5
<MEAN> 39
 -5.690801e+00 -7.792481e+00 1.263160e+00 -2.455496e-02 -4.820452e+00 6.263381e+00 -4.263771e+00 -2.163851e+00 4.421804e+00 -2.840407e+00 -5.609261e+00 1.010712e+00 6.490756e+01 6.818883e-04 5.289221e-04 -3.614096e-03 1.752615e-03 6.636633e-03 3.941547e-03 -5.199463e-03 7.683400e-03 -7.955145e-03 2.157702e-03 2.785609e-03 1.155784e-03 -4.135469e-03 2.822291e-04 2.176375e-03 1.106265e-03 -4.335082e-04 2.515599e-03 1.161840e-03 1.232267e-03 7.618584e-04 -2.409970e-03 -9.559448e-04 2.306893e-03 8.434199e-04 -7.359799e-04
<VARIANCE> 39
 1.030601e+02 5.647186e+01 6.038686e+01 9.070833e+01 4.719440e+01 3.265281e+01 8.155396e+01 5.516373e+01 6.180608e+01 4.302121e+01 2.571290e+01 2.229162e+01 1.739846e+02 7.684557e-01 6.995199e-01 1.475336e+00 1.566622e+00 1.335594e+00 1.259815e+00 2.010969e+00 1.664024e+00 1.618116e+00 1.291459e+00 1.143270e+00 1.062507e+00 9.316518e-01 1.029790e-01 1.022540e-01 2.035631e-01 2.365879e-01 2.018309e-01 2.015114e-01 2.940438e-01 2.799262e-01 2.771378e-01 2.332994e-01 2.150654e-01 1.944558e-01 8.277249e-02
<GCONST> 1.052174e+02
<TRANSP> 6
 0.000000e+00 1.000000e+00 0.000000e+00 0.000000e+00 0.000000e+00 0.000000e+00
 0.000000e+00 9.959808e-01 4.019188e-03 0.000000e+00 0.000000e+00 0.000000e+00
 0.000000e+00 0.000000e+00 0.000000e+00 1.000000e+00 0.000000e+00 0.000000e+00
 0.000000e+00 0.000000e+00 0.000000e+00 9.846053e-01 1.539471e-02 0.000000e+00
 0.000000e+00 0.000000e+00 0.000000e+00 0.000000e+00 9.973667e-01 2.633325e-03
 0.000000e+00 0.000000e+00 0.000000e+00 0.000000e+00 0.000000e+00 0.000000e+00
<ENDHMM>
